<?xml version="1.0"?>
<opencv_storage>
<stage9>
  <maxWeakCount>10</maxWeakCount>
  <stageThreshold>-1.1213377714157104e+00</stageThreshold>
  <weakClassifiers>
    <_>
      <internalNodes>
        0 -1 32947 1342430128 53512327 319014912 959797643 -264058496
        1266712587 1621418017 1535895786</internalNodes>
      <leafValues>
        -5.5311357975006104e-01 3.9059966802597046e-01</leafValues></_>
    <_>
      <internalNodes>
        0 -1 12290 -1734291248 -1111851536 -314277897 -571891849
        -2123700644 -1074266124 1316244600 -11010561</internalNodes>
      <leafValues>
        -4.0209817886352539e-01 5.0655859708786011e-01</leafValues></_>
    <_>
      <internalNodes>
        0 -1 15082 -582159881 814006416 285214097 1273499691 -134068030
        -198705148 992021180 420479224</internalNodes>
      <leafValues>
        -5.1036787033081055e-01 4.2060226202011108e-01</leafValues></_>
    <_>
      <internalNodes>
        0 -1 2226 1111879403 -855571318 -1040105466 1816207360 202376511
        1501757457 537547675 -112004814</internalNodes>
      <leafValues>
        -5.5492222309112549e-01 4.0126234292984009e-01</leafValues></_>
    <_>
      <internalNodes>
        0 -1 861 -1364197377 2096954230 -1073824004 985284092 2138127844
        1878998783 -1216643457 -546048130</internalNodes>
      <leafValues>
        -3.7380865216255188e-01 5.6954771280288696e-01</leafValues></_>
    <_>
      <internalNodes>
        0 -1 38903 1866986255 5734791 293650567 201659395 427919886
        -920058879 -1840455506 -295704022</internalNodes>
      <leafValues>
        -4.5772233605384827e-01 4.7153806686401367e-01</leafValues></_>
    <_>
      <internalNodes>
        0 -1 38756 -574492173 1883570384 285311817 957497746 -922697579
        -394199040 -1434451782 210518144</internalNodes>
      <leafValues>
        -4.7235977649688721e-01 4.7576862573623657e-01</leafValues></_>
    <_>
      <internalNodes>
        0 -1 40228 -473975973 250539563 1862250406 1441267327 778551258
        1869545446 -1778912205 -905977925</internalNodes>
      <leafValues>
        -4.4727620482444763e-01 5.3334093093872070e-01</leafValues></_>
    <_>
      <internalNodes>
        0 -1 24530 805312592 1155793664 134219999 1095239700 -1836967784
        2038464512 679491978 -268580406</internalNodes>
      <leafValues>
        -5.7975649833679199e-01 4.1878119111061096e-01</leafValues></_>
    <_>
      <internalNodes>
        0 -1 16154 1812520346 27951137 1342181760 -949827372 16951446
        -2004809088 -1858027349 1921249795</internalNodes>
      <leafValues>
        -5.3445601463317871e-01 4.5080870389938354e-01</leafValues></_></weakClassifiers></stage9>
</opencv_storage>
