<?xml version="1.0"?>
<opencv_storage>
<stage17>
  <maxWeakCount>9</maxWeakCount>
  <stageThreshold>-9.5815932750701904e-01</stageThreshold>
  <weakClassifiers>
    <_>
      <internalNodes>
        0 -1 22634 -214304769 939369588 1055846205 1596921185
        -1091821414 -1493241859 -1430737269 465388896</internalNodes>
      <leafValues>
        -2.5290438532829285e-01 7.0045387744903564e-01</leafValues></_>
    <_>
      <internalNodes>
        0 -1 14799 -268320480 1045708931 17367197 269680717 -1056861580
        1107312769 1536133174 -112254529</internalNodes>
      <leafValues>
        -4.5578241348266602e-01 4.4963598251342773e-01</leafValues></_>
    <_>
      <internalNodes>
        0 -1 15353 -9715745 -5853406 150562225 -1762643120 -1124084728
        -1376323874 1954544364 -34080929</internalNodes>
      <leafValues>
        -3.2096338272094727e-01 6.3509619235992432e-01</leafValues></_>
    <_>
      <internalNodes>
        0 -1 37799 -887504871 1124405452 270566675 852709721 -2139076088
        1619001344 622305536 219271563</internalNodes>
      <leafValues>
        -5.8973115682601929e-01 3.7248930335044861e-01</leafValues></_>
    <_>
      <internalNodes>
        0 -1 11541 -469774702 -730595773 -16845596 -1636844186
        1610469214 377452372 1454232788 -547227742</internalNodes>
      <leafValues>
        -4.3770083785057068e-01 5.3562301397323608e-01</leafValues></_>
    <_>
      <internalNodes>
        0 -1 26185 -361780998 -1154223565 565892400 1935204245 108808392
        -1619047893 -1990982053 -1150290405</internalNodes>
      <leafValues>
        -3.9405262470245361e-01 5.9724807739257812e-01</leafValues></_>
    <_>
      <internalNodes>
        0 -1 36048 -915777592 -4558978 -151110309 -1057425413
        -1099031938 -3 -822159874 -1164412963</internalNodes>
      <leafValues>
        -4.1360908746719360e-01 5.6772172451019287e-01</leafValues></_>
    <_>
      <internalNodes>
        0 -1 37628 -998702454 272875905 268468314 -771103488 -2113863416
        34283521 163684514 -584537469</internalNodes>
      <leafValues>
        -5.3317165374755859e-01 4.7883278131484985e-01</leafValues></_>
    <_>
      <internalNodes>
        0 -1 24068 -14508069 -683933901 -1166344307 1005780613
        1149174997 517725790 1950228217 1322251739</internalNodes>
      <leafValues>
        -3.8124093413352966e-01 6.5630853176116943e-01</leafValues></_></weakClassifiers></stage17>
</opencv_storage>
