<?xml version="1.0"?>
<opencv_storage>
<stage8>
  <maxWeakCount>9</maxWeakCount>
  <stageThreshold>-1.4362798929214478e+00</stageThreshold>
  <weakClassifiers>
    <_>
      <internalNodes>
        0 -1 21627 -203960413 199479050 1911531379 -71438337 -144181
        393699037 -10489914 -1</internalNodes>
      <leafValues>
        -3.0168777704238892e-01 5.6009614467620850e-01</leafValues></_>
    <_>
      <internalNodes>
        0 -1 969 -2117099378 33915014 -2147270430 273007639 1290256994
        167807361 -1996225968 -687875333</internalNodes>
      <leafValues>
        -5.2738332748413086e-01 3.8287657499313354e-01</leafValues></_>
    <_>
      <internalNodes>
        0 -1 34714 1465667672 944508989 -1862270758 163909762 -360066936
        -931036992 1623318669 -660633413</internalNodes>
      <leafValues>
        -4.4306701421737671e-01 4.5053392648696899e-01</leafValues></_>
    <_>
      <internalNodes>
        0 -1 35892 -302043649 1240132089 1878982335 -176230723 -704514
        -1124093963 -1375764613 -852482540</internalNodes>
      <leafValues>
        -4.0630292892456055e-01 4.9668902158737183e-01</leafValues></_>
    <_>
      <internalNodes>
        0 -1 36301 -548204798 181867267 262161 588499083 34312198
        1359217793 -1601786189 -1924148273</internalNodes>
      <leafValues>
        -6.1959141492843628e-01 3.5097062587738037e-01</leafValues></_>
    <_>
      <internalNodes>
        0 -1 14589 1746055222 -599717742 587760643 1543602453 1771632427
        -1999855471 1124773243 -77363931</internalNodes>
      <leafValues>
        -4.8033240437507629e-01 4.4382438063621521e-01</leafValues></_>
    <_>
      <internalNodes>
        0 -1 27796 1099899086 139542851 -266839991 35131794 33563067
        1268826120 1220675698 -16785469</internalNodes>
      <leafValues>
        -5.6617343425750732e-01 3.9471369981765747e-01</leafValues></_>
    <_>
      <internalNodes>
        0 -1 1504 1648750302 1237488907 1074274392 1352269955 569135722
        -666853376 1371635874 -645174437</internalNodes>
      <leafValues>
        -4.9049678444862366e-01 4.6004870533943176e-01</leafValues></_>
    <_>
      <internalNodes>
        0 -1 37414 1047518970 1810890748 -328729475 272629503 117427592
        1668888574 1837034685 -161505669</internalNodes>
      <leafValues>
        -4.0622353553771973e-01 5.4600030183792114e-01</leafValues></_></weakClassifiers></stage8>
</opencv_storage>
