<?xml version="1.0"?>
<opencv_storage>
<stage19>
  <maxWeakCount>9</maxWeakCount>
  <stageThreshold>-1.3555096387863159e+00</stageThreshold>
  <weakClassifiers>
    <_>
      <internalNodes>
        0 -1 38845 2027880450 1005584063 -8724709 985980926 2130620074
        -276856833 2117074474 -1463880721</internalNodes>
      <leafValues>
        -4.2706963419914246e-01 4.9558389186859131e-01</leafValues></_>
    <_>
      <internalNodes>
        0 -1 15555 -978394032 1090551817 285310987 1360068697
        -1148553494 -1145535989 -1685520661 -242497536</internalNodes>
      <leafValues>
        -4.5198741555213928e-01 4.5644003152847290e-01</leafValues></_>
    <_>
      <internalNodes>
        0 -1 21682 -786958718 35946564 269650631 -788332401 589414415
        -1720156118 -1039921149 -209548152</internalNodes>
      <leafValues>
        -5.1822292804718018e-01 3.9051875472068787e-01</leafValues></_>
    <_>
      <internalNodes>
        0 -1 21987 -30224328 -790815 171015789 287368915 -548201768
        -989929931 498708395 -956250572</internalNodes>
      <leafValues>
        -3.6906468868255615e-01 5.7639193534851074e-01</leafValues></_>
    <_>
      <internalNodes>
        0 -1 20250 -1090520367 1609478123 1518215007 -350359785
        -1426087928 -1101828 -763436806 1492449111</internalNodes>
      <leafValues>
        -4.4765743613243103e-01 5.3324759006500244e-01</leafValues></_>
    <_>
      <internalNodes>
        0 -1 5625 -675828033 -1824528198 754704974 -1331904598
        1194044735 2139062126 1240813550 -273461273</internalNodes>
      <leafValues>
        -4.5431748032569885e-01 4.9479731917381287e-01</leafValues></_>
    <_>
      <internalNodes>
        0 -1 4465 285977850 1342328832 -1073704924 -716634603 1073767042
        684232704 1250697281 -921753486</internalNodes>
      <leafValues>
        -5.2143484354019165e-01 4.4347530603408813e-01</leafValues></_>
    <_>
      <internalNodes>
        0 -1 31341 -500483930 455175981 -969754032 831651711 1073592284
        2088730461 -7865143 -724172979</internalNodes>
      <leafValues>
        -4.6955597400665283e-01 5.1114934682846069e-01</leafValues></_>
    <_>
      <internalNodes>
        0 -1 38810 184752150 180711539 16781329 1642725635 1644263496
        -1198914927 1288294701 -691832228</internalNodes>
      <leafValues>
        -5.8046317100524902e-01 3.8706919550895691e-01</leafValues></_></weakClassifiers></stage19>
</opencv_storage>
