<?xml version="1.0"?>
<opencv_storage>
<stage1>
  <maxWeakCount>7</maxWeakCount>
  <stageThreshold>-6.9983464479446411e-01</stageThreshold>
  <weakClassifiers>
    <_>
      <internalNodes>
        0 -1 20080 1342660608 364550 285351947 -716324095 8323 12828808
        1636368783 -1043337777</internalNodes>
      <leafValues>
        -6.3106793165206909e-01 4.9053356051445007e-01</leafValues></_>
    <_>
      <internalNodes>
        0 -1 21935 -781912816 1083338772 -519892896 1438344581
        -628960536 -1398030197 -779303724 -571753741</internalNodes>
      <leafValues>
        -6.4273500442504883e-01 4.5152565836906433e-01</leafValues></_>
    <_>
      <internalNodes>
        0 -1 12938 1881858984 1728724994 -1073688303 -1795067903
        -2112827426 8487048 -1820098117 -242877797</internalNodes>
      <leafValues>
        -5.6696188449859619e-01 4.7311672568321228e-01</leafValues></_>
    <_>
      <internalNodes>
        0 -1 4464 -11819410 -47501550 -2030099808 -147849693 1289162310
        1130327934 1442209313 -8916137</internalNodes>
      <leafValues>
        -4.7180277109146118e-01 6.2483555078506470e-01</leafValues></_>
    <_>
      <internalNodes>
        0 -1 2281 -976239393 -954998464 33537 72515605 16443 -1476229114
        1241664779 -638194965</internalNodes>
      <leafValues>
        -4.8717135190963745e-01 5.9347403049468994e-01</leafValues></_>
    <_>
      <internalNodes>
        0 -1 37685 -778575734 1108230336 1114368 -1053458355 -662481966
        1351286784 -2096379760 -585252465</internalNodes>
      <leafValues>
        -5.2340322732925415e-01 5.7947534322738647e-01</leafValues></_>
    <_>
      <internalNodes>
        0 -1 19604 -1072348510 -111706012 1753350163 -1295187669
        41945265 -91058174 1207960307 -485502781</internalNodes>
      <leafValues>
        -5.8853703737258911e-01 4.8896831274032593e-01</leafValues></_></weakClassifiers></stage1>
</opencv_storage>
