<?xml version="1.0"?>
<opencv_storage>
<stage15>
  <maxWeakCount>10</maxWeakCount>
  <stageThreshold>-9.9766588211059570e-01</stageThreshold>
  <weakClassifiers>
    <_>
      <internalNodes>
        0 -1 12679 -1734356070 -1900019745 1410824115 1304428447
        268262715 719060959 264232859 1551892471</internalNodes>
      <leafValues>
        -4.3845090270042419e-01 4.7019866108894348e-01</leafValues></_>
    <_>
      <internalNodes>
        0 -1 37799 -640693743 1225802003 -2079162092 26485330 -234829686
        243810816 -1065312237 17558414</internalNodes>
      <leafValues>
        -4.9943378567695618e-01 3.9647638797760010e-01</leafValues></_>
    <_>
      <internalNodes>
        0 -1 2216 -71306113 -909246721 1190868191 -823144721 94356607
        402095999 1322669304 1634956927</internalNodes>
      <leafValues>
        -4.4146871566772461e-01 4.9288961291313171e-01</leafValues></_>
    <_>
      <internalNodes>
        0 -1 26405 -717188686 1091047426 16777227 -1856765679
        -1726969831 730398818 -345493216 -575510441</internalNodes>
      <leafValues>
        -4.7926864027976990e-01 4.6701613068580627e-01</leafValues></_>
    <_>
      <internalNodes>
        0 -1 33473 287331420 -1915562730 -1283391471 -721076216
        -1446893331 578863104 -1207916385 -1074181394</internalNodes>
      <leafValues>
        -4.9398386478424072e-01 4.2894381284713745e-01</leafValues></_>
    <_>
      <internalNodes>
        0 -1 17880 -8529169 -1073763715 -1351659594 2001672240
        -1074066654 -1073799250 842983339 -1430624897</internalNodes>
      <leafValues>
        -3.3768117427825928e-01 6.9196712970733643e-01</leafValues></_>
    <_>
      <internalNodes>
        0 -1 8846 -563087661 -331399254 -285245836 -353370498
        -1428205991 1191149404 1157453023 -1019087658</internalNodes>
      <leafValues>
        -4.2253312468528748e-01 5.5699253082275391e-01</leafValues></_>
    <_>
      <internalNodes>
        0 -1 12226 355521140 269549568 369199260 621813914 805345282
        -1465892820 -1073659270 253763600</internalNodes>
      <leafValues>
        -6.6800767183303833e-01 3.8040807843208313e-01</leafValues></_>
    <_>
      <internalNodes>
        0 -1 21821 254797887 1818586917 -1367457985 -1619079353
        -826342213 -270565505 -283158222 -46236509</internalNodes>
      <leafValues>
        -4.6317115426063538e-01 5.6832820177078247e-01</leafValues></_>
    <_>
      <internalNodes>
        0 -1 24640 1719951448 1360325568 -2113843194 -1748920823
        1080303724 -369090141 -398401408 -436985080</internalNodes>
      <leafValues>
        -5.0470608472824097e-01 4.9548864364624023e-01</leafValues></_></weakClassifiers></stage15>
</opencv_storage>
