<?xml version="1.0"?>
<opencv_storage>
<stage6>
  <maxWeakCount>10</maxWeakCount>
  <stageThreshold>-1.1846679449081421e+00</stageThreshold>
  <weakClassifiers>
    <_>
      <internalNodes>
        0 -1 17593 100794896 553668880 1225036053 1397326402 8459272
        1208909955 -855617379 -539231270</internalNodes>
      <leafValues>
        -5.5752211809158325e-01 4.0740740299224854e-01</leafValues></_>
    <_>
      <internalNodes>
        0 -1 14870 -799608580 -1043070852 1164001429 340310877
        -905721256 -1163165432 -1874618947 -1153066551</internalNodes>
      <leafValues>
        -4.9096104502677917e-01 4.1331204771995544e-01</leafValues></_>
    <_>
      <internalNodes>
        0 -1 39073 -413693054 218218507 268435712 176285827 73892768
        1905213709 -1928223872 -821040193</internalNodes>
      <leafValues>
        -4.8859760165214539e-01 4.4556686282157898e-01</leafValues></_>
    <_>
      <internalNodes>
        0 -1 2036 -697316722 -1423114626 720256622 1685843711
        -2030076365 -268959745 2012741487 -108005441</internalNodes>
      <leafValues>
        -4.2649355530738831e-01 5.1261484622955322e-01</leafValues></_>
    <_>
      <internalNodes>
        0 -1 19087 1484889322 959682125 -2130034414 1468473460
        1390412446 1745701008 1627636142 -113060189</internalNodes>
      <leafValues>
        -4.8257407546043396e-01 4.3872913718223572e-01</leafValues></_>
    <_>
      <internalNodes>
        0 -1 3923 1132708659 -788327166 285212931 -1392298985 1478042511
        1326221696 1040364161 1200089588</internalNodes>
      <leafValues>
        -5.1473796367645264e-01 4.5858380198478699e-01</leafValues></_>
    <_>
      <internalNodes>
        0 -1 33930 -942692657 2070538107 1681062322 1161543291
        -673443958 1702232022 -277419045 1602201279</internalNodes>
      <leafValues>
        -3.6659413576126099e-01 6.1641389131546021e-01</leafValues></_>
    <_>
      <internalNodes>
        0 -1 32913 1567556353 223690783 302665856 458973343 738308875
        -662060599 1317536401 161382589</internalNodes>
      <leafValues>
        -6.4719468355178833e-01 3.5334414243698120e-01</leafValues></_>
    <_>
      <internalNodes>
        0 -1 18176 -840972190 -1815899696 -2063526909 1346601233
        -2146844317 -1870591958 1913265650 -569684859</internalNodes>
      <leafValues>
        -5.4146105051040649e-01 4.2300534248352051e-01</leafValues></_>
    <_>
      <internalNodes>
        0 -1 11143 -1307647301 -1374159307 1853324819 -88342793
        1330528915 -698359817 -276877409 2111827439</internalNodes>
      <leafValues>
        -4.6364653110504150e-01 5.2072072029113770e-01</leafValues></_></weakClassifiers></stage6>
</opencv_storage>
