<?xml version="1.0"?>
<opencv_storage>
<stage18>
  <maxWeakCount>8</maxWeakCount>
  <stageThreshold>-9.2779564857482910e-01</stageThreshold>
  <weakClassifiers>
    <_>
      <internalNodes>
        0 -1 15338 -152182053 264151282 1597738871 2008744820
        -1090647894 -1140854921 177122990 1309619223</internalNodes>
      <leafValues>
        -3.0099010467529297e-01 6.2857145071029663e-01</leafValues></_>
    <_>
      <internalNodes>
        0 -1 5738 -713950978 1107329216 276910162 -1038647262
        -2130589346 178487296 1351434482 1366567718</internalNodes>
      <leafValues>
        -5.2085590362548828e-01 3.9682155847549438e-01</leafValues></_>
    <_>
      <internalNodes>
        0 -1 32950 -88080557 1007123 -188819065 185819087 1577045835
        -683835953 1207426321 -572620897</internalNodes>
      <leafValues>
        -4.2804673314094543e-01 4.8396831750869751e-01</leafValues></_>
    <_>
      <internalNodes>
        0 -1 22936 -478335345 -110805201 259186023 1564425241 804230651
        -1082179715 222026232 -679524353</internalNodes>
      <leafValues>
        -3.3608597517013550e-01 6.4013463258743286e-01</leafValues></_>
    <_>
      <internalNodes>
        0 -1 4360 -1853472242 897724546 1225359772 1367953424 42158594
        54702218 268634280 -93355469</internalNodes>
      <leafValues>
        -4.9387991428375244e-01 4.5043358206748962e-01</leafValues></_>
    <_>
      <internalNodes>
        0 -1 21714 -542578502 252772675 9228443 1938329664 1241731294
        478740536 402663548 -75489180</internalNodes>
      <leafValues>
        -5.0342255830764771e-01 4.5971822738647461e-01</leafValues></_>
    <_>
      <internalNodes>
        0 -1 19270 413307522 -762298362 1753219469 -921328959 543740043
        -1329496064 1346372241 -1166505965</internalNodes>
      <leafValues>
        -5.9428709745407104e-01 3.6992585659027100e-01</leafValues></_>
    <_>
      <internalNodes>
        0 -1 2051 -857530357 -1189772795 1327376 -2075899377 573116967
        -2146955096 -1533975893 -570304118</internalNodes>
      <leafValues>
        -5.2423328161239624e-01 4.7458156943321228e-01</leafValues></_></weakClassifiers></stage18>
</opencv_storage>
