<?xml version="1.0"?>
<opencv_storage>
<stage14>
  <maxWeakCount>34</maxWeakCount>
  <stageThreshold>-9.8692739009857178e-01</stageThreshold>
  <weakClassifiers>
    <_>
      <internalNodes>
        0 -1 611364 9.9970097653567791e-04</internalNodes>
      <leafValues>
        2.3616734147071838e-01 -5.9523808956146240e-01</leafValues></_>
    <_>
      <internalNodes>
        0 -1 1011810 -4.7631468623876572e-03</internalNodes>
      <leafValues>
        4.5910093188285828e-01 -7.4343323707580566e-02</leafValues></_>
    <_>
      <internalNodes>
        0 -1 126221 -6.4863748848438263e-03</internalNodes>
      <leafValues>
        -7.4428725242614746e-01 2.4295534938573837e-02</leafValues></_>
    <_>
      <internalNodes>
        0 -1 546075 -8.6248670413624495e-05</internalNodes>
      <leafValues>
        2.4159748852252960e-01 -2.2818782925605774e-01</leafValues></_>
    <_>
      <internalNodes>
        0 -1 136024 -2.8913188725709915e-03</internalNodes>
      <leafValues>
        -7.3860597610473633e-01 6.5860472619533539e-02</leafValues></_>
    <_>
      <internalNodes>
        0 -1 17974 3.9539966732263565e-02</internalNodes>
      <leafValues>
        -9.2071749269962311e-02 5.2274072170257568e-01</leafValues></_>
    <_>
      <internalNodes>
        0 -1 30737 -1.3700878247618675e-02</internalNodes>
      <leafValues>
        3.4613743424415588e-01 -1.5948365628719330e-01</leafValues></_>
    <_>
      <internalNodes>
        0 -1 831254 -9.3903415836393833e-04</internalNodes>
      <leafValues>
        3.4999895095825195e-01 -1.1709191650152206e-01</leafValues></_>
    <_>
      <internalNodes>
        0 -1 931736 1.2359508546069264e-03</internalNodes>
      <leafValues>
        8.1088572740554810e-02 -5.5266565084457397e-01</leafValues></_>
    <_>
      <internalNodes>
        0 -1 907923 3.4579192288219929e-03</internalNodes>
      <leafValues>
        -9.1581113636493683e-02 5.6455415487289429e-01</leafValues></_>
    <_>
      <internalNodes>
        0 -1 781604 3.4953525755554438e-04</internalNodes>
      <leafValues>
        8.8762067258358002e-02 -6.4865368604660034e-01</leafValues></_>
    <_>
      <internalNodes>
        0 -1 661317 -1.1644891928881407e-03</internalNodes>
      <leafValues>
        2.3809505999088287e-01 -1.8473766744136810e-01</leafValues></_>
    <_>
      <internalNodes>
        0 -1 558903 -1.1485205031931400e-03</internalNodes>
      <leafValues>
        -4.3358698487281799e-01 1.0939045250415802e-01</leafValues></_>
    <_>
      <internalNodes>
        0 -1 299349 -5.3722169250249863e-03</internalNodes>
      <leafValues>
        3.4904229640960693e-01 -1.2148749083280563e-01</leafValues></_>
    <_>
      <internalNodes>
        0 -1 774426 3.2415927853435278e-04</internalNodes>
      <leafValues>
        8.0842733383178711e-02 -5.5221354961395264e-01</leafValues></_>
    <_>
      <internalNodes>
        0 -1 573607 -4.2053638026118279e-03</internalNodes>
      <leafValues>
        4.8457497358322144e-01 -9.7647406160831451e-02</leafValues></_>
    <_>
      <internalNodes>
        0 -1 561001 -3.1062059570103884e-03</internalNodes>
      <leafValues>
        -6.6295307874679565e-01 7.4713721871376038e-02</leafValues></_>
    <_>
      <internalNodes>
        0 -1 736027 3.8403697544708848e-04</internalNodes>
      <leafValues>
        -1.3970488309860229e-01 3.3328071236610413e-01</leafValues></_>
    <_>
      <internalNodes>
        0 -1 760410 1.0595170781016350e-02</internalNodes>
      <leafValues>
        -1.0271969437599182e-01 4.6730399131774902e-01</leafValues></_>
    <_>
      <internalNodes>
        0 -1 1042400 -5.9863517526537180e-04</internalNodes>
      <leafValues>
        -6.8316686153411865e-01 9.0757928788661957e-02</leafValues></_>
    <_>
      <internalNodes>
        0 -1 1109274 -1.4712581469211727e-04</internalNodes>
      <leafValues>
        3.1378731131553650e-01 -1.5948291122913361e-01</leafValues></_>
    <_>
      <internalNodes>
        0 -1 983683 -1.9980662036687136e-03</internalNodes>
      <leafValues>
        -7.1784526109695435e-01 7.6610632240772247e-02</leafValues></_>
    <_>
      <internalNodes>
        0 -1 868189 -4.9340627156198025e-03</internalNodes>
      <leafValues>
        4.4013479351997375e-01 -1.1949234455823898e-01</leafValues></_>
    <_>
      <internalNodes>
        0 -1 693190 5.5825046729296446e-04</internalNodes>
      <leafValues>
        -9.4389304518699646e-02 4.7399032115936279e-01</leafValues></_>
    <_>
      <internalNodes>
        0 -1 832377 2.3392276489175856e-04</internalNodes>
      <leafValues>
        8.8119164109230042e-02 -5.6343758106231689e-01</leafValues></_>
    <_>
      <internalNodes>
        0 -1 1059209 -3.1632781028747559e-02</internalNodes>
      <leafValues>
        7.8831350803375244e-01 -7.2838097810745239e-02</leafValues></_>
    <_>
      <internalNodes>
        0 -1 274291 7.0766580756753683e-04</internalNodes>
      <leafValues>
        7.9440690577030182e-02 -7.2637194395065308e-01</leafValues></_>
    <_>
      <internalNodes>
        0 -1 72413 -1.7443750053644180e-02</internalNodes>
      <leafValues>
        3.9324942231178284e-01 -1.2542432546615601e-01</leafValues></_>
    <_>
      <internalNodes>
        0 -1 34932 -2.6502184482524171e-05</internalNodes>
      <leafValues>
        -2.8121921420097351e-01 1.9236008822917938e-01</leafValues></_>
    <_>
      <internalNodes>
        0 -1 726916 2.8902193298563361e-04</internalNodes>
      <leafValues>
        7.9954117536544800e-02 -5.7706618309020996e-01</leafValues></_>
    <_>
      <internalNodes>
        0 -1 814687 1.0481423232704401e-03</internalNodes>
      <leafValues>
        -1.4420351386070251e-01 3.1399139761924744e-01</leafValues></_>
    <_>
      <internalNodes>
        0 -1 32888 3.0150790698826313e-03</internalNodes>
      <leafValues>
        -1.7834334075450897e-01 2.4953129887580872e-01</leafValues></_>
    <_>
      <internalNodes>
        0 -1 77 -1.0076479054987431e-02</internalNodes>
      <leafValues>
        3.6739835143089294e-01 -1.2942872941493988e-01</leafValues></_>
    <_>
      <internalNodes>
        0 -1 57686 4.4829301536083221e-02</internalNodes>
      <leafValues>
        7.7677443623542786e-02 -5.8893185853958130e-01</leafValues></_></weakClassifiers></stage14>
</opencv_storage>
