<?xml version="1.0"?>
<opencv_storage>
<stage1>
  <maxWeakCount>30</maxWeakCount>
  <stageThreshold>-1.2572923898696899e+00</stageThreshold>
  <weakClassifiers>
    <_>
      <internalNodes>
        0 -1 57891 -2.1298276260495186e-03</internalNodes>
      <leafValues>
        -6.0352420806884766e-01 2.7196064591407776e-01</leafValues></_>
    <_>
      <internalNodes>
        0 -1 462020 8.8145537301898003e-03</internalNodes>
      <leafValues>
        -2.4203084409236908e-01 3.3399510383605957e-01</leafValues></_>
    <_>
      <internalNodes>
        0 -1 1124492 6.6058769822120667e-02</internalNodes>
      <leafValues>
        1.3903048634529114e-01 -7.6914989948272705e-01</leafValues></_>
    <_>
      <internalNodes>
        0 -1 663321 4.7979719936847687e-02</internalNodes>
      <leafValues>
        7.0749431848526001e-02 -7.1992677450180054e-01</leafValues></_>
    <_>
      <internalNodes>
        0 -1 507737 2.6353627443313599e-01</internalNodes>
      <leafValues>
        1.4091213047504425e-01 -5.1526421308517456e-01</leafValues></_>
    <_>
      <internalNodes>
        0 -1 1108643 1.3586154207587242e-02</internalNodes>
      <leafValues>
        1.0809426754713058e-01 -6.0333871841430664e-01</leafValues></_>
    <_>
      <internalNodes>
        0 -1 56346 -2.8899306198582053e-04</internalNodes>
      <leafValues>
        4.6383035182952881e-01 -1.4044331014156342e-01</leafValues></_>
    <_>
      <internalNodes>
        0 -1 32689 2.4340602103620768e-03</internalNodes>
      <leafValues>
        -1.7268632352352142e-01 4.3442511558532715e-01</leafValues></_>
    <_>
      <internalNodes>
        0 -1 1169717 -3.0583119951188564e-03</internalNodes>
      <leafValues>
        4.6045601367950439e-01 -1.6090971231460571e-01</leafValues></_>
    <_>
      <internalNodes>
        0 -1 773036 2.9004984535276890e-03</internalNodes>
      <leafValues>
        1.0872545838356018e-01 -6.9342559576034546e-01</leafValues></_>
    <_>
      <internalNodes>
        0 -1 75675 -3.2693992834538221e-03</internalNodes>
      <leafValues>
        3.4340471029281616e-01 -1.8225559592247009e-01</leafValues></_>
    <_>
      <internalNodes>
        0 -1 1027900 -1.1274912394583225e-03</internalNodes>
      <leafValues>
        3.9209952950477600e-01 -1.6448070108890533e-01</leafValues></_>
    <_>
      <internalNodes>
        0 -1 838643 -2.1274704486131668e-03</internalNodes>
      <leafValues>
        -9.3508130311965942e-01 7.4230365455150604e-02</leafValues></_>
    <_>
      <internalNodes>
        0 -1 1081373 4.0769047336652875e-04</internalNodes>
      <leafValues>
        -1.7135354876518250e-01 3.6824086308479309e-01</leafValues></_>
    <_>
      <internalNodes>
        0 -1 1170919 1.3837481383234262e-03</internalNodes>
      <leafValues>
        -1.5328972041606903e-01 3.5663282871246338e-01</leafValues></_>
    <_>
      <internalNodes>
        0 -1 547823 -7.7911019325256348e-03</internalNodes>
      <leafValues>
        -5.0237333774566650e-01 1.1068744212388992e-01</leafValues></_>
    <_>
      <internalNodes>
        0 -1 827050 7.8916968777775764e-04</internalNodes>
      <leafValues>
        -2.1407009661197662e-01 3.2290592789649963e-01</leafValues></_>
    <_>
      <internalNodes>
        0 -1 998001 5.9790827799588442e-04</internalNodes>
      <leafValues>
        -1.4995007216930389e-01 3.7906828522682190e-01</leafValues></_>
    <_>
      <internalNodes>
        0 -1 495050 -2.1907724440097809e-03</internalNodes>
      <leafValues>
        2.8602236509323120e-01 -1.9726708531379700e-01</leafValues></_>
    <_>
      <internalNodes>
        0 -1 473465 -9.9992275238037109e-02</internalNodes>
      <leafValues>
        -8.0972099304199219e-01 6.7034728825092316e-02</leafValues></_>
    <_>
      <internalNodes>
        0 -1 995479 3.5021605435758829e-04</internalNodes>
      <leafValues>
        -1.3147032260894775e-01 4.5439291000366211e-01</leafValues></_>
    <_>
      <internalNodes>
        0 -1 126202 -3.6664456129074097e-02</internalNodes>
      <leafValues>
        -8.3461374044418335e-01 7.9094715416431427e-02</leafValues></_>
    <_>
      <internalNodes>
        0 -1 43802 -3.3205533400177956e-03</internalNodes>
      <leafValues>
        2.9390287399291992e-01 -1.9432330131530762e-01</leafValues></_>
    <_>
      <internalNodes>
        0 -1 49444 -7.4674724601209164e-04</internalNodes>
      <leafValues>
        3.7634146213531494e-01 -1.5772518515586853e-01</leafValues></_>
    <_>
      <internalNodes>
        0 -1 782970 1.4634968247264624e-03</internalNodes>
      <leafValues>
        8.9511819183826447e-02 -6.8141961097717285e-01</leafValues></_>
    <_>
      <internalNodes>
        0 -1 901800 -3.6811523139476776e-02</internalNodes>
      <leafValues>
        5.9842872619628906e-01 -1.1099734902381897e-01</leafValues></_>
    <_>
      <internalNodes>
        0 -1 632276 -3.3122673630714417e-03</internalNodes>
      <leafValues>
        4.2569828033447266e-01 -1.2456190586090088e-01</leafValues></_>
    <_>
      <internalNodes>
        0 -1 839797 -1.7538582906126976e-03</internalNodes>
      <leafValues>
        -7.2250795364379883e-01 9.1422207653522491e-02</leafValues></_>
    <_>
      <internalNodes>
        0 -1 846322 -3.5663874587044120e-04</internalNodes>
      <leafValues>
        3.6889758706092834e-01 -1.6205804049968719e-01</leafValues></_>
    <_>
      <internalNodes>
        0 -1 794871 -4.7763634938746691e-04</internalNodes>
      <leafValues>
        4.0496972203254700e-01 -1.7300778627395630e-01</leafValues></_></weakClassifiers></stage1>
</opencv_storage>
