<?xml version="1.0"?>
<opencv_storage>
<stage18>
  <maxWeakCount>12</maxWeakCount>
  <stageThreshold>-1.1834684610366821e+00</stageThreshold>
  <weakClassifiers>
    <_>
      <internalNodes>
        0 -1 31392 201341239 8683585 293866180 570556821 1644757345
        -612237175 662900738 -1092818816</internalNodes>
      <leafValues>
        -5.0503015518188477e-01 3.2003191113471985e-01</leafValues></_>
    <_>
      <internalNodes>
        0 -1 1732 1661059193 -718092294 2054691443 2012884735
        -2040789463 -1359821066 1047580319 -105885714</internalNodes>
      <leafValues>
        -3.1685772538185120e-01 4.7201985120773315e-01</leafValues></_>
    <_>
      <internalNodes>
        0 -1 20436 513917423 -738877879 1854076927 1808256814 1222660785
        -257072012 1535016952 -1094792239</internalNodes>
      <leafValues>
        -2.4205473065376282e-01 6.1117559671401978e-01</leafValues></_>
    <_>
      <internalNodes>
        0 -1 19332 -2094757743 277405771 -1528904283 -699956240
        -647461727 1788969180 -1241380797 -1424467721</internalNodes>
      <leafValues>
        -3.8438040018081665e-01 4.2128074169158936e-01</leafValues></_>
    <_>
      <internalNodes>
        0 -1 26278 -83911682 187145827 -22391456 555527898 -827531495
        207542079 -37831495 -599941803</internalNodes>
      <leafValues>
        -2.9271265864372253e-01 5.6544369459152222e-01</leafValues></_>
    <_>
      <internalNodes>
        0 -1 36198 412631935 1100780096 16777351 151073297 58756126
        -745897598 -560280374 1115728237</internalNodes>
      <leafValues>
        -4.6298137307167053e-01 3.9162459969520569e-01</leafValues></_>
    <_>
      <internalNodes>
        0 -1 29090 -743217769 497389317 1030801397 24068012 -1754274316
        31305469 -2031130913 -1956024407</internalNodes>
      <leafValues>
        -3.2279083132743835e-01 5.9328997135162354e-01</leafValues></_>
    <_>
      <internalNodes>
        0 -1 33201 -1292900537 1810845616 2145154910 -1116487692
        -1361199133 -1394704609 1700704565 -807403570</internalNodes>
      <leafValues>
        -3.2585731148719788e-01 5.5839842557907104e-01</leafValues></_>
    <_>
      <internalNodes>
        0 -1 35450 994254854 671161225 67322048 809668874 277420096
        1493205250 -2121781146 1385417041</internalNodes>
      <leafValues>
        -6.7495399713516235e-01 2.9381701350212097e-01</leafValues></_>
    <_>
      <internalNodes>
        0 -1 17769 -117975430 -1442938888 2130575345 -34541775
        -2072189186 888109941 -593250710 -1703672459</internalNodes>
      <leafValues>
        -3.8165047764778137e-01 5.1716041564941406e-01</leafValues></_>
    <_>
      <internalNodes>
        0 -1 3984 -1592847549 1399745333 1660911479 867850205 2065300442
        1336391615 -2109829387 -1306926703</internalNodes>
      <leafValues>
        -3.8294118642807007e-01 5.3435879945755005e-01</leafValues></_>
    <_>
      <internalNodes>
        0 -1 1543 -613165635 -537961817 2071613674 -218629255
        -1355625390 1538156279 1601281642 -776506680</internalNodes>
      <leafValues>
        -2.9388684034347534e-01 7.1750640869140625e-01</leafValues></_></weakClassifiers></stage18>
</opencv_storage>
