<?xml version="1.0"?>
<opencv_storage>
<stage3>
  <maxWeakCount>11</maxWeakCount>
  <stageThreshold>-8.0695915222167969e-01</stageThreshold>
  <weakClassifiers>
    <_>
      <internalNodes>
        0 -1 10222 -1188498736 1927415530 -1363883733 -1812107925
        -363122462 -1739005963 838858393 -1017130258</internalNodes>
      <leafValues>
        -2.9217198491096497e-01 4.9228945374488831e-01</leafValues></_>
    <_>
      <internalNodes>
        0 -1 32983 -787503999 973275323 -2113863680 190831107
        -1450540651 -1333755749 297894609 -605294163</internalNodes>
      <leafValues>
        -3.9452666044235229e-01 4.0627005696296692e-01</leafValues></_>
    <_>
      <internalNodes>
        0 -1 16599 -2063382384 503415444 689307910 185929745 1410089603
        1564541139 436869723 1607202987</internalNodes>
      <leafValues>
        -5.9368735551834106e-01 2.8310972452163696e-01</leafValues></_>
    <_>
      <internalNodes>
        0 -1 1123 1655426234 669240998 -1347160151 858172270 119217366
        1786146811 728211695 -578822665</internalNodes>
      <leafValues>
        -3.6183094978332520e-01 4.9940693378448486e-01</leafValues></_>
    <_>
      <internalNodes>
        0 -1 2360 -268218494 2140909669 4741265 1111886853 2663182
        17504271 1762249163 1665352031</internalNodes>
      <leafValues>
        -5.3452432155609131e-01 3.1281515955924988e-01</leafValues></_>
    <_>
      <internalNodes>
        0 -1 35401 1896681610 974479685 276852736 -887799479 -2146795130
        1208008708 98770 -1651784333</internalNodes>
      <leafValues>
        -3.8616481423377991e-01 4.5929908752441406e-01</leafValues></_>
    <_>
      <internalNodes>
        0 -1 19088 600114352 -1249309550 134545618 1963241860 1879052301
        -1207414656 1514283178 -1618860069</internalNodes>
      <leafValues>
        -5.7679867744445801e-01 3.2326012849807739e-01</leafValues></_>
    <_>
      <internalNodes>
        0 -1 2184 -250486589 1074036737 -2130669430 -1852767928
        1677889889 -2004189183 -2146784525 -144473693</internalNodes>
      <leafValues>
        -4.6749687194824219e-01 4.2097470164299011e-01</leafValues></_>
    <_>
      <internalNodes>
        0 -1 18627 -1877323664 -238902496 541179914 289472522 -926307192
        -1172791110 1166084309 -1573945329</internalNodes>
      <leafValues>
        -4.4060713052749634e-01 4.6356132626533508e-01</leafValues></_>
    <_>
      <internalNodes>
        0 -1 20361 -754539386 108544139 -1879015413 -1718495220
        -1861721877 1242087552 593029834 1061758415</internalNodes>
      <leafValues>
        -4.6512481570243835e-01 4.3605282902717590e-01</leafValues></_>
    <_>
      <internalNodes>
        0 -1 24015 -90980334 -695664244 83956049 201923599 -931096349
        852688908 180593173 -1147174409</internalNodes>
      <leafValues>
        -4.4888415932655334e-01 4.3866178393363953e-01</leafValues></_></weakClassifiers></stage3>
</opencv_storage>
