<?xml version="1.0"?>
<opencv_storage>
<stage13>
  <maxWeakCount>13</maxWeakCount>
  <stageThreshold>-6.8280291557312012e-01</stageThreshold>
  <weakClassifiers>
    <_>
      <internalNodes>
        0 -1 25756 -2071170558 621970752 151026695 538722581 939598395
        1536028812 34091634 981745236</internalNodes>
      <leafValues>
        -5.7575756311416626e-01 2.5883200764656067e-01</leafValues></_>
    <_>
      <internalNodes>
        0 -1 1597 -1853629298 537198670 577847530 1578475594 1400995863
        9011233 -1013365886 1933812848</internalNodes>
      <leafValues>
        -4.9746310710906982e-01 2.4780568480491638e-01</leafValues></_>
    <_>
      <internalNodes>
        0 -1 32946 -205328327 49618859 317352704 330006527 -1250048110
        -297861131 -1216497727 -905980169</internalNodes>
      <leafValues>
        -3.2593166828155518e-01 3.9606219530105591e-01</leafValues></_>
    <_>
      <internalNodes>
        0 -1 2500 -1007686479 -139759817 -965809537 -34358865 225298346
        -1397821889 627535615 -1166573569</internalNodes>
      <leafValues>
        -2.4674370884895325e-01 5.4553878307342529e-01</leafValues></_>
    <_>
      <internalNodes>
        0 -1 8984 2089185280 -762298237 -1341501435 985669725
        -2060842204 -1328476044 841021653 23953540</internalNodes>
      <leafValues>
        -5.6422764062881470e-01 2.3727425932884216e-01</leafValues></_>
    <_>
      <internalNodes>
        0 -1 26735 1141096647 1089900410 2122317815 495546284 641130661
        1988060415 393389228 -824678469</internalNodes>
      <leafValues>
        -3.1567943096160889e-01 4.6282157301902771e-01</leafValues></_>
    <_>
      <internalNodes>
        0 -1 26037 -7746658 338789530 -1855442472 21500482 42543245
        1004109858 -1584894945 -301875221</internalNodes>
      <leafValues>
        -3.9142614603042603e-01 3.7998512387275696e-01</leafValues></_>
    <_>
      <internalNodes>
        0 -1 17658 1025554072 -1669226352 -1862217665 -578809768
        -2142661473 -1342144373 -1937200477 -2057004254</internalNodes>
      <leafValues>
        -3.9350500702857971e-01 3.8446080684661865e-01</leafValues></_>
    <_>
      <internalNodes>
        0 -1 39282 -206057855 -147061717 513990512 -1686431745
        1329536275 867524407 1643541689 -2009221925</internalNodes>
      <leafValues>
        -3.0543661117553711e-01 5.2611124515533447e-01</leafValues></_>
    <_>
      <internalNodes>
        0 -1 10193 -2138066934 802557971 -516940027 -864006079
        -267710158 -1203206055 24183561 1076572477</internalNodes>
      <leafValues>
        -5.4562735557556152e-01 2.9617714881896973e-01</leafValues></_>
    <_>
      <internalNodes>
        0 -1 20267 -787456826 -1674444712 18481168 1838514179
        -2012606056 1477464450 -664795750 228509786</internalNodes>
      <leafValues>
        -3.9146828651428223e-01 4.3612781167030334e-01</leafValues></_>
    <_>
      <internalNodes>
        0 -1 4056 1197674651 -2130626168 19218873 2042643149 692256994
        -922025916 1656883553 -1300809676</internalNodes>
      <leafValues>
        -4.3052858114242554e-01 3.7508314847946167e-01</leafValues></_>
    <_>
      <internalNodes>
        0 -1 2185 -702689585 -1346445840 2125291295 2071457791 -8435266
        1837039476 -1779415311 -137112081</internalNodes>
      <leafValues>
        -3.4960925579071045e-01 4.9850484728813171e-01</leafValues></_></weakClassifiers></stage13>
</opencv_storage>
