<?xml version="1.0"?>
<opencv_storage>
<stage12>
  <maxWeakCount>12</maxWeakCount>
  <stageThreshold>-6.3265389204025269e-01</stageThreshold>
  <weakClassifiers>
    <_>
      <internalNodes>
        0 -1 17121 1119244322 712703847 670992229 303099823 1054306298
        -268435847 394165575 -1382552385</internalNodes>
      <leafValues>
        -2.9765012860298157e-01 3.8414633274078369e-01</leafValues></_>
    <_>
      <internalNodes>
        0 -1 23814 -1056594365 677052499 -671020942 303367426 33556755
        1233127561 -636877721 -20518489</internalNodes>
      <leafValues>
        -4.9867635965347290e-01 2.5675946474075317e-01</leafValues></_>
    <_>
      <internalNodes>
        0 -1 15901 1508364698 -619112717 159472719 -788291505
        -2135944980 -1073741696 270687466 85623427</internalNodes>
      <leafValues>
        -3.8946625590324402e-01 3.0746674537658691e-01</leafValues></_>
    <_>
      <internalNodes>
        0 -1 26134 -1204858688 87625793 -668945915 -1119108975
        -1601400960 429926939 403311413 482529692</internalNodes>
      <leafValues>
        -4.7069814801216125e-01 2.9617935419082642e-01</leafValues></_>
    <_>
      <internalNodes>
        0 -1 24239 1818183699 -804136624 207163637 260949333 -1207818969
        -1173813142 1023629799 145098876</internalNodes>
      <leafValues>
        -3.8560777902603149e-01 3.4348806738853455e-01</leafValues></_>
    <_>
      <internalNodes>
        0 -1 18894 -870909526 -628879120 68736339 -1207101488 1619599497
        1342742677 -1744699269 572717397</internalNodes>
      <leafValues>
        -4.8772796988487244e-01 3.0146500468254089e-01</leafValues></_>
    <_>
      <internalNodes>
        0 -1 39259 42938434 744432898 1216614594 -737468288 1077966886
        805847552 -1038712192 -1219505699</internalNodes>
      <leafValues>
        -5.0396835803985596e-01 2.8125265240669250e-01</leafValues></_>
    <_>
      <internalNodes>
        0 -1 8450 1534976636 1508703210 1072445530 578764534 -302556088
        -1613432993 -1782784259 -147589129</internalNodes>
      <leafValues>
        -3.1828886270523071e-01 4.6308580040931702e-01</leafValues></_>
    <_>
      <internalNodes>
        0 -1 30496 1595136139 -967472416 -50388997 -695386193 -571618210
        996114103 82744574 -2820113</internalNodes>
      <leafValues>
        -2.9225823283195496e-01 5.6938189268112183e-01</leafValues></_>
    <_>
      <internalNodes>
        0 -1 686 -1451219822 1090584776 83892288 1494435970 1149388953
        1636433930 1619625200 425140881</internalNodes>
      <leafValues>
        -5.6634926795959473e-01 2.7122247219085693e-01</leafValues></_>
    <_>
      <internalNodes>
        0 -1 11579 -1928648076 1923190786 70232 1382945753 38624024
        -1736441846 58804873 2126651872</internalNodes>
      <leafValues>
        -5.6478750705718994e-01 3.1049361824989319e-01</leafValues></_>
    <_>
      <internalNodes>
        0 -1 24119 241620668 2034728955 805194289 -697618955 -1515438182
        -1092755457 670914223 699850031</internalNodes>
      <leafValues>
        -3.7211287021636963e-01 4.6310669183731079e-01</leafValues></_></weakClassifiers></stage12>
</opencv_storage>
