<?xml version="1.0"?>
<opencv_storage>
<stage30>
  <maxWeakCount>11</maxWeakCount>
  <stageThreshold>-9.1305190324783325e-01</stageThreshold>
  <weakClassifiers>
    <_>
      <internalNodes>
        0 -1 3264 5374985 -1315954678 -2130525838 -92254191 -2138275529
        -1467907062 1235781688 313540672</internalNodes>
      <leafValues>
        -4.4178083539009094e-01 3.4991422295570374e-01</leafValues></_>
    <_>
      <internalNodes>
        0 -1 18398 -856728526 -1183454858 -767770637 -1478477002
        -1605429370 -1870825604 1576484654 -851202887</internalNodes>
      <leafValues>
        -3.4822291135787964e-01 4.4658902287483215e-01</leafValues></_>
    <_>
      <internalNodes>
        0 -1 14115 -328777008 806404628 -1878900200 -1324072704
        402916746 1530642432 1652671449 -696182143</internalNodes>
      <leafValues>
        -4.4834977388381958e-01 3.5783591866493225e-01</leafValues></_>
    <_>
      <internalNodes>
        0 -1 38841 1654121212 -1207959549 1074790789 -930934509
        1090530058 -1324711904 -939423569 740294661</internalNodes>
      <leafValues>
        -4.2449507117271423e-01 4.2749044299125671e-01</leafValues></_>
    <_>
      <internalNodes>
        0 -1 24859 -2074814420 289411079 -920641197 2080442526
        1614807759 -1170095918 143182488 -1631268466</internalNodes>
      <leafValues>
        -4.3789082765579224e-01 4.2844077944755554e-01</leafValues></_>
    <_>
      <internalNodes>
        0 -1 13878 1601421542 57199850 -625152390 2025548390 1421735546
        -184745985 -2081507851 534738295</internalNodes>
      <leafValues>
        -3.4891995787620544e-01 5.0856870412826538e-01</leafValues></_>
    <_>
      <internalNodes>
        0 -1 37284 1856191098 -135694602 -1073742341 736927737
        -1342800262 -310378506 -26821698 -364375591</internalNodes>
      <leafValues>
        -4.1494649648666382e-01 4.7010451555252075e-01</leafValues></_>
    <_>
      <internalNodes>
        0 -1 19504 -1116015974 -339824907 -1413569799 -1421487882
        -1367962212 -1359978882 -569387893 -1508692688</internalNodes>
      <leafValues>
        -3.3668753504753113e-01 5.7128369808197021e-01</leafValues></_>
    <_>
      <internalNodes>
        0 -1 20174 -427898403 1958403083 536799222 -661614654
        -1015776301 -329011270 181227423 1524600601</internalNodes>
      <leafValues>
        -3.3513900637626648e-01 6.3000929355621338e-01</leafValues></_>
    <_>
      <internalNodes>
        0 -1 4307 459697454 -1044185173 -1762137301 1409179116
        1663548094 -923374089 -1227667822 1502557212</internalNodes>
      <leafValues>
        -4.0170133113861084e-01 5.1627933979034424e-01</leafValues></_>
    <_>
      <internalNodes>
        0 -1 15698 1002156823 -766185511 452878948 1693940644
        -2022380574 -1115751458 101142267 -1680015399</internalNodes>
      <leafValues>
        -3.1280779838562012e-01 6.4984166622161865e-01</leafValues></_></weakClassifiers></stage30>
</opencv_storage>
