<?xml version="1.0"?>
<opencv_storage>
<stage14>
  <maxWeakCount>13</maxWeakCount>
  <stageThreshold>-6.0162734985351562e-01</stageThreshold>
  <weakClassifiers>
    <_>
      <internalNodes>
        0 -1 2024 1632497094 1145372929 -1073209204 -498996904
        -771683052 268435465 -1068703120 1380704330</internalNodes>
      <leafValues>
        -4.3086171150207520e-01 2.9176658391952515e-01</leafValues></_>
    <_>
      <internalNodes>
        0 -1 1696 -1183584381 1461808972 2130361581 2144562915 484691387
        -989897345 -134885430 -719716898</internalNodes>
      <leafValues>
        -2.0048122107982635e-01 5.7827502489089966e-01</leafValues></_>
    <_>
      <internalNodes>
        0 -1 29585 281338154 286085327 -1073359520 738268167 277367406
        2021703816 67117323 -1433376698</internalNodes>
      <leafValues>
        -4.8519003391265869e-01 2.6181095838546753e-01</leafValues></_>
    <_>
      <internalNodes>
        0 -1 20154 -1417085478 -47777933 1342126969 2146992048
        2137059036 -1157832885 1455731928 2102330387</internalNodes>
      <leafValues>
        -3.1626462936401367e-01 3.9975982904434204e-01</leafValues></_>
    <_>
      <internalNodes>
        0 -1 3248 1494803127 -669462497 -1878978086 -783281072
        1342218466 538083464 1107824925 625213440</internalNodes>
      <leafValues>
        -4.0507951378822327e-01 3.2738739252090454e-01</leafValues></_>
    <_>
      <internalNodes>
        0 -1 32430 -1140432609 1023737957 -2063556403 -130969400
        1787336796 193529989 1845508345 -1203225907</internalNodes>
      <leafValues>
        -4.3361809849739075e-01 3.3066844940185547e-01</leafValues></_>
    <_>
      <internalNodes>
        0 -1 6232 -100630300 -628255340 1479197064 814350620 1107312768
        1083703562 -1920835431 1513774059</internalNodes>
      <leafValues>
        -4.6550372242927551e-01 3.4820628166198730e-01</leafValues></_>
    <_>
      <internalNodes>
        0 -1 5828 1878520981 1905552134 -2012130876 -434945993 17307725
        -2013183862 680024471 -262741047</internalNodes>
      <leafValues>
        -3.8597583770751953e-01 4.0072855353355408e-01</leafValues></_>
    <_>
      <internalNodes>
        0 -1 33201 -1333018072 1790971104 18645339 -113964992
        -1618429823 9048095 13217814 296931676</internalNodes>
      <leafValues>
        -4.7664985060691833e-01 3.5551139712333679e-01</leafValues></_>
    <_>
      <internalNodes>
        0 -1 22028 -563384912 -160477344 -1276450179 1072422899
        1610549501 1517248500 -319888261 -552861833</internalNodes>
      <leafValues>
        -3.4135389328002930e-01 4.9193140864372253e-01</leafValues></_>
    <_>
      <internalNodes>
        0 -1 7542 -250798030 12652928 -1744404679 -2019695271 944112769
        -1642020857 51063714 -1822685921</internalNodes>
      <leafValues>
        -4.1186064481735229e-01 3.9759433269500732e-01</leafValues></_>
    <_>
      <internalNodes>
        0 -1 27115 -1727363610 1770430447 903542433 -1043120489
        1449640546 -1608184407 -1359102081 -1376125382</internalNodes>
      <leafValues>
        -3.7861561775207520e-01 4.4930440187454224e-01</leafValues></_>
    <_>
      <internalNodes>
        0 -1 3716 292733566 -511372346 285298903 1159055937 805935106
        -1979170799 580606555 -457171192</internalNodes>
      <leafValues>
        -4.2039197683334351e-01 3.9318266510963440e-01</leafValues></_></weakClassifiers></stage14>
</opencv_storage>
