<?xml version="1.0"?>
<opencv_storage>
<stage21>
  <maxWeakCount>12</maxWeakCount>
  <stageThreshold>-7.9920506477355957e-01</stageThreshold>
  <weakClassifiers>
    <_>
      <internalNodes>
        0 -1 28705 -849324071 -1086461216 2147385343 1073044862
        884904700 -1778393232 -1076561953 -1420028048</internalNodes>
      <leafValues>
        -2.3996081948280334e-01 5.4183810949325562e-01</leafValues></_>
    <_>
      <internalNodes>
        0 -1 10489 8119306 -1023409768 -997120757 -1588313973 -536202736
        -654114678 201441623 -620264942</internalNodes>
      <leafValues>
        -4.1390654444694519e-01 3.8583800196647644e-01</leafValues></_>
    <_>
      <internalNodes>
        0 -1 24560 760429467 1971982608 4390955 -1775566459 -2077617955
        1208516641 1770567785 672677160</internalNodes>
      <leafValues>
        -4.5698609948158264e-01 3.4725180268287659e-01</leafValues></_>
    <_>
      <internalNodes>
        0 -1 21381 444320035 1544261770 -322190944 -1644068471
        1895927819 587235533 -1599961015 1050845401</internalNodes>
      <leafValues>
        -3.7164720892906189e-01 4.6480455994606018e-01</leafValues></_>
    <_>
      <internalNodes>
        0 -1 37413 1978364994 1816866045 -1426762049 874594175
        -344018982 1987370861 1996271615 -354862023</internalNodes>
      <leafValues>
        -3.7286719679832458e-01 4.8631328344345093e-01</leafValues></_>
    <_>
      <internalNodes>
        0 -1 37944 -1183526983 -704733255 2080292663 -1516654603
        -285360387 2147418108 1862041469 -1916492776</internalNodes>
      <leafValues>
        -3.8485407829284668e-01 4.7930634021759033e-01</leafValues></_>
    <_>
      <internalNodes>
        0 -1 20267 -1056909679 -1635106800 -2130703526 339804187
        -662609902 604504162 -1820325144 753561754</internalNodes>
      <leafValues>
        -4.4752600789070129e-01 4.2641037702560425e-01</leafValues></_>
    <_>
      <internalNodes>
        0 -1 31821 1233721789 -1602121575 1291866375 1557168297
        -2013198181 -402489080 -918019952 313022985</internalNodes>
      <leafValues>
        -4.2749291658401489e-01 4.7376254200935364e-01</leafValues></_>
    <_>
      <internalNodes>
        0 -1 26835 618598300 -2024798061 -1711239151 -1293647593
        2014912911 -872349663 939527304 -1097822839</internalNodes>
      <leafValues>
        -5.0644004344940186e-01 4.1894876956939697e-01</leafValues></_>
    <_>
      <internalNodes>
        0 -1 1317 1194242593 322432936 2113732347 -1548239186 420955886
        -1493434890 1315956145 -147957900</internalNodes>
      <leafValues>
        -4.1756850481033325e-01 5.1516419649124146e-01</leafValues></_>
    <_>
      <internalNodes>
        0 -1 5243 1284231731 -609587621 -294516132 1257439802 -428107206
        -369379970 1064558530 -543129921</internalNodes>
      <leafValues>
        -3.9836120605468750e-01 5.7100796699523926e-01</leafValues></_>
    <_>
      <internalNodes>
        0 -1 25470 20333851 -2105409536 1493246482 -1794506718
        -1585168302 -1719631679 -1979626847 -75204607</internalNodes>
      <leafValues>
        -5.4500555992126465e-01 4.0470871329307556e-01</leafValues></_></weakClassifiers></stage21>
</opencv_storage>
