<?xml version="1.0"?>
<opencv_storage>
<stage27>
  <maxWeakCount>9</maxWeakCount>
  <stageThreshold>-7.9558092355728149e-01</stageThreshold>
  <weakClassifiers>
    <_>
      <internalNodes>
        0 -1 88 -2101084886 -236115026 -1154498583 -543817 -1295530097
        -1097896001 -1880114658 -469024319</internalNodes>
      <leafValues>
        -2.6395457983016968e-01 6.1904764175415039e-01</leafValues></_>
    <_>
      <internalNodes>
        0 -1 35 -955190853 788607495 -1996488548 -1982791608 -1878980111
        -780042047 1083263172 264384528</internalNodes>
      <leafValues>
        -4.1590595245361328e-01 4.4094538688659668e-01</leafValues></_>
    <_>
      <internalNodes>
        0 -1 24845 -701151531 -705466756 758347133 1829012057 -880226370
        -855737814 -1910182244 -37007890</internalNodes>
      <leafValues>
        -2.7253466844558716e-01 6.8358027935028076e-01</leafValues></_>
    <_>
      <internalNodes>
        0 -1 5980 -417083562 -324043147 1996140158 439136255 -2025924838
        -595722655 -277303489 -1108095195</internalNodes>
      <leafValues>
        -3.1270843744277954e-01 6.1374992132186890e-01</leafValues></_>
    <_>
      <internalNodes>
        0 -1 37144 -1969418995 1038859837 -1359020105 -1179402445
        -536936452 -100664650 -58720593 -2009027344</internalNodes>
      <leafValues>
        -3.7333765625953674e-01 5.2881693840026855e-01</leafValues></_>
    <_>
      <internalNodes>
        0 -1 237 -550518093 1182793400 -327686151 2103417851 -333345614
        -1413795881 -403509573 -650486765</internalNodes>
      <leafValues>
        -2.8170683979988098e-01 6.9450336694717407e-01</leafValues></_>
    <_>
      <internalNodes>
        0 -1 25462 159449218 -2066411443 -2146336574 940147080
        -2126351866 1125122210 1577068586 1183437003</internalNodes>
      <leafValues>
        -6.5159285068511963e-01 3.7783291935920715e-01</leafValues></_>
    <_>
      <internalNodes>
        0 -1 17058 -1137540981 -826556692 -337154452 253319818 642703355
        -841007105 803991535 -1029239797</internalNodes>
      <leafValues>
        -4.2576137185096741e-01 5.8521562814712524e-01</leafValues></_>
    <_>
      <internalNodes>
        0 -1 12594 104080 -1719090928 16777328 -1043758336 1409354123
        328579 -1526712191 195864012</internalNodes>
      <leafValues>
        -5.2939838171005249e-01 4.6206787228584290e-01</leafValues></_></weakClassifiers></stage27>
</opencv_storage>
