<?xml version="1.0"?>
<opencv_storage>
<stage18>
  <maxWeakCount>10</maxWeakCount>
  <stageThreshold>-6.4632111787796021e-01</stageThreshold>
  <weakClassifiers>
    <_>
      <internalNodes>
        0 -1 32917 101131008 79937759 1342275733 68239365 1888354899
        -905248600 -1455263616 -1366900447</internalNodes>
      <leafValues>
        -4.9323016405105591e-01 3.2846716046333313e-01</leafValues></_>
    <_>
      <internalNodes>
        0 -1 2529 1347248366 -1064992751 134742473 68157582 1073932835
        1627471874 302743686 -12382701</internalNodes>
      <leafValues>
        -3.8631272315979004e-01 4.1456726193428040e-01</leafValues></_>
    <_>
      <internalNodes>
        0 -1 23020 1344263115 996478230 255764363 593460720 -2108610327
        -1355317381 -1746074276 448384015</internalNodes>
      <leafValues>
        -3.2620322704315186e-01 4.9500456452369690e-01</leafValues></_>
    <_>
      <internalNodes>
        0 -1 14359 2045377691 -613879121 1190865782 1512128498 963958439
        -1770553866 1339711227 -1144782851</internalNodes>
      <leafValues>
        -2.4981132149696350e-01 6.2611025571823120e-01</leafValues></_>
    <_>
      <internalNodes>
        0 -1 38400 1144327567 -1892941964 1789799224 1933520766
        -143669960 -276832395 813037524 -646977032</internalNodes>
      <leafValues>
        -3.1667318940162659e-01 5.5078858137130737e-01</leafValues></_>
    <_>
      <internalNodes>
        0 -1 23623 407935058 303038746 336595044 34689476 135202454
        1930035854 269003441 1758648711</internalNodes>
      <leafValues>
        -5.4257220029830933e-01 3.5453027486801147e-01</leafValues></_>
    <_>
      <internalNodes>
        0 -1 5093 1321955967 2068537147 1257474303 1528364031
        -1354463574 -316850835 -318769409 -203424049</internalNodes>
      <leafValues>
        -2.8677242994308472e-01 6.7335629463195801e-01</leafValues></_>
    <_>
      <internalNodes>
        0 -1 2184 1750843395 1761689874 -2008001148 -632581476
        2030175091 21076680 -2139070336 1377950276</internalNodes>
      <leafValues>
        -6.1887043714523315e-01 3.3638000488281250e-01</leafValues></_>
    <_>
      <internalNodes>
        0 -1 5913 -1396783497 -873021460 -1344279562 -1602625676
        796788285 -406880449 1065279197 -433588281</internalNodes>
      <leafValues>
        -4.3139374256134033e-01 4.5197519659996033e-01</leafValues></_>
    <_>
      <internalNodes>
        0 -1 16982 -1281047855 901607408 -340789382 -1887928387
        -432366304 -578879627 792671877 -1879358240</internalNodes>
      <leafValues>
        -3.3536922931671143e-01 5.5166018009185791e-01</leafValues></_></weakClassifiers></stage18>
</opencv_storage>
