<?xml version="1.0"?>
<opencv_storage>
<stage17>
  <maxWeakCount>10</maxWeakCount>
  <stageThreshold>-9.6146899461746216e-01</stageThreshold>
  <weakClassifiers>
    <_>
      <internalNodes>
        0 -1 40227 1070071391 774352677 -1695617498 1148222843
        1870561139 1146584918 -1342183547 -1098914309</internalNodes>
      <leafValues>
        -3.1889289617538452e-01 4.5157781243324280e-01</leafValues></_>
    <_>
      <internalNodes>
        0 -1 8263 480473603 1353350274 2129134201 458483699 1442190293
        1583030263 2062449919 -1141181721</internalNodes>
      <leafValues>
        -3.4731239080429077e-01 4.5770943164825439e-01</leafValues></_>
    <_>
      <internalNodes>
        0 -1 26680 706891548 1224922266 291013000 1763393547 -1606212588
        -397376949 -1065313772 274989696</internalNodes>
      <leafValues>
        -6.4203155040740967e-01 2.5700330734252930e-01</leafValues></_>
    <_>
      <internalNodes>
        0 -1 32819 -229912887 609173271 845839938 -1544585297 173667424
        -1288716524 -1934137646 -453610093</internalNodes>
      <leafValues>
        -3.5342219471931458e-01 5.2315986156463623e-01</leafValues></_>
    <_>
      <internalNodes>
        0 -1 12457 -1845808581 -259365221 -1291866252 1207331629
        -148078997 -1405212750 -847270725 -1419431300</internalNodes>
      <leafValues>
        -3.5439717769622803e-01 5.3387057781219482e-01</leafValues></_>
    <_>
      <internalNodes>
        0 -1 5137 1468203074 -1069366768 1082130693 -918448059 134336672
        -1055620661 -1476228978 2015525003</internalNodes>
      <leafValues>
        -4.4810372591018677e-01 4.0751364827156067e-01</leafValues></_>
    <_>
      <internalNodes>
        0 -1 17609 -554765476 -1142108161 -218251743 -671881224
        -989861923 -1687691417 -1912841747 -1141799399</internalNodes>
      <leafValues>
        -2.8314495086669922e-01 6.9462084770202637e-01</leafValues></_>
    <_>
      <internalNodes>
        0 -1 29532 403063122 285483029 1224802307 72630273 536952997
        -1699184637 -1023210895 -1166218300</internalNodes>
      <leafValues>
        -5.1505184173583984e-01 4.2954915761947632e-01</leafValues></_>
    <_>
      <internalNodes>
        0 -1 15465 54323691 704023163 1803513334 402442202 -1141059555
        -387206511 1163135889 -1887580119</internalNodes>
      <leafValues>
        -4.1804921627044678e-01 4.9317997694015503e-01</leafValues></_>
    <_>
      <internalNodes>
        0 -1 5205 562765824 337358879 -1069293312 -268397807 1795377264
        1786810754 -2139055781 -1072003072</internalNodes>
      <leafValues>
        -6.1120784282684326e-01 3.7006407976150513e-01</leafValues></_></weakClassifiers></stage17>
</opencv_storage>
