<?xml version="1.0"?>
<opencv_storage>
<stage10>
  <maxWeakCount>12</maxWeakCount>
  <stageThreshold>-8.5573303699493408e-01</stageThreshold>
  <weakClassifiers>
    <_>
      <internalNodes>
        0 -1 36773 -383581952 85291776 38158593 822149645 169660225
        1762689048 76240993 210080097</internalNodes>
      <leafValues>
        -5.6416463851928711e-01 2.8646221756935120e-01</leafValues></_>
    <_>
      <internalNodes>
        0 -1 25854 -934222565 236550234 -2147395487 708853844 847835259
        2055245963 10422355 -54424815</internalNodes>
      <leafValues>
        -4.8267892003059387e-01 2.7367725968360901e-01</leafValues></_>
    <_>
      <internalNodes>
        0 -1 34436 -74327816 -1156766422 2146886065 -436767441
        -729921813 133365609 1701172633 106659706</internalNodes>
      <leafValues>
        -3.0302557349205017e-01 4.6054655313491821e-01</leafValues></_>
    <_>
      <internalNodes>
        0 -1 12008 1993070200 298577926 -1073684351 -1205800699
        -1308621740 1762236429 -1862149238 -1710936610</internalNodes>
      <leafValues>
        -3.8613906502723694e-01 3.5715207457542419e-01</leafValues></_>
    <_>
      <internalNodes>
        0 -1 16673 -1048099709 -316605329 1996198951 -8704031 -697064375
        -816121868 -612961076 -1150790151</internalNodes>
      <leafValues>
        -3.1382277607917786e-01 4.7021254897117615e-01</leafValues></_>
    <_>
      <internalNodes>
        0 -1 22821 1900541155 -773895095 -705180347 1910198207 128574091
        1303253687 -748970901 -356931029</internalNodes>
      <leafValues>
        -2.4594192206859589e-01 6.1414521932601929e-01</leafValues></_>
    <_>
      <internalNodes>
        0 -1 8721 170126360 -1379793659 1376502209 1613762869 2763544
        -663961469 -1335857014 192234383</internalNodes>
      <leafValues>
        -5.8001488447189331e-01 2.4959887564182281e-01</leafValues></_>
    <_>
      <internalNodes>
        0 -1 36658 -152570181 427573181 188332065 499088755 -1349001746
        -1107959963 -684206596 -813768195</internalNodes>
      <leafValues>
        -2.4310666322708130e-01 6.2716251611709595e-01</leafValues></_>
    <_>
      <internalNodes>
        0 -1 13665 -1441651430 1577881984 -771716985 -849964863
        595689942 -225927020 -401694061 797372471</internalNodes>
      <leafValues>
        -4.6311396360397339e-01 3.5157760977745056e-01</leafValues></_>
    <_>
      <internalNodes>
        0 -1 29908 1364739970 939753620 612962754 1157955591 -2105481062
        185294889 730874691 -1742849855</internalNodes>
      <leafValues>
        -4.5008787512779236e-01 3.8062915205955505e-01</leafValues></_>
    <_>
      <internalNodes>
        0 -1 28218 -667888398 1059180085 -1213694531 -677942186
        -13455361 -1419808835 1333687310 2074852785</internalNodes>
      <leafValues>
        -3.4034776687622070e-01 4.9622005224227905e-01</leafValues></_>
    <_>
      <internalNodes>
        0 -1 27931 1888122391 600445571 -998129381 -1274920600
        -527925101 1913127176 -791125981 -858412286</internalNodes>
      <leafValues>
        -3.8117063045501709e-01 4.4264709949493408e-01</leafValues></_></weakClassifiers></stage10>
</opencv_storage>
