<?xml version="1.0"?>
<opencv_storage>
<stage17>
  <maxWeakCount>34</maxWeakCount>
  <stageThreshold>-7.7185362577438354e-01</stageThreshold>
  <weakClassifiers>
    <_>
      <internalNodes>
        0 -1 57891 2.8978455811738968e-03</internalNodes>
      <leafValues>
        3.1209269165992737e-01 -4.7928994894027710e-01</leafValues></_>
    <_>
      <internalNodes>
        0 -1 764199 4.4999015517532825e-03</internalNodes>
      <leafValues>
        -9.7692519426345825e-02 5.0111168622970581e-01</leafValues></_>
    <_>
      <internalNodes>
        0 -1 609594 1.9263700814917684e-03</internalNodes>
      <leafValues>
        -1.2496801465749741e-01 3.6015900969505310e-01</leafValues></_>
    <_>
      <internalNodes>
        0 -1 336899 -4.0804670425131917e-04</internalNodes>
      <leafValues>
        -4.3321770429611206e-01 1.2064120173454285e-01</leafValues></_>
    <_>
      <internalNodes>
        0 -1 539390 -1.8694581463932991e-02</internalNodes>
      <leafValues>
        -5.4227697849273682e-01 7.2024628520011902e-02</leafValues></_>
    <_>
      <internalNodes>
        0 -1 8488 6.9448788417503238e-04</internalNodes>
      <leafValues>
        -1.3877798616886139e-01 3.3904927968978882e-01</leafValues></_>
    <_>
      <internalNodes>
        0 -1 840916 2.6527140289545059e-04</internalNodes>
      <leafValues>
        3.8874894380569458e-02 -6.6168051958084106e-01</leafValues></_>
    <_>
      <internalNodes>
        0 -1 413299 -7.7163048088550568e-02</internalNodes>
      <leafValues>
        -6.9805908203125000e-01 6.8723201751708984e-02</leafValues></_>
    <_>
      <internalNodes>
        0 -1 751878 -1.3601477257907391e-03</internalNodes>
      <leafValues>
        3.0463257431983948e-01 -1.5456189215183258e-01</leafValues></_>
    <_>
      <internalNodes>
        0 -1 678956 -5.3388997912406921e-03</internalNodes>
      <leafValues>
        2.3044601082801819e-01 -1.9480216503143311e-01</leafValues></_>
    <_>
      <internalNodes>
        0 -1 1073255 -1.8510612426325679e-03</internalNodes>
      <leafValues>
        -5.4232567548751831e-01 7.9103283584117889e-02</leafValues></_>
    <_>
      <internalNodes>
        0 -1 986491 1.1961746960878372e-02</internalNodes>
      <leafValues>
        -5.7220704853534698e-02 8.3533400297164917e-01</leafValues></_>
    <_>
      <internalNodes>
        0 -1 433960 -3.2587987370789051e-03</internalNodes>
      <leafValues>
        -5.4280114173889160e-01 9.1336511075496674e-02</leafValues></_>
    <_>
      <internalNodes>
        0 -1 801979 -2.1745247766375542e-02</internalNodes>
      <leafValues>
        4.9294835329055786e-01 -9.2141777276992798e-02</leafValues></_>
    <_>
      <internalNodes>
        0 -1 886791 -4.3201399967074394e-04</internalNodes>
      <leafValues>
        3.9300256967544556e-01 -1.1469620466232300e-01</leafValues></_>
    <_>
      <internalNodes>
        0 -1 1011205 2.4393096100538969e-04</internalNodes>
      <leafValues>
        -1.5438053011894226e-01 3.1526499986648560e-01</leafValues></_>
    <_>
      <internalNodes>
        0 -1 784233 1.5086989151313901e-04</internalNodes>
      <leafValues>
        1.1767420172691345e-01 -4.2613157629966736e-01</leafValues></_>
    <_>
      <internalNodes>
        0 -1 1029348 -2.4388719350099564e-02</internalNodes>
      <leafValues>
        2.9257959127426147e-01 -1.7012906074523926e-01</leafValues></_>
    <_>
      <internalNodes>
        0 -1 1016025 -2.4179497733712196e-02</internalNodes>
      <leafValues>
        7.6967692375183105e-01 -6.4254835247993469e-02</leafValues></_>
    <_>
      <internalNodes>
        0 -1 491152 -1.8147859955206513e-03</internalNodes>
      <leafValues>
        -3.9226514101028442e-01 1.3791106641292572e-01</leafValues></_>
    <_>
      <internalNodes>
        0 -1 730988 -2.7220798656344414e-03</internalNodes>
      <leafValues>
        -6.4875650405883789e-01 5.7534493505954742e-02</leafValues></_>
    <_>
      <internalNodes>
        0 -1 542227 5.5145587772130966e-02</internalNodes>
      <leafValues>
        -7.6747246086597443e-02 5.8099919557571411e-01</leafValues></_>
    <_>
      <internalNodes>
        0 -1 306246 -9.9253579974174500e-02</internalNodes>
      <leafValues>
        -6.7200410366058350e-01 8.4308266639709473e-02</leafValues></_>
    <_>
      <internalNodes>
        0 -1 913339 2.0069416612386703e-02</internalNodes>
      <leafValues>
        -7.3589742183685303e-02 8.1812113523483276e-01</leafValues></_>
    <_>
      <internalNodes>
        0 -1 560270 -2.8148423880338669e-03</internalNodes>
      <leafValues>
        3.6383202672004700e-01 -1.3149870932102203e-01</leafValues></_>
    <_>
      <internalNodes>
        0 -1 852652 -1.4221167191863060e-02</internalNodes>
      <leafValues>
        7.1330642700195312e-01 -6.5239124000072479e-02</leafValues></_>
    <_>
      <internalNodes>
        0 -1 553927 -2.9051671735942364e-03</internalNodes>
      <leafValues>
        -2.8850930929183960e-01 1.4945164322853088e-01</leafValues></_>
    <_>
      <internalNodes>
        0 -1 926118 -1.3964382000267506e-02</internalNodes>
      <leafValues>
        3.0319681763648987e-01 -1.4630000293254852e-01</leafValues></_>
    <_>
      <internalNodes>
        0 -1 1078321 -1.5058354474604130e-03</internalNodes>
      <leafValues>
        2.8674653172492981e-01 -1.8668511509895325e-01</leafValues></_>
    <_>
      <internalNodes>
        0 -1 965047 3.4717759117484093e-03</internalNodes>
      <leafValues>
        6.7580275237560272e-02 -6.6922098398208618e-01</leafValues></_>
    <_>
      <internalNodes>
        0 -1 787061 -2.2063474170863628e-03</internalNodes>
      <leafValues>
        2.9420906305313110e-01 -1.6247002780437469e-01</leafValues></_>
    <_>
      <internalNodes>
        0 -1 676042 2.6735886931419373e-03</internalNodes>
      <leafValues>
        -9.9684804677963257e-02 4.6330687403678894e-01</leafValues></_>
    <_>
      <internalNodes>
        0 -1 1108672 -5.9095054166391492e-04</internalNodes>
      <leafValues>
        -9.2071366310119629e-01 5.8586183935403824e-02</leafValues></_>
    <_>
      <internalNodes>
        0 -1 223491 2.4234617012552917e-04</internalNodes>
      <leafValues>
        7.8144311904907227e-02 -4.7542440891265869e-01</leafValues></_></weakClassifiers></stage17>
</opencv_storage>
