<?xml version="1.0"?>
<opencv_storage>
<stage7>
  <maxWeakCount>10</maxWeakCount>
  <stageThreshold>-1.5163230895996094e+00</stageThreshold>
  <weakClassifiers>
    <_>
      <internalNodes>
        0 -1 25706 -805321737 402644351 -285278469 578476915 1073689471
        1878982525 1728018036 -17106955</internalNodes>
      <leafValues>
        -4.0425533056259155e-01 4.7081711888313293e-01</leafValues></_>
    <_>
      <internalNodes>
        0 -1 14647 1426127968 1225003136 -1743878832 -560295599 67832093
        -1816033049 -1169628955 -36979058</internalNodes>
      <leafValues>
        -6.3673198223114014e-01 3.0313146114349365e-01</leafValues></_>
    <_>
      <internalNodes>
        0 -1 12418 -85270376 -1356421342 572420025 1464079457
        -1073873784 -50626989 674815192 -8519778</internalNodes>
      <leafValues>
        -4.1814419627189636e-01 4.8947644233703613e-01</leafValues></_>
    <_>
      <internalNodes>
        0 -1 18232 1377484960 -1290338173 1090617471 -36753382
        -2142729813 -671055871 -930872851 -1653880173</internalNodes>
      <leafValues>
        -4.4143187999725342e-01 4.5451155304908752e-01</leafValues></_>
    <_>
      <internalNodes>
        0 -1 35940 1659914251 819823443 16777565 817989322 -251600726
        587235360 1224966858 -95425845</internalNodes>
      <leafValues>
        -4.3728598952293396e-01 4.5088419318199158e-01</leafValues></_>
    <_>
      <internalNodes>
        0 -1 27757 -80871637 1740111759 -1351680121 719847151 123696614
        758644667 1744783099 -336079363</internalNodes>
      <leafValues>
        -4.2136231064796448e-01 5.0529259443283081e-01</leafValues></_>
    <_>
      <internalNodes>
        0 -1 15076 -272648449 -4760582 -1342279875 -35727770 -8388707
        -25311403 -126935812 -1648595720</internalNodes>
      <leafValues>
        -2.8815376758575439e-01 7.1430951356887817e-01</leafValues></_>
    <_>
      <internalNodes>
        0 -1 40796 -85983314 -336331522 2147418103 -1883269269
        -336080964 -1654489218 1556055820 1347802601</internalNodes>
      <leafValues>
        -4.3509745597839355e-01 5.1202201843261719e-01</leafValues></_>
    <_>
      <internalNodes>
        0 -1 5693 -1119778850 -619114478 1212598363 1184071691 691193131
        1846020234 1275640075 -76622903</internalNodes>
      <leafValues>
        -4.9694481492042542e-01 4.7101518511772156e-01</leafValues></_>
    <_>
      <internalNodes>
        0 -1 21994 2134831331 -1686671823 -2081424417 1476391777
        -1640315145 -1627703560 158244351 -820251634</internalNodes>
      <leafValues>
        -3.1105443835258484e-01 7.1797895431518555e-01</leafValues></_></weakClassifiers></stage7>
</opencv_storage>
