<?xml version="1.0"?>
<opencv_storage>
<cascade>
  <stageType>BOOST</stageType>
  <featureType>LBP</featureType>
  <height>50</height>
  <width>25</width>
  <stageParams>
    <boostType>GAB</boostType>
    <minHitRate>9.9900001287460327e-01</minHitRate>
    <maxFalseAlarm>5.0000000000000000e-01</maxFalseAlarm>
    <weightTrimRate>9.4999999999999996e-01</weightTrimRate>
    <maxDepth>1</maxDepth>
    <maxWeakCount>100</maxWeakCount></stageParams>
  <featureParams>
    <maxCatCount>256</maxCatCount>
    <featSize>1</featSize></featureParams>
  <stageNum>30</stageNum>
  <stages>
    <!-- stage 0 -->
    <_>
      <maxWeakCount>5</maxWeakCount>
      <stageThreshold>-7.5523591041564941e-01</stageThreshold>
      <weakClassifiers>
        <_>
          <internalNodes>
            0 -1 105 479232 -1862041525 65667 420188519 277023107
            33620610 50528651 1606413199</internalNodes>
          <leafValues>
            -7.9961466789245605e-01 5.8797526359558105e-01</leafValues></_>
        <_>
          <internalNodes>
            0 -1 82 -223881486 -227055950 -378061517 -176947285
            -989942546 -788660225 -1053495813 -69208081</internalNodes>
          <leafValues>
            -4.5753350853919983e-01 7.8778237104415894e-01</leafValues></_>
        <_>
          <internalNodes>
            0 -1 46 2018965648 10522624 -2129641084 -585789117
            -1073119232 1352253442 -1119173977 -67376673</internalNodes>
          <leafValues>
            -7.0651865005493164e-01 5.4542160034179688e-01</leafValues></_>
        <_>
          <internalNodes>
            0 -1 47 1951123598 1459847436 131079 -595443442 25388042
            453574691 1208134283 -77857601</internalNodes>
          <leafValues>
            -5.5151891708374023e-01 5.8816760778427124e-01</leafValues></_>
        <_>
          <internalNodes>
            0 -1 203 1145520650 8470539 147547 302059623 -1476230770
            -1979121663 536969370 818929599</internalNodes>
          <leafValues>
            -6.2505257129669189e-01 5.2403742074966431e-01</leafValues></_></weakClassifiers></_>
    <!-- stage 1 -->
    <_>
      <maxWeakCount>7</maxWeakCount>
      <stageThreshold>-1.5681997537612915e+00</stageThreshold>
      <weakClassifiers>
        <_>
          <internalNodes>
            0 -1 156 -33925798 -848429057 -8847560 -572063745 -571146308
            -722108689 -437725868 -572529155</internalNodes>
          <leafValues>
            -4.4951590895652771e-01 6.2028050422668457e-01</leafValues></_>
        <_>
          <internalNodes>
            0 -1 83 1793652872 -662687475 100700291 -384204781
            -1072444757 277643392 -526267457 -506209413</internalNodes>
          <leafValues>
            -5.4278534650802612e-01 5.7214885950088501e-01</leafValues></_>
        <_>
          <internalNodes>
            0 -1 88 -15809822 478614059 1088 1427489539 1084443097
            1510113417 537661659 2136989915</internalNodes>
          <leafValues>
            -6.1108678579330444e-01 4.6830958127975464e-01</leafValues></_>
        <_>
          <internalNodes>
            0 -1 227 -1017140470 570662979 -2146959296 444979458 758033
            604340227 -2013252990 -346293569</internalNodes>
          <leafValues>
            -5.1457226276397705e-01 5.5904948711395264e-01</leafValues></_>
        <_>
          <internalNodes>
            0 -1 39 1090517638 1090945792 -2013265900 -1535094439
            1207959638 -670629760 1218601473 -1093049</internalNodes>
          <leafValues>
            -5.8319067955017090e-01 5.4236584901809692e-01</leafValues></_>
        <_>
          <internalNodes>
            0 -1 220 -840434494 -941359186 -194007280 1908009978
            310347267 22413173 -167946927 -969149253</internalNodes>
          <leafValues>
            -5.2219080924987793e-01 5.9087556600570679e-01</leafValues></_>
        <_>
          <internalNodes>
            0 -1 48 -405276561 -1727298552 1074872518 -960035829
            168298842 427884608 1703479454 -86519765</internalNodes>
          <leafValues>
            -5.4981094598770142e-01 6.0568928718566895e-01</leafValues></_></weakClassifiers></_>
    <!-- stage 2 -->
    <_>
      <maxWeakCount>6</maxWeakCount>
      <stageThreshold>-1.3910237550735474e+00</stageThreshold>
      <weakClassifiers>
        <_>
          <internalNodes>
            0 -1 97 -525940734 1630266146 -487150556 1404960663
            -722549108 -16809987 1426052319 -4595729</internalNodes>
          <leafValues>
            -4.8632219433784485e-01 5.7459676265716553e-01</leafValues></_>
        <_>
          <internalNodes>
            0 -1 138 -243730128 1092632582 -251504316 -585911927
            -2063447826 -1744191479 1971885184 -570708253</internalNodes>
          <leafValues>
            -6.0050153732299805e-01 4.8390924930572510e-01</leafValues></_>
        <_>
          <internalNodes>
            0 -1 172 235421712 321961985 423741701 995213392 -1182708551
            -636287357 1233717387 467360507</internalNodes>
          <leafValues>
            -6.3609373569488525e-01 4.1742694377899170e-01</leafValues></_>
        <_>
          <internalNodes>
            0 -1 12 -899421654 -937752026 65560 1380172509 1682114663
            8585256 269099101 -618718366</internalNodes>
          <leafValues>
            -6.2933659553527832e-01 4.4609144330024719e-01</leafValues></_>
        <_>
          <internalNodes>
            0 -1 209 -69733734 1078432154 33898642 10027270 -1033594740
            35586184 277512389 -537928757</internalNodes>
          <leafValues>
            -5.4745054244995117e-01 5.0838577747344971e-01</leafValues></_>
        <_>
          <internalNodes>
            0 -1 117 -669257120 -662634494 134217863 -626719971 25696313
            -75497344 29378759 -19164445</internalNodes>
          <leafValues>
            -6.3823693990707397e-01 4.4776186347007751e-01</leafValues></_></weakClassifiers></_>
    <!-- stage 3 -->
    <_>
      <maxWeakCount>7</maxWeakCount>
      <stageThreshold>-6.5872222185134888e-01</stageThreshold>
      <weakClassifiers>
        <_>
          <internalNodes>
            0 -1 66 -928188374 -752156894 -1875536461 -751308857
            -1057108883 -151130449 -990429697 -47186033</internalNodes>
          <leafValues>
            -4.3300423026084900e-01 5.9192347526550293e-01</leafValues></_>
        <_>
          <internalNodes>
            0 -1 109 -1860452173 1597751283 238778161 926121777
            483806463 1144999935 2139061695 -16785409</internalNodes>
          <leafValues>
            -3.9613977074623108e-01 6.7367458343505859e-01</leafValues></_>
        <_>
          <internalNodes>
            0 -1 185 1436286723 117511703 151809 1495161951 -2109671413
            -897414966 1075939733 1608250031</internalNodes>
          <leafValues>
            -5.1179528236389160e-01 5.1475131511688232e-01</leafValues></_>
        <_>
          <internalNodes>
            0 -1 24 -1065167810 1293815810 413726 -805253092 -1610464468
            -41254750 -385689137 -9340161</internalNodes>
          <leafValues>
            -6.4389884471893311e-01 4.2013603448867798e-01</leafValues></_>
        <_>
          <internalNodes>
            0 -1 151 -305872888 83951958 -1736076892 389259 168440043
            30969984 1098932703 -390204929</internalNodes>
          <leafValues>
            -6.4705342054367065e-01 3.9699932932853699e-01</leafValues></_>
        <_>
          <internalNodes>
            0 -1 162 1490535296 -774253523 2056 1742066001 -1055244150
            201851008 136531082 272364171</internalNodes>
          <leafValues>
            -5.8445942401885986e-01 4.7669586539268494e-01</leafValues></_>
        <_>
          <internalNodes>
            0 -1 40 -413689718 46334020 4224 -1597942909 1929588736
            -398425080 34670178 -71048689</internalNodes>
          <leafValues>
            -5.3789830207824707e-01 5.5699563026428223e-01</leafValues></_></weakClassifiers></_>
    <!-- stage 4 -->
    <_>
      <maxWeakCount>9</maxWeakCount>
      <stageThreshold>-8.0307954549789429e-01</stageThreshold>
      <weakClassifiers>
        <_>
          <internalNodes>
            0 -1 159 195055632 1006530428 -1090535873 1073610640
            267851005 -674243081 2128379646 -101756929</internalNodes>
          <leafValues>
            -4.6474358439445496e-01 5.2631580829620361e-01</leafValues></_>
        <_>
          <internalNodes>
            0 -1 34 503924986 1393674325 536936539 1900883465 -248839013
            -2147417919 -703944470 2136699635</internalNodes>
          <leafValues>
            -6.0282427072525024e-01 4.1919243335723877e-01</leafValues></_>
        <_>
          <internalNodes>
            0 -1 224 2145372162 437901754 285212672 5029891 1158304000
            -104234832 -259733110 -644888177</internalNodes>
          <leafValues>
            -4.8410090804100037e-01 4.9454733729362488e-01</leafValues></_>
        <_>
          <internalNodes>
            0 -1 120 -754787107 -406847471 1879183628 -897560184
            -1874843588 -232161254 -2037755884 -105129751</internalNodes>
          <leafValues>
            -5.0738424062728882e-01 4.9368485808372498e-01</leafValues></_>
        <_>
          <internalNodes>
            0 -1 79 1990413986 1997684867 1208500679 -1795092222
            -901211938 -2138011518 -108973893 -259532818</internalNodes>
          <leafValues>
            -5.5592232942581177e-01 4.6240639686584473e-01</leafValues></_>
        <_>
          <internalNodes>
            0 -1 132 1345575570 -679357887 805376281 -239734775 164310
            471106706 648350207 526370555</internalNodes>
          <leafValues>
            -5.4212623834609985e-01 4.7008848190307617e-01</leafValues></_>
        <_>
          <internalNodes>
            0 -1 20 -282075009 -1632731418 1861168703 1080520191
            1316830285 519519871 268428511 2138925051</internalNodes>
          <leafValues>
            -4.6545341610908508e-01 5.7131546735763550e-01</leafValues></_>
        <_>
          <internalNodes>
            0 -1 188 -547245624 73613534 -733937007 521888711 -259487732
            -1962235902 -2104950524 -935599349</internalNodes>
          <leafValues>
            -6.0712945461273193e-01 4.2316457629203796e-01</leafValues></_>
        <_>
          <internalNodes>
            0 -1 110 1372206280 420676438 -1073732966 526192833
            1191265965 1778385553 1800001755 -102705137</internalNodes>
          <leafValues>
            -5.9541344642639160e-01 4.5632398128509521e-01</leafValues></_></weakClassifiers></_>
    <!-- stage 5 -->
    <_>
      <maxWeakCount>6</maxWeakCount>
      <stageThreshold>-4.5576313138008118e-01</stageThreshold>
      <weakClassifiers>
        <_>
          <internalNodes>
            0 -1 103 606095376 587239496 83941725 1396768841 276891672
            173048321 -1476373109 -611848258</internalNodes>
          <leafValues>
            -5.2416354417800903e-01 4.7841727733612061e-01</leafValues></_>
        <_>
          <internalNodes>
            0 -1 21 -1919958802 1292354440 -1065189353 -431996785
            185814603 18612488 562905739 1667623599</internalNodes>
          <leafValues>
            -6.2192791700363159e-01 3.7123844027519226e-01</leafValues></_>
        <_>
          <internalNodes>
            0 -1 84 1573102338 428812704 -803143678 -721304320
            -2004712785 -536870748 -1023390802 188965215</internalNodes>
          <leafValues>
            -5.6874048709869385e-01 4.0814349055290222e-01</leafValues></_>
        <_>
          <internalNodes>
            0 -1 98 52519424 1376071920 1392599171 1369117844 -502243174
            730366092 -1274953475 1437570715</internalNodes>
          <leafValues>
            -6.8620032072067261e-01 3.4018778800964355e-01</leafValues></_>
        <_>
          <internalNodes>
            0 -1 187 2008125906 806555907 50632706 1507049745 -385310581
            1107821570 -2142639276 2138162989</internalNodes>
          <leafValues>
            -5.7150578498840332e-01 4.3061006069183350e-01</leafValues></_>
        <_>
          <internalNodes>
            0 -1 237 -780431521 -1435586798 251621344 -2107457541
            1459091248 209188727 -167774761 -239610401</internalNodes>
          <leafValues>
            -4.2081934213638306e-01 5.4672461748123169e-01</leafValues></_></weakClassifiers></_>
    <!-- stage 6 -->
    <_>
      <maxWeakCount>10</maxWeakCount>
      <stageThreshold>-9.6730983257293701e-01</stageThreshold>
      <weakClassifiers>
        <_>
          <internalNodes>
            0 -1 121 -778896260 -537416456 -839324163 406518972
            -1186824326 -1082195928 -545617508 -1117587207</internalNodes>
          <leafValues>
            -3.9851853251457214e-01 5.3230768442153931e-01</leafValues></_>
        <_>
          <internalNodes>
            0 -1 130 1965278272 -774596407 285761687 -721190575
            537059498 -662175230 -1851530865 -405304881</internalNodes>
          <leafValues>
            -4.7086986899375916e-01 4.6573719382286072e-01</leafValues></_>
        <_>
          <internalNodes>
            0 -1 60 495346242 293930281 134826562 1068171587 1786955918
            1476462850 -1903998113 1922257951</internalNodes>
          <leafValues>
            -6.4697074890136719e-01 3.4437966346740723e-01</leafValues></_>
        <_>
          <internalNodes>
            0 -1 0 -374428810 -646975554 -67190913 -1074467143
            1203201781 -1073741850 -1076534801 -2628393</internalNodes>
          <leafValues>
            -3.7089887261390686e-01 6.3073843717575073e-01</leafValues></_>
        <_>
          <internalNodes>
            0 -1 92 1406251519 -250408891 67867 1506824212 939557209
            -645918575 713693928 -1419326744</internalNodes>
          <leafValues>
            -4.3958452343940735e-01 5.5323976278305054e-01</leafValues></_>
        <_>
          <internalNodes>
            0 -1 211 -1153436385 783548279 1052720913 455079783
            -1610760423 243040255 -562168807 -941629441</internalNodes>
          <leafValues>
            -4.1087961196899414e-01 6.2104266881942749e-01</leafValues></_>
        <_>
          <internalNodes>
            0 -1 126 194334762 544328399 1082673219 1016057935
            1134575738 964690056 203024600 1207950059</internalNodes>
          <leafValues>
            -7.0108407735824585e-01 3.7347501516342163e-01</leafValues></_>
        <_>
          <internalNodes>
            0 -1 169 -792297292 1578106881 403231697 390676551
            1074303128 -1333753694 272992414 -1187028318</internalNodes>
          <leafValues>
            -4.8927497863769531e-01 5.2112895250320435e-01</leafValues></_>
        <_>
          <internalNodes>
            0 -1 42 -267418069 -2087342079 285282562 -707575485
            -2010398289 1208057858 1367400537 1934062439</internalNodes>
          <leafValues>
            -4.9725607037544250e-01 4.8096439242362976e-01</leafValues></_>
        <_>
          <internalNodes>
            0 -1 4 1290794319 -1369313414 800292855 1316880054 132484886
            -269517002 494298961 -201327642</internalNodes>
          <leafValues>
            -4.4641253352165222e-01 5.8019024133682251e-01</leafValues></_></weakClassifiers></_>
    <!-- stage 7 -->
    <_>
      <maxWeakCount>8</maxWeakCount>
      <stageThreshold>-7.3741877079010010e-01</stageThreshold>
      <weakClassifiers>
        <_>
          <internalNodes>
            0 -1 131 -16859008 -1569392780 -188978524 -516456457
            -1661098524 -1393117451 -820120149 -204760337</internalNodes>
          <leafValues>
            -3.9599382877349854e-01 5.0649350881576538e-01</leafValues></_>
        <_>
          <internalNodes>
            0 -1 23 -269497873 -277877130 -1896976769 1646456558
            -859411363 -941654154 130473679 -820654081</internalNodes>
          <leafValues>
            -4.2874920368194580e-01 5.4161179065704346e-01</leafValues></_>
        <_>
          <internalNodes>
            0 -1 43 1847561258 1528922184 -1039902592 -616103622
            1619199243 1225327360 571059106 -239214814</internalNodes>
          <leafValues>
            -4.8115637898445129e-01 4.4384405016899109e-01</leafValues></_>
        <_>
          <internalNodes>
            0 -1 143 -1553854443 -102290317 -461914187 -135791114
            -327195156 1878293887 -99617 -77073313</internalNodes>
          <leafValues>
            -4.0637105703353882e-01 5.4954802989959717e-01</leafValues></_>
        <_>
          <internalNodes>
            0 -1 100 -1107875694 348184720 -1073690617 1905451019
            411634850 -612237184 134320059 -653347861</internalNodes>
          <leafValues>
            -5.1200008392333984e-01 4.4429618120193481e-01</leafValues></_>
        <_>
          <internalNodes>
            0 -1 64 -89166165 -1146224736 -2034270685 989789863
            1193244321 -1611759625 1988059131 -71320017</internalNodes>
          <leafValues>
            -4.5089399814605713e-01 5.1119720935821533e-01</leafValues></_>
        <_>
          <internalNodes>
            0 -1 236 2011682378 784297920 2147466922 -1535905874
            -8393977 1862074239 2012574647 -72354305</internalNodes>
          <leafValues>
            -4.2452478408813477e-01 5.4582470655441284e-01</leafValues></_>
        <_>
          <internalNodes>
            0 -1 214 805305087 -478265363 1055965049 -76218390
            -402808839 -521797763 1635540344 -883884424</internalNodes>
          <leafValues>
            -4.2151349782943726e-01 5.6584608554840088e-01</leafValues></_></weakClassifiers></_>
    <!-- stage 8 -->
    <_>
      <maxWeakCount>9</maxWeakCount>
      <stageThreshold>-9.3663531541824341e-01</stageThreshold>
      <weakClassifiers>
        <_>
          <internalNodes>
            0 -1 28 -637370700 -2138046204 -1006497332 -800013987
            -1711191524 -1734147433 -1196883772 -426268525</internalNodes>
          <leafValues>
            -5.9560441970825195e-01 4.3598327040672302e-01</leafValues></_>
        <_>
          <internalNodes>
            0 -1 141 545282128 1461334289 1627476165 1971601425
            -1031762482 -125124342 -1726971734 -539565169</internalNodes>
          <leafValues>
            -4.7110435366630554e-01 4.4698384404182434e-01</leafValues></_>
        <_>
          <internalNodes>
            0 -1 144 -593401432 -1255079654 -1811312231 287404103
            1086390440 1476543002 1510017209 1069767419</internalNodes>
          <leafValues>
            -6.5534317493438721e-01 3.3609798550605774e-01</leafValues></_>
        <_>
          <internalNodes>
            0 -1 217 1661930138 369299719 268730452 20990432 18514924
            704643200 -931036854 65528203</internalNodes>
          <leafValues>
            -5.2692306041717529e-01 3.9492771029472351e-01</leafValues></_>
        <_>
          <internalNodes>
            0 -1 61 953626736 1254889540 -1070350126 -1337026183
            1661721122 -519520118 -2004867225 -152315085</internalNodes>
          <leafValues>
            -6.5246474742889404e-01 3.2300874590873718e-01</leafValues></_>
        <_>
          <internalNodes>
            0 -1 7 -506727949 17559226 1710477043 129234481 1433741275
            1441529695 2012606455 -543033425</internalNodes>
          <leafValues>
            -4.2622607946395874e-01 5.4059827327728271e-01</leafValues></_>
        <_>
          <internalNodes>
            0 -1 93 2143287293 -538452102 -1073741955 -237056410
            -8388836 -16922793 -100698372 -1624475912</internalNodes>
          <leafValues>
            -3.7961366772651672e-01 5.9387809038162231e-01</leafValues></_>
        <_>
          <internalNodes>
            0 -1 153 -1253915694 827412496 118159 420839425 402656416
            1015156736 675289246 1591036290</internalNodes>
          <leafValues>
            -4.8628968000411987e-01 4.7362545132637024e-01</leafValues></_>
        <_>
          <internalNodes>
            0 -1 56 -474487414 -1589542912 172052 -116191230 1262489633
            -795836414 1888839718 -68182013</internalNodes>
          <leafValues>
            -5.2332115173339844e-01 4.6145448088645935e-01</leafValues></_></weakClassifiers></_>
    <!-- stage 9 -->
    <_>
      <maxWeakCount>9</maxWeakCount>
      <stageThreshold>-6.5841913223266602e-01</stageThreshold>
      <weakClassifiers>
        <_>
          <internalNodes>
            0 -1 165 1442679043 58150412 -264246012 -589833 1585287119
            -805445681 1507850177 -1107822661</internalNodes>
          <leafValues>
            -3.2520323991775513e-01 5.3728067874908447e-01</leafValues></_>
        <_>
          <internalNodes>
            0 -1 65 -1935484232 -1079330318 1031567347 1207022973
            905559628 -1115783180 895774684 -34212417</internalNodes>
          <leafValues>
            -4.2806723713874817e-01 4.6673136949539185e-01</leafValues></_>
        <_>
          <internalNodes>
            0 -1 163 -871047784 -1977875954 1208111361 -698814262
            1535412672 302786696 1266725325 -1852850019</internalNodes>
          <leafValues>
            -5.3050243854522705e-01 3.6930185556411743e-01</leafValues></_>
        <_>
          <internalNodes>
            0 -1 67 -1639543506 -570162470 1212223804 -740851517
            847499753 -2147188576 1367853579 1369645707</internalNodes>
          <leafValues>
            -4.9970847368240356e-01 4.1686269640922546e-01</leafValues></_>
        <_>
          <internalNodes>
            0 -1 198 1400081354 806955919 -1996027246 1411088546
            168104336 1883276312 -444544852 -187714533</internalNodes>
          <leafValues>
            -5.2942901849746704e-01 4.1146081686019897e-01</leafValues></_>
        <_>
          <internalNodes>
            0 -1 168 1823693946 1495418108 -362523179 1001588313
            -1695659780 -1624793991 145244639 -933669601</internalNodes>
          <leafValues>
            -4.1189432144165039e-01 5.3208589553833008e-01</leafValues></_>
        <_>
          <internalNodes>
            0 -1 160 -1782312872 68426840 18624 1268271114 33556652
            -394164206 998278187 -575067462</internalNodes>
          <leafValues>
            -5.3360116481781006e-01 4.3685889244079590e-01</leafValues></_>
        <_>
          <internalNodes>
            0 -1 22 -140005617 2112876462 -1358954753 -257560594
            121490987 2088763263 -2068363673 -194119825</internalNodes>
          <leafValues>
            -4.5769473910331726e-01 5.0173884630203247e-01</leafValues></_>
        <_>
          <internalNodes>
            0 -1 233 -740846904 -536018939 17842432 -1036976047
            -268147673 151159296 16875682 -1013986161</internalNodes>
          <leafValues>
            -5.5883896350860596e-01 4.5148718357086182e-01</leafValues></_></weakClassifiers></_>
    <!-- stage 10 -->
    <_>
      <maxWeakCount>10</maxWeakCount>
      <stageThreshold>-1.2474709749221802e+00</stageThreshold>
      <weakClassifiers>
        <_>
          <internalNodes>
            0 -1 164 1336929391 777519103 -16793649 577416959 394475366
            1878392703 1560173943 -16777353</internalNodes>
          <leafValues>
            -4.2028984427452087e-01 4.9659863114356995e-01</leafValues></_>
        <_>
          <internalNodes>
            0 -1 1 122676194 -721123318 4296735 -473579520 550701075
            -402620285 -1601600754 -413674717</internalNodes>
          <leafValues>
            -4.2178314924240112e-01 4.5757597684860229e-01</leafValues></_>
        <_>
          <internalNodes>
            0 -1 101 1075534048 1137693405 269032659 -666401530
            1883799618 -645791743 36176019 -1550599973</internalNodes>
          <leafValues>
            -5.6704711914062500e-01 3.7327754497528076e-01</leafValues></_>
        <_>
          <internalNodes>
            0 -1 209 1419356842 1074450752 -1878892160 805542239
            -1828615679 537428096 343966705 1199831763</internalNodes>
          <leafValues>
            -6.4128750562667847e-01 3.4084567427635193e-01</leafValues></_>
        <_>
          <internalNodes>
            0 -1 155 -10006309 -1691290989 553310067 2069748817
            -461616950 -830551111 -1436707125 -884025701</internalNodes>
          <leafValues>
            -3.1766128540039062e-01 7.3738771677017212e-01</leafValues></_>
        <_>
          <internalNodes>
            0 -1 85 -1547085054 -1189903979 -2021638127 265376913
            -1065326429 1031997569 1225334366 860059279</internalNodes>
          <leafValues>
            -6.6288262605667114e-01 3.4115573763847351e-01</leafValues></_>
        <_>
          <internalNodes>
            0 -1 57 1115837040 -247922624 16810997 -654206909
            -2012069832 -1979709928 -959835463 -620197239</internalNodes>
          <leafValues>
            -5.3792321681976318e-01 4.4919487833976746e-01</leafValues></_>
        <_>
          <internalNodes>
            0 -1 15 -372574202 -800915426 -2113814506 605169678
            1476595754 -394035200 1242153101 -62395964</internalNodes>
          <leafValues>
            -5.3659152984619141e-01 4.2717629671096802e-01</leafValues></_>
        <_>
          <internalNodes>
            0 -1 232 -800598522 1560371402 1078013954 6443268
            -1879046070 268961928 -1979546984 2028464523</internalNodes>
          <leafValues>
            -4.9331524968147278e-01 4.9314090609550476e-01</leafValues></_>
        <_>
          <internalNodes>
            0 -1 19 -741345890 1833500929 1350634044 344413189 841732139
            58937856 139517995 -578559869</internalNodes>
          <leafValues>
            -4.8511770367622375e-01 5.0270015001296997e-01</leafValues></_></weakClassifiers></_>
    <!-- stage 11 -->
    <_>
      <maxWeakCount>8</maxWeakCount>
      <stageThreshold>-1.2419735193252563e+00</stageThreshold>
      <weakClassifiers>
        <_>
          <internalNodes>
            0 -1 134 -306188729 2143239295 -1358992281 586153791
            1877966830 2147450735 423478 988500311</internalNodes>
          <leafValues>
            -4.1407528519630432e-01 4.8411935567855835e-01</leafValues></_>
        <_>
          <internalNodes>
            0 -1 52 -1047423009 -821034607 1224905200 -601718346
            537428325 -401014656 42525441 -708593639</internalNodes>
          <leafValues>
            -5.8283555507659912e-01 3.6061599850654602e-01</leafValues></_>
        <_>
          <internalNodes>
            0 -1 125 1288226904 1426063993 268452125 832995405 159465497
            -175996790 1208503199 -739520353</internalNodes>
          <leafValues>
            -4.4992625713348389e-01 4.3061909079551697e-01</leafValues></_>
        <_>
          <internalNodes>
            0 -1 87 292542480 79715713 -904670075 713621785 -1434149810
            -704069494 50901648 1493934850</internalNodes>
          <leafValues>
            -5.8496898412704468e-01 3.6376523971557617e-01</leafValues></_>
        <_>
          <internalNodes>
            0 -1 115 1350733970 -708640767 1157648661 1099055129
            -2046131529 -2138957789 548458767 -533773397</internalNodes>
          <leafValues>
            -4.6361473202705383e-01 4.6619600057601929e-01</leafValues></_>
        <_>
          <internalNodes>
            0 -1 45 -2116819826 -604827391 673251336 -90881974 603980358
            33718922 -1333548773 -677699325</internalNodes>
          <leafValues>
            -5.1029354333877563e-01 4.3068653345108032e-01</leafValues></_>
        <_>
          <internalNodes>
            0 -1 210 1447293434 805732550 269288450 822378898 1350667146
            1208656001 1342412068 1024964782</internalNodes>
          <leafValues>
            -5.6677830219268799e-01 3.9650294184684753e-01</leafValues></_>
        <_>
          <internalNodes>
            0 -1 27 -104279890 -723607426 1081408 -624787069 -726007349
            -618627068 -2013085557 -348929413</internalNodes>
          <leafValues>
            -5.2247643470764160e-01 4.2495366930961609e-01</leafValues></_></weakClassifiers></_>
    <!-- stage 12 -->
    <_>
      <maxWeakCount>9</maxWeakCount>
      <stageThreshold>-9.1487711668014526e-01</stageThreshold>
      <weakClassifiers>
        <_>
          <internalNodes>
            0 -1 135 -211859550 45468743 1906288465 -1208225857
            2147306638 -1621139590 -478706009 -537395201</internalNodes>
          <leafValues>
            -3.6577707529067993e-01 4.7680157423019409e-01</leafValues></_>
        <_>
          <internalNodes>
            0 -1 150 -5252161 1048530815 1874833133 842219385 1878947135
            805306335 1459500406 -654641225</internalNodes>
          <leafValues>
            -3.6435455083847046e-01 4.9811115860939026e-01</leafValues></_>
        <_>
          <internalNodes>
            0 -1 5 -1943540022 1816382310 536771757 1560145530
            1325235637 -1745223709 117186071 -1006638489</internalNodes>
          <leafValues>
            -4.0476080775260925e-01 4.6532350778579712e-01</leafValues></_>
        <_>
          <internalNodes>
            0 -1 177 -1064806320 1094852827 -1055833383 902299804
            -1434418040 -1737684846 -2012680053 -69347301</internalNodes>
          <leafValues>
            -4.3210974335670471e-01 4.4346165657043457e-01</leafValues></_>
        <_>
          <internalNodes>
            0 -1 194 811549787 1460338962 328477 231088400 -1010818882
            964952073 -1979676451 -909440023</internalNodes>
          <leafValues>
            -4.6116507053375244e-01 4.2529609799385071e-01</leafValues></_>
        <_>
          <internalNodes>
            0 -1 139 -543039982 -537587999 384327483 -1857372169
            1811645578 -872417394 681762111 -1055862474</internalNodes>
          <leafValues>
            -3.7280738353729248e-01 5.6092625856399536e-01</leafValues></_>
        <_>
          <internalNodes>
            0 -1 96 1087105003 128560267 1274636215 -580408003
            -1778553426 -277971459 218043518 -973634393</internalNodes>
          <leafValues>
            -4.1469922661781311e-01 5.1203191280364990e-01</leafValues></_>
        <_>
          <internalNodes>
            0 -1 218 1490808458 846823260 1731952630 2029125334
            796773512 1465384788 -536897582 -33620737</internalNodes>
          <leafValues>
            -3.4692060947418213e-01 5.8806979656219482e-01</leafValues></_>
        <_>
          <internalNodes>
            0 -1 175 -772554020 -186157743 959935609 2098527585
            -1460678661 -89703650 910061035 -1103147859</internalNodes>
          <leafValues>
            -3.4378820657730103e-01 6.2593924999237061e-01</leafValues></_></weakClassifiers></_>
    <!-- stage 13 -->
    <_>
      <maxWeakCount>7</maxWeakCount>
      <stageThreshold>-1.1931817531585693e+00</stageThreshold>
      <weakClassifiers>
        <_>
          <internalNodes>
            0 -1 148 1809783679 1870364663 -1359221123 721153957
            1744828355 1736409085 1862231927 -83951647</internalNodes>
          <leafValues>
            -3.2356533408164978e-01 6.1973524093627930e-01</leafValues></_>
        <_>
          <internalNodes>
            0 -1 13 -268181493 1124690461 -669994852 -64929375
            1879461901 2048950528 -1441578869 1927913999</internalNodes>
          <leafValues>
            -4.1739198565483093e-01 5.1325911283493042e-01</leafValues></_>
        <_>
          <internalNodes>
            0 -1 123 -41281 469139307 1056962366 1442742205 -1354793201
            -579354755 225828637 -861415296</internalNodes>
          <leafValues>
            -4.0166282653808594e-01 5.6910514831542969e-01</leafValues></_>
        <_>
          <internalNodes>
            0 -1 183 1364284197 1376846146 606225 1427161136 -1853700088
            -929021935 -2008514052 944885979</internalNodes>
          <leafValues>
            -5.2414089441299438e-01 4.5590540766716003e-01</leafValues></_>
        <_>
          <internalNodes>
            0 -1 11 1612120810 -1056468205 168854040 -301758078
            1242260046 2106179609 805313379 -523638495</internalNodes>
          <leafValues>
            -5.7760441303253174e-01 4.5540624856948853e-01</leafValues></_>
        <_>
          <internalNodes>
            0 -1 37 1126929045 1370205499 -2110753162 -578978265
            125687773 74842011 1375041501 -815879329</internalNodes>
          <leafValues>
            -4.0818139910697937e-01 6.4730221033096313e-01</leafValues></_>
        <_>
          <internalNodes>
            0 -1 213 -209264582 -1589624381 1246721 327237773 41986506
            8521729 562203570 1901048142</internalNodes>
          <leafValues>
            -5.5369186401367188e-01 4.6714541316032410e-01</leafValues></_></weakClassifiers></_>
    <!-- stage 14 -->
    <_>
      <maxWeakCount>10</maxWeakCount>
      <stageThreshold>-9.6188259124755859e-01</stageThreshold>
      <weakClassifiers>
        <_>
          <internalNodes>
            0 -1 149 1321161455 107728879 -1090519113 176085879
            805253926 805240693 1728020087 -285278217</internalNodes>
          <leafValues>
            -4.5072698593139648e-01 5.1309406757354736e-01</leafValues></_>
        <_>
          <internalNodes>
            0 -1 116 -793783806 1358954629 100665543 -208071971
            -1379360665 -267771768 -2105326729 -824244034</internalNodes>
          <leafValues>
            -4.8340645432472229e-01 4.7437673807144165e-01</leafValues></_>
        <_>
          <internalNodes>
            0 -1 62 -621095237 -966033682 1718095102 1760288487
            561944423 524182635 1306506966 -621544449</internalNodes>
          <leafValues>
            -4.2895880341529846e-01 5.3389966487884521e-01</leafValues></_>
        <_>
          <internalNodes>
            0 -1 128 -5506661 -874332440 1064679159 -1779339440
            -151065528 -1073924489 754774206 -598353945</internalNodes>
          <leafValues>
            -3.8457682728767395e-01 6.1533355712890625e-01</leafValues></_>
        <_>
          <internalNodes>
            0 -1 228 -78811126 681693441 -1877868512 -1953644279
            1216471178 -1056858112 -1735290543 -135269957</internalNodes>
          <leafValues>
            -4.6520459651947021e-01 5.3823846578598022e-01</leafValues></_>
        <_>
          <internalNodes>
            0 -1 158 246823223 -1150865554 -1360069003 2120691567
            -1610842147 637501439 -1610682754 -1338282121</internalNodes>
          <leafValues>
            -4.7680708765983582e-01 5.5293554067611694e-01</leafValues></_>
        <_>
          <internalNodes>
            0 -1 31 -953100566 2013204457 -1795752002 -1053567151
            1131683619 174529877 -1502191780 987749535</internalNodes>
          <leafValues>
            -4.7557806968688965e-01 5.4722714424133301e-01</leafValues></_>
        <_>
          <internalNodes>
            0 -1 207 -1001972736 273176710 1073938770 34721938
            -2000678783 1795295752 4972995 153602282</internalNodes>
          <leafValues>
            -6.0274416208267212e-01 4.2726475000381470e-01</leafValues></_>
        <_>
          <internalNodes>
            0 -1 190 2026364627 743440386 -2147446749 -183913471 73813
            -2105016309 446202465 -738055553</internalNodes>
          <leafValues>
            -5.2930545806884766e-01 4.9999928474426270e-01</leafValues></_>
        <_>
          <internalNodes>
            0 -1 231 2019504208 1162969088 8 189943814 -1681268672
            -2080272348 -385799864 -590354030</internalNodes>
          <leafValues>
            -5.7184201478958130e-01 4.7330242395401001e-01</leafValues></_></weakClassifiers></_>
    <!-- stage 15 -->
    <_>
      <maxWeakCount>8</maxWeakCount>
      <stageThreshold>-1.0198730230331421e+00</stageThreshold>
      <weakClassifiers>
        <_>
          <internalNodes>
            0 -1 133 1137148035 -1978994721 1195365169 -541065289
            1329515854 1320673279 -1610618909 -809500675</internalNodes>
          <leafValues>
            -2.9988053441047668e-01 6.1623615026473999e-01</leafValues></_>
        <_>
          <internalNodes>
            0 -1 10 1313818814 -502804345 1079066753 1631752213
            1342932995 805962113 -1056866173 1579213711</internalNodes>
          <leafValues>
            -4.4364240765571594e-01 4.7967031598091125e-01</leafValues></_>
        <_>
          <internalNodes>
            0 -1 35 1087488203 -2125381510 83891211 17661953 847278113
            -1928298368 278176010 522413225</internalNodes>
          <leafValues>
            -5.2126693725585938e-01 4.0982857346534729e-01</leafValues></_>
        <_>
          <internalNodes>
            0 -1 206 -949665230 411851009 1359026242 259102859 13279438
            822313088 1074299275 -1080315198</internalNodes>
          <leafValues>
            -4.7029110789299011e-01 4.8384651541709900e-01</leafValues></_>
        <_>
          <internalNodes>
            0 -1 44 -448282070 1833080981 103092 -1774169906 180488198
            1208189185 1762242563 -212881405</internalNodes>
          <leafValues>
            -5.6061458587646484e-01 4.1156041622161865e-01</leafValues></_>
        <_>
          <internalNodes>
            0 -1 189 -553127164 1229063042 -1794883245 84099363
            1895858184 1216905219 268435587 197775547</internalNodes>
          <leafValues>
            -6.1021351814270020e-01 4.0998420119285583e-01</leafValues></_>
        <_>
          <internalNodes>
            0 -1 76 595846627 -620624894 352387089 -1609494400
            -2146326067 -1979187200 25528715 346128541</internalNodes>
          <leafValues>
            -4.6674960851669312e-01 5.6453794240951538e-01</leafValues></_>
        <_>
          <internalNodes>
            0 -1 238 -908599090 29737185 402657568 165579025 16917027
            1476395010 164531 -991001909</internalNodes>
          <leafValues>
            -4.9953445792198181e-01 4.9837744235992432e-01</leafValues></_></weakClassifiers></_>
    <!-- stage 16 -->
    <_>
      <maxWeakCount>8</maxWeakCount>
      <stageThreshold>-7.0574021339416504e-01</stageThreshold>
      <weakClassifiers>
        <_>
          <internalNodes>
            0 -1 145 -2030074289 620707646 -17827973 712077175 268399967
            2147409918 1472100163 -222627977</internalNodes>
          <leafValues>
            -3.8769230246543884e-01 5.0199997425079346e-01</leafValues></_>
        <_>
          <internalNodes>
            0 -1 167 -443963392 2040082434 16777477 1090585041
            -1071644622 -1182793598 164483 -339584933</internalNodes>
          <leafValues>
            -5.3996843099594116e-01 3.7615269422531128e-01</leafValues></_>
        <_>
          <internalNodes>
            0 -1 197 1614666063 935018029 1627070208 1976433663
            1853866200 936738258 -1057731462 -3539237</internalNodes>
          <leafValues>
            -3.6272063851356506e-01 6.1822509765625000e-01</leafValues></_>
        <_>
          <internalNodes>
            0 -1 202 2069125898 2062282739 2063466101 523234684
            788361610 -2004910145 -1191183842 -5521670</internalNodes>
          <leafValues>
            -3.7069329619407654e-01 5.6769484281539917e-01</leafValues></_>
        <_>
          <internalNodes>
            0 -1 51 -1811627374 -888864469 83922345 -905891823
            -1728053229 -368965111 302033050 -1500299189</internalNodes>
          <leafValues>
            -5.0860756635665894e-01 4.6443733572959900e-01</leafValues></_>
        <_>
          <internalNodes>
            0 -1 94 -851455249 -675348233 -1082152129 -674734981
            -148716117 -1073769090 774364072 -609857859</internalNodes>
          <leafValues>
            -3.3120238780975342e-01 7.2216522693634033e-01</leafValues></_>
        <_>
          <internalNodes>
            0 -1 222 1592751413 1378838772 -1342210081 463957759
            527957211 -1260519684 -1119898130 452513128</internalNodes>
          <leafValues>
            -4.3762260675430298e-01 5.2035909891128540e-01</leafValues></_>
        <_>
          <internalNodes>
            0 -1 102 1493291393 -788463402 35929 -469581821 16941232
            -502497151 1208527036 1447596048</internalNodes>
          <leafValues>
            -5.1143449544906616e-01 5.0891196727752686e-01</leafValues></_></weakClassifiers></_>
    <!-- stage 17 -->
    <_>
      <maxWeakCount>8</maxWeakCount>
      <stageThreshold>-9.8705399036407471e-01</stageThreshold>
      <weakClassifiers>
        <_>
          <internalNodes>
            0 -1 72 -2002071304 -303370766 -44810243 -35086350
            -1184172452 1065353212 -462107464 -313401380</internalNodes>
          <leafValues>
            -3.2169577479362488e-01 5.9905660152435303e-01</leafValues></_>
        <_>
          <internalNodes>
            0 -1 200 -217214349 1146177792 268501008 84512794 745013770
            -1467481598 155190784 1426709935</internalNodes>
          <leafValues>
            -5.3264909982681274e-01 4.1534587740898132e-01</leafValues></_>
        <_>
          <internalNodes>
            0 -1 229 12915201 84084962 -2013233152 152732161 -666090101
            -243269630 605870165 -1450972469</internalNodes>
          <leafValues>
            -5.1091349124908447e-01 4.3387708067893982e-01</leafValues></_>
        <_>
          <internalNodes>
            0 -1 173 1277189392 -2126380860 1157728267 -922117880
            -1879039862 -519372757 -1862268710 -668893043</internalNodes>
          <leafValues>
            -4.8815146088600159e-01 4.6605789661407471e-01</leafValues></_>
        <_>
          <internalNodes>
            0 -1 146 -214906629 2130310256 1593568819 -449853827
            1145962682 212952818 1273985275 -663538393</internalNodes>
          <leafValues>
            -4.1859355568885803e-01 5.6901484727859497e-01</leafValues></_>
        <_>
          <internalNodes>
            0 -1 71 -1870461228 -771698351 396 -41905711 32776
            1210695817 -1069367272 -349558756</internalNodes>
          <leafValues>
            -5.0325286388397217e-01 4.8620411753654480e-01</leafValues></_>
        <_>
          <internalNodes>
            0 -1 140 -290143582 1618017480 -1884881808 2023477231
            -679477936 -159973794 -289506273 -641737378</internalNodes>
          <leafValues>
            -4.9014586210250854e-01 5.0871628522872925e-01</leafValues></_>
        <_>
          <internalNodes>
            0 -1 106 1360526288 -1547599872 1476493368 290541568
            -1199511546 -1476361840 -1879048056 1912995858</internalNodes>
          <leafValues>
            -5.4460859298706055e-01 5.0977295637130737e-01</leafValues></_></weakClassifiers></_>
    <!-- stage 18 -->
    <_>
      <maxWeakCount>8</maxWeakCount>
      <stageThreshold>-8.6232227087020874e-01</stageThreshold>
      <weakClassifiers>
        <_>
          <internalNodes>
            0 -1 192 -578528936 -8361092 -537100355 1736212244
            -1091117350 -1075871754 246464216 957939693</internalNodes>
          <leafValues>
            -3.1143552064895630e-01 6.1111110448837280e-01</leafValues></_>
        <_>
          <internalNodes>
            0 -1 54 167851274 1239614593 102892689 1414631872 16781993
            495517824 1157628557 -274882423</internalNodes>
          <leafValues>
            -4.9285775423049927e-01 4.5608997344970703e-01</leafValues></_>
        <_>
          <internalNodes>
            0 -1 219 -33954087 1715437563 788446992 994017265
            -1101048392 -1363185848 1381873537 1478098751</internalNodes>
          <leafValues>
            -4.5585423707962036e-01 4.9894541501998901e-01</leafValues></_>
        <_>
          <internalNodes>
            0 -1 129 -2146744240 -796831595 268599296 -248459228
            1078005903 -2139045878 8655008 1085870084</internalNodes>
          <leafValues>
            -7.1968275308609009e-01 3.3340796828269958e-01</leafValues></_>
        <_>
          <internalNodes>
            0 -1 95 -236194305 -617616400 -1074823699 -744459744
            -1661485828 -1118404729 1324893436 482867063</internalNodes>
          <leafValues>
            -3.4010553359985352e-01 7.4824386835098267e-01</leafValues></_>
        <_>
          <internalNodes>
            0 -1 38 -242595208 1694716690 3162306 1426359299 -536153240
            1074823168 -1333624309 1928258105</internalNodes>
          <leafValues>
            -5.6097000837326050e-01 4.6802070736885071e-01</leafValues></_>
        <_>
          <internalNodes>
            0 -1 201 -268484645 1760177147 -805339393 1731968765
            1333100255 1325248510 1744747851 -560011970</internalNodes>
          <leafValues>
            -3.9893749356269836e-01 6.5086758136749268e-01</leafValues></_>
        <_>
          <internalNodes>
            0 -1 179 -787281912 1359283201 1359053978 822575425
            -1809776178 -1189052408 -1434400566 1879915267</internalNodes>
          <leafValues>
            -4.8783302307128906e-01 5.4017478227615356e-01</leafValues></_></weakClassifiers></_>
    <!-- stage 19 -->
    <_>
      <maxWeakCount>8</maxWeakCount>
      <stageThreshold>-9.0937095880508423e-01</stageThreshold>
      <weakClassifiers>
        <_>
          <internalNodes>
            0 -1 106 -2098945 -135532880 712434419 670111520 -293766950
            -1662519329 169667242 36664948</internalNodes>
          <leafValues>
            -2.1255061030387878e-01 6.9486403465270996e-01</leafValues></_>
        <_>
          <internalNodes>
            0 -1 16 -1892942289 1336901135 -488218907 251326446
            1024204559 2147483447 1777857883 -144253953</internalNodes>
          <leafValues>
            -4.3328288197517395e-01 4.8355439305305481e-01</leafValues></_>
        <_>
          <internalNodes>
            0 -1 3 556485160 -1325006845 1090584841 117916048 294133776
            -75464680 1916959210 1540696805</internalNodes>
          <leafValues>
            -6.1150109767913818e-01 3.8106861710548401e-01</leafValues></_>
        <_>
          <internalNodes>
            0 -1 91 -1073499766 218104193 1897943389 -1836838887
            -1845452773 -618987390 1744863269 -2029550045</internalNodes>
          <leafValues>
            -5.6781452894210815e-01 3.8622128963470459e-01</leafValues></_>
        <_>
          <internalNodes>
            0 -1 17 1843905774 -806359561 1325325647 1870065399
            788004822 2004737661 1969112823 -46530706</internalNodes>
          <leafValues>
            -4.2448145151138306e-01 5.9176629781723022e-01</leafValues></_>
        <_>
          <internalNodes>
            0 -1 186 1292289450 9568578 -1140621310 1648447623
            1485385934 621592594 -2013245286 -503191071</internalNodes>
          <leafValues>
            -5.0555139780044556e-01 5.0618934631347656e-01</leafValues></_>
        <_>
          <internalNodes>
            0 -1 208 1882955306 144687120 1140949253 1426934478
            269410330 1611399176 -2013216635 -854753083</internalNodes>
          <leafValues>
            -5.2052724361419678e-01 4.9232062697410583e-01</leafValues></_>
        <_>
          <internalNodes>
            0 -1 107 -1872813913 285560844 -1006485187 554008603
            -1602158543 546324616 161554921 1506452459</internalNodes>
          <leafValues>
            -4.8768192529678345e-01 5.3931301832199097e-01</leafValues></_></weakClassifiers></_>
    <!-- stage 20 -->
    <_>
      <maxWeakCount>9</maxWeakCount>
      <stageThreshold>-4.8070469498634338e-01</stageThreshold>
      <weakClassifiers>
        <_>
          <internalNodes>
            0 -1 104 17252386 -838898574 -201759141 -713296643
            -717654699 1275064059 1677549534 -1043216213</internalNodes>
          <leafValues>
            -4.4736841320991516e-01 5.0095969438552856e-01</leafValues></_>
        <_>
          <internalNodes>
            0 -1 2 229305007 -806622226 -1073860621 -144732346 196556639
            -16393 -1908934657 -403213290</internalNodes>
          <leafValues>
            -3.9750874042510986e-01 5.3310859203338623e-01</leafValues></_>
        <_>
          <internalNodes>
            0 -1 196 1242586713 -778927973 -1794161269 -1156397039
            -1977403204 -477101815 -2013249318 143966865</internalNodes>
          <leafValues>
            -4.4513791799545288e-01 4.9032300710678101e-01</leafValues></_>
        <_>
          <internalNodes>
            0 -1 63 -1150552386 -1745654098 -1481873666 -1955151957
            792211326 771439996 1190485237 -634064905</internalNodes>
          <leafValues>
            -4.5445621013641357e-01 4.9580407142639160e-01</leafValues></_>
        <_>
          <internalNodes>
            0 -1 9 -2124050865 -167591295 -2139095032 -1801435000
            -1073387958 1505820672 1628258835 1507148554</internalNodes>
          <leafValues>
            -5.0972950458526611e-01 4.5972707867622375e-01</leafValues></_>
        <_>
          <internalNodes>
            0 -1 25 -453860721 -1978978236 -385810323 -1576075191
            10731609 191168521 159490690 924963416</internalNodes>
          <leafValues>
            -6.1045891046524048e-01 4.3187528848648071e-01</leafValues></_>
        <_>
          <internalNodes>
            0 -1 147 -854915456 1085407360 -2146418279 -578441147
            336070842 -1593835390 -2075015993 1360785103</internalNodes>
          <leafValues>
            -6.3081979751586914e-01 3.9446592330932617e-01</leafValues></_>
        <_>
          <internalNodes>
            0 -1 152 -1725060612 352468836 -1350586573 2134863797
            170667724 -550043785 -1662740673 -1917479850</internalNodes>
          <leafValues>
            -4.8996129631996155e-01 5.3657716512680054e-01</leafValues></_>
        <_>
          <internalNodes>
            0 -1 114 -79972199 -1836847437 -1170707672 1397205720
            -1703772114 -73634195 -1838359285 -606108665</internalNodes>
          <leafValues>
            -3.3495599031448364e-01 7.6959878206253052e-01</leafValues></_></weakClassifiers></_>
    <!-- stage 21 -->
    <_>
      <maxWeakCount>7</maxWeakCount>
      <stageThreshold>-7.3755735158920288e-01</stageThreshold>
      <weakClassifiers>
        <_>
          <internalNodes>
            0 -1 136 -686105966 454199923 871325328 1978400315
            1526614742 530894527 -27435048 -19006347</internalNodes>
          <leafValues>
            -3.1639134883880615e-01 5.7821553945541382e-01</leafValues></_>
        <_>
          <internalNodes>
            0 -1 74 17432763 -1760186352 21317901 1545687253 -534207320
            -1726410584 35743 245449605</internalNodes>
          <leafValues>
            -4.8152139782905579e-01 4.6769940853118896e-01</leafValues></_>
        <_>
          <internalNodes>
            0 -1 154 -533267308 438457329 -1146345477 958653681
            -1971582822 59985812 1132008671 -1157392952</internalNodes>
          <leafValues>
            -4.2079254984855652e-01 5.4337334632873535e-01</leafValues></_>
        <_>
          <internalNodes>
            0 -1 182 -477605592 -1995866086 83886495 490537026 268862123
            -1205763966 780274203 1887969417</internalNodes>
          <leafValues>
            -5.0481486320495605e-01 4.6172872185707092e-01</leafValues></_>
        <_>
          <internalNodes>
            0 -1 215 1437801031 152290580 -2147483575 1384218753
            813998104 1249902729 1208535210 816576527</internalNodes>
          <leafValues>
            -5.4671508073806763e-01 4.4381660223007202e-01</leafValues></_>
        <_>
          <internalNodes>
            0 -1 119 -2141798224 -933953534 1073905987 -2012610232
            -1861976029 1350729885 134758532 -1924036179</internalNodes>
          <leafValues>
            -6.5011423826217651e-01 3.7066784501075745e-01</leafValues></_>
        <_>
          <internalNodes>
            0 -1 69 -1609252734 -263503742 1157640460 1971322896
            1082278075 1250984066 58727098 1770053643</internalNodes>
          <leafValues>
            -6.2757915258407593e-01 4.2572164535522461e-01</leafValues></_></weakClassifiers></_>
    <!-- stage 22 -->
    <_>
      <maxWeakCount>10</maxWeakCount>
      <stageThreshold>-1.0091037750244141e+00</stageThreshold>
      <weakClassifiers>
        <_>
          <internalNodes>
            0 -1 225 2113918502 654308207 -1107384830 -1439236122
            1870618184 -545360185 -687865857 -92275714</internalNodes>
          <leafValues>
            -4.1411042213439941e-01 5.2104210853576660e-01</leafValues></_>
        <_>
          <internalNodes>
            0 -1 181 -189746404 4268064 -2080272191 -1995898869
            1359033016 -1064599424 -2013081592 411668649</internalNodes>
          <leafValues>
            -5.4671049118041992e-01 4.0343078970909119e-01</leafValues></_>
        <_>
          <internalNodes>
            0 -1 33 -1962878734 1493172610 167773205 1224769797
            1535255265 -1970798560 1224736909 -1675259721</internalNodes>
          <leafValues>
            -4.8652774095535278e-01 4.6876704692840576e-01</leafValues></_>
        <_>
          <internalNodes>
            0 -1 111 -684473670 289315830 -1481996920 2046784483
            1465730722 -523796993 533464822 -998049923</internalNodes>
          <leafValues>
            -4.1510218381881714e-01 5.7384371757507324e-01</leafValues></_>
        <_>
          <internalNodes>
            0 -1 166 -651720304 809275392 9437484 -1941471095 591017
            -393740282 -930496340 -623214455</internalNodes>
          <leafValues>
            -5.2032625675201416e-01 4.8158210515975952e-01</leafValues></_>
        <_>
          <internalNodes>
            0 -1 226 -2058783966 58921608 1073742088 578880132
            1115783310 -637009912 -1073563568 -1916155432</internalNodes>
          <leafValues>
            -5.9784251451492310e-01 4.2710009217262268e-01</leafValues></_>
        <_>
          <internalNodes>
            0 -1 191 1413487128 -2012982825 1157696149 1830879234
            134286510 -1970765816 34990 -703655793</internalNodes>
          <leafValues>
            -4.8868575692176819e-01 5.6307566165924072e-01</leafValues></_>
        <_>
          <internalNodes>
            0 -1 127 1605366738 -341348694 -1158259205 2000644705
            645905486 -318799881 -864133466 -1091289609</internalNodes>
          <leafValues>
            -5.0415921211242676e-01 5.4733091592788696e-01</leafValues></_>
        <_>
          <internalNodes>
            0 -1 142 -1397056432 1348796251 -352878872 690847731
            1602211741 -539009025 2113863679 -1152614532</internalNodes>
          <leafValues>
            -4.3763312697410583e-01 6.3899207115173340e-01</leafValues></_>
        <_>
          <internalNodes>
            0 -1 8 -1792329991 -244584694 -352945425 788295415
            1031754963 1868560343 -41473 -142639617</internalNodes>
          <leafValues>
            -4.6353727579116821e-01 5.8674997091293335e-01</leafValues></_></weakClassifiers></_>
    <!-- stage 23 -->
    <_>
      <maxWeakCount>9</maxWeakCount>
      <stageThreshold>-5.0871312618255615e-01</stageThreshold>
      <weakClassifiers>
        <_>
          <internalNodes>
            0 -1 195 993286224 -394494286 -1216480645 1744387965
            -294748423 -1073741898 -268600481 -1430438884</internalNodes>
          <leafValues>
            -3.2828283309936523e-01 5.9440559148788452e-01</leafValues></_>
        <_>
          <internalNodes>
            0 -1 32 723853970 -537538396 -1107953537 -316309677
            796776057 -1074298881 -1233756369 -311176463</internalNodes>
          <leafValues>
            -4.4475197792053223e-01 5.1693868637084961e-01</leafValues></_>
        <_>
          <internalNodes>
            0 -1 80 -1724579318 873534475 16928920 943980624 -1339981494
            -2147440636 269857050 421161358</internalNodes>
          <leafValues>
            -6.9314044713973999e-01 3.3487811684608459e-01</leafValues></_>
        <_>
          <internalNodes>
            0 -1 89 538309264 -268333056 537510064 1279344643 780197914
            -1727987710 -1820224181 761496768</internalNodes>
          <leafValues>
            -5.3758043050765991e-01 4.9334990978240967e-01</leafValues></_>
        <_>
          <internalNodes>
            0 -1 216 1091649799 155254849 -2147483557 -1122811576
            1250295836 -301907959 1485114078 1921632511</internalNodes>
          <leafValues>
            -5.2260303497314453e-01 5.1045811176300049e-01</leafValues></_>
        <_>
          <internalNodes>
            0 -1 193 -2056527841 1912586107 989788927 1667497982
            2012529386 2055161829 -830554114 2143596454</internalNodes>
          <leafValues>
            -4.2014905810356140e-01 6.4198231697082520e-01</leafValues></_>
        <_>
          <internalNodes>
            0 -1 59 -202388601 2092875307 -268468233 1475833378
            1189072621 209701631 1576474546 -36218061</internalNodes>
          <leafValues>
            -4.1880941390991211e-01 6.3728833198547363e-01</leafValues></_>
        <_>
          <internalNodes>
            0 -1 55 1079085634 272835600 269631824 891093297 8820863
            470288532 -2092922665 -830367345</internalNodes>
          <leafValues>
            -5.7049781084060669e-01 5.2668309211730957e-01</leafValues></_>
        <_>
          <internalNodes>
            0 -1 212 -242224883 1218900568 131083 1661965000 -2147378612
            16924688 -1073628524 -784439790</internalNodes>
          <leafValues>
            -5.1622611284255981e-01 5.3079521656036377e-01</leafValues></_></weakClassifiers></_>
    <!-- stage 24 -->
    <_>
      <maxWeakCount>8</maxWeakCount>
      <stageThreshold>-1.1099028587341309e+00</stageThreshold>
      <weakClassifiers>
        <_>
          <internalNodes>
            0 -1 124 731928664 -134512971 1073510397 1068974068
            -1627726636 -8454275 520015359 -432523268</internalNodes>
          <leafValues>
            -3.7969401478767395e-01 5.6176155805587769e-01</leafValues></_>
        <_>
          <internalNodes>
            0 -1 18 -2147429680 -1605987895 1073783188 239075398
            -1073194700 -536739582 -2071920291 -903839613</internalNodes>
          <leafValues>
            -6.5217602252960205e-01 3.9906594157218933e-01</leafValues></_>
        <_>
          <internalNodes>
            0 -1 180 436110671 662404735 -16912657 552072767 2122264078
            524254583 752774827 -1090519691</internalNodes>
          <leafValues>
            -4.7038176655769348e-01 5.8025962114334106e-01</leafValues></_>
        <_>
          <internalNodes>
            0 -1 113 -1874739023 1619397190 8339 814317778 583803
            -1459617128 1350631461 -677242578</internalNodes>
          <leafValues>
            -4.7390183806419373e-01 5.6021487712860107e-01</leafValues></_>
        <_>
          <internalNodes>
            0 -1 178 -82370354 -229556003 16384 101797897 -1325333824
            -2129590143 135152030 37953615</internalNodes>
          <leafValues>
            -6.1918455362319946e-01 4.2417153716087341e-01</leafValues></_>
        <_>
          <internalNodes>
            0 -1 184 1465866957 834137677 889164986 1886715641
            -1233676795 1299705845 -1115886535 -42078274</internalNodes>
          <leafValues>
            -4.5092532038688660e-01 6.3607496023178101e-01</leafValues></_>
        <_>
          <internalNodes>
            0 -1 70 -828135509 -222302617 1050586851 405109283 38793006
            1560199039 1072168821 -707561487</internalNodes>
          <leafValues>
            -4.9710789322853088e-01 5.6807106733322144e-01</leafValues></_>
        <_>
          <internalNodes>
            0 -1 86 138428948 1478524977 150994994 1359257809
            -1862219643 1350565905 408486558 1629683913</internalNodes>
          <leafValues>
            -6.4622926712036133e-01 4.7389727830886841e-01</leafValues></_></weakClassifiers></_>
    <!-- stage 25 -->
    <_>
      <maxWeakCount>8</maxWeakCount>
      <stageThreshold>-8.1256622076034546e-01</stageThreshold>
      <weakClassifiers>
        <_>
          <internalNodes>
            0 -1 221 -553661046 799981550 -360776032 455867930
            -1635767424 -1430978722 1467741314 35125141</internalNodes>
          <leafValues>
            -4.2574256658554077e-01 4.8659002780914307e-01</leafValues></_>
        <_>
          <internalNodes>
            0 -1 53 -1021754630 925395539 1651996602 167039783
            1353752427 -8913105 5371561 -1288505637</internalNodes>
          <leafValues>
            -4.0669971704483032e-01 5.4921853542327881e-01</leafValues></_>
        <_>
          <internalNodes>
            0 -1 75 -72364365 -1890918422 1459563253 -681247024
            -1762148355 -606111883 117194446 -1460338959</internalNodes>
          <leafValues>
            -3.3970668911933899e-01 6.6388618946075439e-01</leafValues></_>
        <_>
          <internalNodes>
            0 -1 26 1233120198 -268548103 -268536091 1777413298
            1744796538 1459117635 1702304882 -975576390</internalNodes>
          <leafValues>
            -3.9051517844200134e-01 6.0312330722808838e-01</leafValues></_>
        <_>
          <internalNodes>
            0 -1 68 323039758 -2125874650 268474628 1361678604 419440883
            134742155 -1589630870 405668363</internalNodes>
          <leafValues>
            -5.2368897199630737e-01 4.9876561760902405e-01</leafValues></_>
        <_>
          <internalNodes>
            0 -1 223 1959977285 335564935 -788508345 96665614 -469548968
            -972554110 114715 -804838781</internalNodes>
          <leafValues>
            -4.6833759546279907e-01 5.2790117263793945e-01</leafValues></_>
        <_>
          <internalNodes>
            0 -1 36 -497957170 -1073741822 83918852 -1861943296
            268470354 1627619329 687915296 -383155833</internalNodes>
          <leafValues>
            -5.9127783775329590e-01 4.2877852916717529e-01</leafValues></_>
        <_>
          <internalNodes>
            0 -1 157 -805055657 541065601 285282329 1158152452
            1116012614 16781320 25168136 -1979039140</internalNodes>
          <leafValues>
            -5.3108727931976318e-01 5.4074144363403320e-01</leafValues></_></weakClassifiers></_>
    <!-- stage 26 -->
    <_>
      <maxWeakCount>10</maxWeakCount>
      <stageThreshold>-1.6509687900543213e+00</stageThreshold>
      <weakClassifiers>
        <_>
          <internalNodes>
            0 -1 161 -2039766005 964652902 1026764664 289136509
            -1282068983 -536893441 511356602 2071055099</internalNodes>
          <leafValues>
            -3.3972603082656860e-01 5.4130434989929199e-01</leafValues></_>
        <_>
          <internalNodes>
            0 -1 6 -894461386 -267321329 1073742216 -1056898742
            1351626795 679542912 201326986 -611618554</internalNodes>
          <leafValues>
            -4.3877935409545898e-01 4.7541418671607971e-01</leafValues></_>
        <_>
          <internalNodes>
            0 -1 122 -1043148924 486869208 -2130582375 -471705463
            2170921 -922550272 -2139061864 -785960760</internalNodes>
          <leafValues>
            -4.6294069290161133e-01 4.7956690192222595e-01</leafValues></_>
        <_>
          <internalNodes>
            0 -1 230 -2063343057 1831186 268435524 16990272 -503283453
            -2008973174 268634112 1749387786</internalNodes>
          <leafValues>
            -4.5905238389968872e-01 4.8262366652488708e-01</leafValues></_>
        <_>
          <internalNodes>
            0 -1 204 1649871250 134320134 16385 285823235 1304740033
            -1459585023 536871000 726530314</internalNodes>
          <leafValues>
            -5.9276890754699707e-01 4.1485583782196045e-01</leafValues></_>
        <_>
          <internalNodes>
            0 -1 115 -89268206 -17078571 72250861 130251865 -717323522
            -1895858431 796046443 1067082273</internalNodes>
          <leafValues>
            -4.7022905945777893e-01 5.1301276683807373e-01</leafValues></_>
        <_>
          <internalNodes>
            0 -1 29 -285225845 1850719927 1858957051 1845341937
            1316965978 -6285 116506233 -295363220</internalNodes>
          <leafValues>
            -4.1411706805229187e-01 5.5499392747879028e-01</leafValues></_>
        <_>
          <internalNodes>
            0 -1 73 -1415531130 1476034176 1878998887 930971232
            148715121 -294649993 234674943 -1334232975</internalNodes>
          <leafValues>
            -4.5090517401695251e-01 5.2719968557357788e-01</leafValues></_>
        <_>
          <internalNodes>
            0 -1 77 -542170695 -1216404942 1190868650 -538020054
            -1343346766 -805328914 107802550 783253415</internalNodes>
          <leafValues>
            -4.2568820714950562e-01 5.9535050392150879e-01</leafValues></_>
        <_>
          <internalNodes>
            0 -1 234 1610738442 -1845378934 -1073692636 608223489
            -1961689086 -511471612 -1203721533 1135763659</internalNodes>
          <leafValues>
            -5.1600527763366699e-01 5.0622159242630005e-01</leafValues></_></weakClassifiers></_>
    <!-- stage 27 -->
    <_>
      <maxWeakCount>9</maxWeakCount>
      <stageThreshold>-8.1516665220260620e-01</stageThreshold>
      <weakClassifiers>
        <_>
          <internalNodes>
            0 -1 81 -521874430 -1086626544 1811850045 846430207
            -529547142 1979186943 -71601221 -17039502</internalNodes>
          <leafValues>
            -3.7849777936935425e-01 5.2214211225509644e-01</leafValues></_>
        <_>
          <internalNodes>
            0 -1 41 1023608846 -742307776 -973073904 -2029944060
            159383758 671780865 1074004504 2037359174</internalNodes>
          <leafValues>
            -4.9367165565490723e-01 4.0323585271835327e-01</leafValues></_>
        <_>
          <internalNodes>
            0 -1 49 -900708318 -523132783 268513314 139530525 8795422
            -670957432 553648197 -506855397</internalNodes>
          <leafValues>
            -6.4317184686660767e-01 3.1800159811973572e-01</leafValues></_>
        <_>
          <internalNodes>
            0 -1 30 1201029210 -752746026 -2147483646 -1886207934
            1224771629 -1593606135 537561730 -552460286</internalNodes>
          <leafValues>
            -4.9503913521766663e-01 4.3402737379074097e-01</leafValues></_>
        <_>
          <internalNodes>
            0 -1 50 -1030630001 -251441151 -1073672042 -771682287
            -486505689 956956928 1904936074 1373143306</internalNodes>
          <leafValues>
            -4.6756353974342346e-01 4.9089717864990234e-01</leafValues></_>
        <_>
          <internalNodes>
            0 -1 14 1825439886 1615855745 414 135009361 -2097082305
            679477385 -234638565 -637341310</internalNodes>
          <leafValues>
            -5.9366917610168457e-01 3.8804492354393005e-01</leafValues></_>
        <_>
          <internalNodes>
            0 -1 171 -1556512942 -802160378 -1610465145 -1045823487
            419463593 536940682 -2129657697 676004881</internalNodes>
          <leafValues>
            -5.3281456232070923e-01 4.7129583358764648e-01</leafValues></_>
        <_>
          <internalNodes>
            0 -1 137 1218015450 1514275395 1895895176 1564545033
            1224868014 341966848 -1018973311 -1742552148</internalNodes>
          <leafValues>
            -5.1314896345138550e-01 4.7195100784301758e-01</leafValues></_>
        <_>
          <internalNodes>
            0 -1 90 -1158362467 -873834499 1983556267 -219111696
            1878476236 -17334406 251540861 -1189530146</internalNodes>
          <leafValues>
            -4.4141083955764771e-01 5.5942010879516602e-01</leafValues></_></weakClassifiers></_>
    <!-- stage 28 -->
    <_>
      <maxWeakCount>6</maxWeakCount>
      <stageThreshold>-1.5075696706771851e+00</stageThreshold>
      <weakClassifiers>
        <_>
          <internalNodes>
            0 -1 174 518001240 545414013 1014246547 1902406259
            -428385060 -118001705 -1636544900 -1966567414</internalNodes>
          <leafValues>
            -4.2120343446731567e-01 5.7142859697341919e-01</leafValues></_>
        <_>
          <internalNodes>
            0 -1 176 1785131024 1033654352 -1096028317 319299135
            -1743486533 1258184695 493518139 -1921430053</internalNodes>
          <leafValues>
            -4.0157511830329895e-01 6.4737915992736816e-01</leafValues></_>
        <_>
          <internalNodes>
            0 -1 78 -933432026 361103361 69633 555749698 1051279
            -1308536832 32840 732496344</internalNodes>
          <leafValues>
            -5.3887063264846802e-01 5.3339391946792603e-01</leafValues></_>
        <_>
          <internalNodes>
            0 -1 58 1596280971 -1840664800 930329207 -307053680
            632805319 1203634047 -436873423 -549978157</internalNodes>
          <leafValues>
            -4.1757375001907349e-01 6.9752824306488037e-01</leafValues></_>
        <_>
          <internalNodes>
            0 -1 199 1930389641 -76128767 2130636207 -1292655690
            -1099461718 1048412015 639557290 -927859201</internalNodes>
          <leafValues>
            -3.5896506905555725e-01 8.4012776613235474e-01</leafValues></_>
        <_>
          <internalNodes>
            0 -1 99 1355266080 1144679987 1811697260 468446822 381498482
            1618769785 -939528872 -277741705</internalNodes>
          <leafValues>
            -4.8448371887207031e-01 6.1941933631896973e-01</leafValues></_></weakClassifiers></_>
    <!-- stage 29 -->
    <_>
      <maxWeakCount>6</maxWeakCount>
      <stageThreshold>-6.9805544614791870e-01</stageThreshold>
      <weakClassifiers>
        <_>
          <internalNodes>
            0 -1 170 -43412534 -1293793869 649396267 94489925 23386265
            -1356194397 949509643 -1875843968</internalNodes>
          <leafValues>
            -2.8283795714378357e-01 8.9785832166671753e-01</leafValues></_>
        <_>
          <internalNodes>
            0 -1 118 -737296272 25169936 16648 269501441 -1878491126
            -1585446912 8388717 -1828511744</internalNodes>
          <leafValues>
            -4.9222177267074585e-01 6.8381148576736450e-01</leafValues></_>
        <_>
          <internalNodes>
            0 -1 235 -1741960700 407375664 776435577 1127233338
            2129546012 7765874 -1892284742 10614587</internalNodes>
          <leafValues>
            -5.3251224756240845e-01 6.9143432378768921e-01</leafValues></_>
        <_>
          <internalNodes>
            0 -1 112 -324370004 -1103545632 712391458 -604029243
            762708389 -823185410 83529306 455768172</internalNodes>
          <leafValues>
            -5.7205766439437866e-01 7.0838516950607300e-01</leafValues></_>
        <_>
          <internalNodes>
            0 -1 108 155214482 -2058354432 197134 17827866 -2147442174
            1048576 8421385 1105301888</internalNodes>
          <leafValues>
            -6.3301610946655273e-01 6.1730504035949707e-01</leafValues></_>
        <_>
          <internalNodes>
            0 -1 205 -759209906 612302638 868217602 1491091446
            1459420928 -1300234787 988953400 -1578238154</internalNodes>
          <leafValues>
            -5.8538949489593506e-01 7.5811237096786499e-01</leafValues></_></weakClassifiers></_></stages>
  <features>
    <_>
      <rect>
        0 0 3 3</rect></_>
    <_>
      <rect>
        0 1 2 4</rect></_>
    <_>
      <rect>
        0 2 2 3</rect></_>
    <_>
      <rect>
        0 2 3 6</rect></_>
    <_>
      <rect>
        0 3 1 3</rect></_>
    <_>
      <rect>
        0 3 1 4</rect></_>
    <_>
      <rect>
        0 5 3 8</rect></_>
    <_>
      <rect>
        0 5 4 6</rect></_>
    <_>
      <rect>
        0 10 6 12</rect></_>
    <_>
      <rect>
        0 11 1 4</rect></_>
    <_>
      <rect>
        0 12 3 12</rect></_>
    <_>
      <rect>
        0 13 2 4</rect></_>
    <_>
      <rect>
        0 16 3 4</rect></_>
    <_>
      <rect>
        0 16 6 10</rect></_>
    <_>
      <rect>
        0 17 2 5</rect></_>
    <_>
      <rect>
        0 18 2 6</rect></_>
    <_>
      <rect>
        0 18 5 9</rect></_>
    <_>
      <rect>
        0 19 3 9</rect></_>
    <_>
      <rect>
        0 19 8 10</rect></_>
    <_>
      <rect>
        0 23 4 6</rect></_>
    <_>
      <rect>
        0 24 3 6</rect></_>
    <_>
      <rect>
        0 24 4 7</rect></_>
    <_>
      <rect>
        0 24 5 7</rect></_>
    <_>
      <rect>
        0 25 3 7</rect></_>
    <_>
      <rect>
        0 26 6 8</rect></_>
    <_>
      <rect>
        0 31 4 4</rect></_>
    <_>
      <rect>
        0 32 1 3</rect></_>
    <_>
      <rect>
        0 32 4 6</rect></_>
    <_>
      <rect>
        0 32 7 6</rect></_>
    <_>
      <rect>
        0 33 2 4</rect></_>
    <_>
      <rect>
        0 38 3 4</rect></_>
    <_>
      <rect>
        1 0 1 1</rect></_>
    <_>
      <rect>
        1 0 2 4</rect></_>
    <_>
      <rect>
        1 0 4 3</rect></_>
    <_>
      <rect>
        1 1 6 15</rect></_>
    <_>
      <rect>
        1 2 5 6</rect></_>
    <_>
      <rect>
        1 6 1 1</rect></_>
    <_>
      <rect>
        1 8 3 5</rect></_>
    <_>
      <rect>
        1 8 5 12</rect></_>
    <_>
      <rect>
        1 10 1 3</rect></_>
    <_>
      <rect>
        1 11 1 2</rect></_>
    <_>
      <rect>
        1 11 2 4</rect></_>
    <_>
      <rect>
        1 11 3 5</rect></_>
    <_>
      <rect>
        1 13 2 3</rect></_>
    <_>
      <rect>
        1 14 2 4</rect></_>
    <_>
      <rect>
        1 15 2 3</rect></_>
    <_>
      <rect>
        1 17 8 11</rect></_>
    <_>
      <rect>
        1 19 5 8</rect></_>
    <_>
      <rect>
        1 23 4 6</rect></_>
    <_>
      <rect>
        1 23 7 8</rect></_>
    <_>
      <rect>
        1 25 3 4</rect></_>
    <_>
      <rect>
        1 30 5 5</rect></_>
    <_>
      <rect>
        1 40 8 3</rect></_>
    <_>
      <rect>
        2 3 5 8</rect></_>
    <_>
      <rect>
        2 6 4 5</rect></_>
    <_>
      <rect>
        2 6 6 6</rect></_>
    <_>
      <rect>
        2 7 1 1</rect></_>
    <_>
      <rect>
        2 7 7 5</rect></_>
    <_>
      <rect>
        2 8 2 4</rect></_>
    <_>
      <rect>
        2 13 2 4</rect></_>
    <_>
      <rect>
        2 13 5 6</rect></_>
    <_>
      <rect>
        2 21 7 9</rect></_>
    <_>
      <rect>
        2 23 3 5</rect></_>
    <_>
      <rect>
        2 23 3 7</rect></_>
    <_>
      <rect>
        2 24 6 7</rect></_>
    <_>
      <rect>
        3 0 4 3</rect></_>
    <_>
      <rect>
        3 6 5 5</rect></_>
    <_>
      <rect>
        3 9 4 4</rect></_>
    <_>
      <rect>
        3 14 3 4</rect></_>
    <_>
      <rect>
        3 23 5 4</rect></_>
    <_>
      <rect>
        3 28 4 5</rect></_>
    <_>
      <rect>
        3 43 2 2</rect></_>
    <_>
      <rect>
        4 0 4 3</rect></_>
    <_>
      <rect>
        4 1 1 1</rect></_>
    <_>
      <rect>
        4 1 3 4</rect></_>
    <_>
      <rect>
        4 3 2 1</rect></_>
    <_>
      <rect>
        4 4 2 3</rect></_>
    <_>
      <rect>
        4 4 4 3</rect></_>
    <_>
      <rect>
        4 5 5 5</rect></_>
    <_>
      <rect>
        4 6 4 6</rect></_>
    <_>
      <rect>
        4 6 5 10</rect></_>
    <_>
      <rect>
        4 6 6 6</rect></_>
    <_>
      <rect>
        4 7 5 5</rect></_>
    <_>
      <rect>
        4 9 4 4</rect></_>
    <_>
      <rect>
        4 12 3 5</rect></_>
    <_>
      <rect>
        4 12 5 6</rect></_>
    <_>
      <rect>
        4 13 6 8</rect></_>
    <_>
      <rect>
        4 17 7 11</rect></_>
    <_>
      <rect>
        4 18 5 6</rect></_>
    <_>
      <rect>
        4 27 3 4</rect></_>
    <_>
      <rect>
        4 31 1 2</rect></_>
    <_>
      <rect>
        4 38 6 4</rect></_>
    <_>
      <rect>
        4 44 2 2</rect></_>
    <_>
      <rect>
        4 45 2 1</rect></_>
    <_>
      <rect>
        5 1 4 6</rect></_>
    <_>
      <rect>
        5 2 4 2</rect></_>
    <_>
      <rect>
        5 4 3 5</rect></_>
    <_>
      <rect>
        5 6 5 5</rect></_>
    <_>
      <rect>
        5 6 6 7</rect></_>
    <_>
      <rect>
        5 17 2 5</rect></_>
    <_>
      <rect>
        5 22 3 6</rect></_>
    <_>
      <rect>
        5 29 6 6</rect></_>
    <_>
      <rect>
        5 45 1 1</rect></_>
    <_>
      <rect>
        6 0 4 2</rect></_>
    <_>
      <rect>
        6 0 6 9</rect></_>
    <_>
      <rect>
        6 0 6 15</rect></_>
    <_>
      <rect>
        6 3 4 2</rect></_>
    <_>
      <rect>
        6 5 4 4</rect></_>
    <_>
      <rect>
        6 6 5 6</rect></_>
    <_>
      <rect>
        6 13 5 11</rect></_>
    <_>
      <rect>
        6 18 3 6</rect></_>
    <_>
      <rect>
        6 21 3 4</rect></_>
    <_>
      <rect>
        6 22 3 6</rect></_>
    <_>
      <rect>
        6 24 6 7</rect></_>
    <_>
      <rect>
        6 27 2 3</rect></_>
    <_>
      <rect>
        6 28 3 3</rect></_>
    <_>
      <rect>
        6 28 6 6</rect></_>
    <_>
      <rect>
        6 30 5 5</rect></_>
    <_>
      <rect>
        6 32 2 2</rect></_>
    <_>
      <rect>
        6 34 4 4</rect></_>
    <_>
      <rect>
        6 35 5 5</rect></_>
    <_>
      <rect>
        6 37 3 4</rect></_>
    <_>
      <rect>
        6 40 3 3</rect></_>
    <_>
      <rect>
        6 44 2 2</rect></_>
    <_>
      <rect>
        7 0 2 2</rect></_>
    <_>
      <rect>
        7 0 5 2</rect></_>
    <_>
      <rect>
        7 1 6 11</rect></_>
    <_>
      <rect>
        7 2 3 2</rect></_>
    <_>
      <rect>
        7 2 4 2</rect></_>
    <_>
      <rect>
        7 2 5 15</rect></_>
    <_>
      <rect>
        7 3 5 7</rect></_>
    <_>
      <rect>
        7 9 4 4</rect></_>
    <_>
      <rect>
        7 12 5 9</rect></_>
    <_>
      <rect>
        7 12 6 11</rect></_>
    <_>
      <rect>
        7 15 4 4</rect></_>
    <_>
      <rect>
        7 21 6 8</rect></_>
    <_>
      <rect>
        7 22 4 4</rect></_>
    <_>
      <rect>
        7 24 3 4</rect></_>
    <_>
      <rect>
        7 26 6 8</rect></_>
    <_>
      <rect>
        7 30 2 2</rect></_>
    <_>
      <rect>
        7 33 3 4</rect></_>
    <_>
      <rect>
        8 0 3 3</rect></_>
    <_>
      <rect>
        8 0 5 2</rect></_>
    <_>
      <rect>
        8 1 1 1</rect></_>
    <_>
      <rect>
        8 12 3 9</rect></_>
    <_>
      <rect>
        8 18 2 3</rect></_>
    <_>
      <rect>
        8 25 3 4</rect></_>
    <_>
      <rect>
        9 2 5 9</rect></_>
    <_>
      <rect>
        9 17 2 2</rect></_>
    <_>
      <rect>
        9 18 2 2</rect></_>
    <_>
      <rect>
        9 18 2 3</rect></_>
    <_>
      <rect>
        9 19 3 4</rect></_>
    <_>
      <rect>
        9 21 3 7</rect></_>
    <_>
      <rect>
        9 26 2 3</rect></_>
    <_>
      <rect>
        9 29 2 2</rect></_>
    <_>
      <rect>
        9 29 3 2</rect></_>
    <_>
      <rect>
        9 32 5 6</rect></_>
    <_>
      <rect>
        9 43 2 2</rect></_>
    <_>
      <rect>
        10 0 2 1</rect></_>
    <_>
      <rect>
        10 0 2 2</rect></_>
    <_>
      <rect>
        10 0 4 3</rect></_>
    <_>
      <rect>
        10 5 3 4</rect></_>
    <_>
      <rect>
        10 11 4 5</rect></_>
    <_>
      <rect>
        10 11 5 13</rect></_>
    <_>
      <rect>
        10 19 2 2</rect></_>
    <_>
      <rect>
        10 19 5 9</rect></_>
    <_>
      <rect>
        10 20 3 5</rect></_>
    <_>
      <rect>
        10 27 4 5</rect></_>
    <_>
      <rect>
        10 29 2 2</rect></_>
    <_>
      <rect>
        10 29 2 3</rect></_>
    <_>
      <rect>
        10 29 3 3</rect></_>
    <_>
      <rect>
        10 31 2 4</rect></_>
    <_>
      <rect>
        11 0 2 2</rect></_>
    <_>
      <rect>
        11 0 3 2</rect></_>
    <_>
      <rect>
        11 0 4 3</rect></_>
    <_>
      <rect>
        11 29 3 3</rect></_>
    <_>
      <rect>
        11 30 2 3</rect></_>
    <_>
      <rect>
        12 0 3 2</rect></_>
    <_>
      <rect>
        12 10 3 7</rect></_>
    <_>
      <rect>
        12 14 3 4</rect></_>
    <_>
      <rect>
        12 17 2 3</rect></_>
    <_>
      <rect>
        12 26 4 8</rect></_>
    <_>
      <rect>
        13 0 2 2</rect></_>
    <_>
      <rect>
        13 3 3 2</rect></_>
    <_>
      <rect>
        13 7 3 5</rect></_>
    <_>
      <rect>
        13 20 4 8</rect></_>
    <_>
      <rect>
        13 22 2 3</rect></_>
    <_>
      <rect>
        13 24 3 4</rect></_>
    <_>
      <rect>
        13 26 4 7</rect></_>
    <_>
      <rect>
        13 28 4 4</rect></_>
    <_>
      <rect>
        13 37 2 2</rect></_>
    <_>
      <rect>
        14 0 3 3</rect></_>
    <_>
      <rect>
        14 1 2 2</rect></_>
    <_>
      <rect>
        14 5 3 4</rect></_>
    <_>
      <rect>
        14 20 3 9</rect></_>
    <_>
      <rect>
        15 0 2 2</rect></_>
    <_>
      <rect>
        15 2 2 2</rect></_>
    <_>
      <rect>
        15 8 3 4</rect></_>
    <_>
      <rect>
        15 9 3 4</rect></_>
    <_>
      <rect>
        15 14 2 5</rect></_>
    <_>
      <rect>
        15 27 3 5</rect></_>
    <_>
      <rect>
        15 44 2 2</rect></_>
    <_>
      <rect>
        16 0 3 4</rect></_>
    <_>
      <rect>
        16 0 3 6</rect></_>
    <_>
      <rect>
        16 2 3 9</rect></_>
    <_>
      <rect>
        16 4 3 4</rect></_>
    <_>
      <rect>
        16 6 3 7</rect></_>
    <_>
      <rect>
        16 11 3 7</rect></_>
    <_>
      <rect>
        16 14 3 9</rect></_>
    <_>
      <rect>
        16 21 3 5</rect></_>
    <_>
      <rect>
        16 23 2 4</rect></_>
    <_>
      <rect>
        16 23 3 8</rect></_>
    <_>
      <rect>
        16 27 3 7</rect></_>
    <_>
      <rect>
        16 28 2 3</rect></_>
    <_>
      <rect>
        16 43 2 2</rect></_>
    <_>
      <rect>
        17 2 2 3</rect></_>
    <_>
      <rect>
        17 4 2 3</rect></_>
    <_>
      <rect>
        17 11 2 5</rect></_>
    <_>
      <rect>
        17 17 2 5</rect></_>
    <_>
      <rect>
        17 28 2 3</rect></_>
    <_>
      <rect>
        18 22 2 4</rect></_>
    <_>
      <rect>
        18 26 2 3</rect></_>
    <_>
      <rect>
        18 46 1 1</rect></_>
    <_>
      <rect>
        19 1 2 2</rect></_>
    <_>
      <rect>
        19 5 2 5</rect></_>
    <_>
      <rect>
        19 8 2 2</rect></_>
    <_>
      <rect>
        19 8 2 6</rect></_>
    <_>
      <rect>
        19 10 2 5</rect></_>
    <_>
      <rect>
        19 12 2 4</rect></_>
    <_>
      <rect>
        19 14 2 4</rect></_>
    <_>
      <rect>
        19 21 2 9</rect></_>
    <_>
      <rect>
        19 37 2 4</rect></_>
    <_>
      <rect>
        21 5 1 2</rect></_>
    <_>
      <rect>
        21 21 1 1</rect></_>
    <_>
      <rect>
        21 37 1 2</rect></_>
    <_>
      <rect>
        22 2 1 2</rect></_>
    <_>
      <rect>
        22 8 1 3</rect></_>
    <_>
      <rect>
        22 12 1 3</rect></_>
    <_>
      <rect>
        22 14 1 2</rect></_></features></cascade>
</opencv_storage>
