<?xml version="1.0"?>
<opencv_storage>
<stage27>
  <maxWeakCount>9</maxWeakCount>
  <stageThreshold>-8.1516665220260620e-01</stageThreshold>
  <weakClassifiers>
    <_>
      <internalNodes>
        0 -1 12966 -521874430 -1086626544 1811850045 846430207
        -529547142 1979186943 -71601221 -17039502</internalNodes>
      <leafValues>
        -3.7849777936935425e-01 5.2214211225509644e-01</leafValues></_>
    <_>
      <internalNodes>
        0 -1 4568 1023608846 -742307776 -973073904 -2029944060 159383758
        671780865 1074004504 2037359174</internalNodes>
      <leafValues>
        -4.9367165565490723e-01 4.0323585271835327e-01</leafValues></_>
    <_>
      <internalNodes>
        0 -1 5653 -900708318 -523132783 268513314 139530525 8795422
        -670957432 553648197 -506855397</internalNodes>
      <leafValues>
        -6.4317184686660767e-01 3.1800159811973572e-01</leafValues></_>
    <_>
      <internalNodes>
        0 -1 3099 1201029210 -752746026 -2147483646 -1886207934
        1224771629 -1593606135 537561730 -552460286</internalNodes>
      <leafValues>
        -4.9503913521766663e-01 4.3402737379074097e-01</leafValues></_>
    <_>
      <internalNodes>
        0 -1 5747 -1030630001 -251441151 -1073672042 -771682287
        -486505689 956956928 1904936074 1373143306</internalNodes>
      <leafValues>
        -4.6756353974342346e-01 4.9089717864990234e-01</leafValues></_>
    <_>
      <internalNodes>
        0 -1 1871 1825439886 1615855745 414 135009361 -2097082305
        679477385 -234638565 -637341310</internalNodes>
      <leafValues>
        -5.9366917610168457e-01 3.8804492354393005e-01</leafValues></_>
    <_>
      <internalNodes>
        0 -1 28284 -1556512942 -802160378 -1610465145 -1045823487
        419463593 536940682 -2129657697 676004881</internalNodes>
      <leafValues>
        -5.3281456232070923e-01 4.7129583358764648e-01</leafValues></_>
    <_>
      <internalNodes>
        0 -1 21811 1218015450 1514275395 1895895176 1564545033
        1224868014 341966848 -1018973311 -1742552148</internalNodes>
      <leafValues>
        -5.1314896345138550e-01 4.7195100784301758e-01</leafValues></_>
    <_>
      <internalNodes>
        0 -1 14698 -1158362467 -873834499 1983556267 -219111696
        1878476236 -17334406 251540861 -1189530146</internalNodes>
      <leafValues>
        -4.4141083955764771e-01 5.5942010879516602e-01</leafValues></_></weakClassifiers></stage27>
</opencv_storage>
