<?xml version="1.0"?>
<opencv_storage>
<stage13>
  <maxWeakCount>7</maxWeakCount>
  <stageThreshold>-1.1931817531585693e+00</stageThreshold>
  <weakClassifiers>
    <_>
      <internalNodes>
        0 -1 25652 1809783679 1870364663 -1359221123 721153957
        1744828355 1736409085 1862231927 -83951647</internalNodes>
      <leafValues>
        -3.2356533408164978e-01 6.1973524093627930e-01</leafValues></_>
    <_>
      <internalNodes>
        0 -1 1832 -268181493 1124690461 -669994852 -64929375 1879461901
        2048950528 -1441578869 1927913999</internalNodes>
      <leafValues>
        -4.1739198565483093e-01 5.1325911283493042e-01</leafValues></_>
    <_>
      <internalNodes>
        0 -1 19965 -41281 469139307 1056962366 1442742205 -1354793201
        -579354755 225828637 -861415296</internalNodes>
      <leafValues>
        -4.0166282653808594e-01 5.6910514831542969e-01</leafValues></_>
    <_>
      <internalNodes>
        0 -1 32047 1364284197 1376846146 606225 1427161136 -1853700088
        -929021935 -2008514052 944885979</internalNodes>
      <leafValues>
        -5.2414089441299438e-01 4.5590540766716003e-01</leafValues></_>
    <_>
      <internalNodes>
        0 -1 1503 1612120810 -1056468205 168854040 -301758078 1242260046
        2106179609 805313379 -523638495</internalNodes>
      <leafValues>
        -5.7760441303253174e-01 4.5540624856948853e-01</leafValues></_>
    <_>
      <internalNodes>
        0 -1 4264 1126929045 1370205499 -2110753162 -578978265 125687773
        74842011 1375041501 -815879329</internalNodes>
      <leafValues>
        -4.0818139910697937e-01 6.4730221033096313e-01</leafValues></_>
    <_>
      <internalNodes>
        0 -1 36906 -209264582 -1589624381 1246721 327237773 41986506
        8521729 562203570 1901048142</internalNodes>
      <leafValues>
        -5.5369186401367188e-01 4.6714541316032410e-01</leafValues></_></weakClassifiers></stage13>
</opencv_storage>
