<?xml version="1.0"?>
<opencv_storage>
<stage24>
  <maxWeakCount>8</maxWeakCount>
  <stageThreshold>-1.1099028587341309e+00</stageThreshold>
  <weakClassifiers>
    <_>
      <internalNodes>
        0 -1 20009 731928664 -134512971 1073510397 1068974068
        -1627726636 -8454275 520015359 -432523268</internalNodes>
      <leafValues>
        -3.7969401478767395e-01 5.6176155805587769e-01</leafValues></_>
    <_>
      <internalNodes>
        0 -1 2103 -2147429680 -1605987895 1073783188 239075398
        -1073194700 -536739582 -2071920291 -903839613</internalNodes>
      <leafValues>
        -6.5217602252960205e-01 3.9906594157218933e-01</leafValues></_>
    <_>
      <internalNodes>
        0 -1 31133 436110671 662404735 -16912657 552072767 2122264078
        524254583 752774827 -1090519691</internalNodes>
      <leafValues>
        -4.7038176655769348e-01 5.8025962114334106e-01</leafValues></_>
    <_>
      <internalNodes>
        0 -1 19390 -1874739023 1619397190 8339 814317778 583803
        -1459617128 1350631461 -677242578</internalNodes>
      <leafValues>
        -4.7390183806419373e-01 5.6021487712860107e-01</leafValues></_>
    <_>
      <internalNodes>
        0 -1 30816 -82370354 -229556003 16384 101797897 -1325333824
        -2129590143 135152030 37953615</internalNodes>
      <leafValues>
        -6.1918455362319946e-01 4.2417153716087341e-01</leafValues></_>
    <_>
      <internalNodes>
        0 -1 32284 1465866957 834137677 889164986 1886715641 -1233676795
        1299705845 -1115886535 -42078274</internalNodes>
      <leafValues>
        -4.5092532038688660e-01 6.3607496023178101e-01</leafValues></_>
    <_>
      <internalNodes>
        0 -1 11726 -828135509 -222302617 1050586851 405109283 38793006
        1560199039 1072168821 -707561487</internalNodes>
      <leafValues>
        -4.9710789322853088e-01 5.6807106733322144e-01</leafValues></_>
    <_>
      <internalNodes>
        0 -1 13609 138428948 1478524977 150994994 1359257809 -1862219643
        1350565905 408486558 1629683913</internalNodes>
      <leafValues>
        -6.4622926712036133e-01 4.7389727830886841e-01</leafValues></_></weakClassifiers></stage24>
</opencv_storage>
