<?xml version="1.0"?>
<opencv_storage>
<stage16>
  <maxWeakCount>8</maxWeakCount>
  <stageThreshold>-7.0574021339416504e-01</stageThreshold>
  <weakClassifiers>
    <_>
      <internalNodes>
        0 -1 23667 -2030074289 620707646 -17827973 712077175 268399967
        2147409918 1472100163 -222627977</internalNodes>
      <leafValues>
        -3.8769230246543884e-01 5.0199997425079346e-01</leafValues></_>
    <_>
      <internalNodes>
        0 -1 28165 -443963392 2040082434 16777477 1090585041 -1071644622
        -1182793598 164483 -339584933</internalNodes>
      <leafValues>
        -5.3996843099594116e-01 3.7615269422531128e-01</leafValues></_>
    <_>
      <internalNodes>
        0 -1 35074 1614666063 935018029 1627070208 1976433663 1853866200
        936738258 -1057731462 -3539237</internalNodes>
      <leafValues>
        -3.6272063851356506e-01 6.1822509765625000e-01</leafValues></_>
    <_>
      <internalNodes>
        0 -1 35939 2069125898 2062282739 2063466101 523234684 788361610
        -2004910145 -1191183842 -5521670</internalNodes>
      <leafValues>
        -3.7069329619407654e-01 5.6769484281539917e-01</leafValues></_>
    <_>
      <internalNodes>
        0 -1 6052 -1811627374 -888864469 83922345 -905891823 -1728053229
        -368965111 302033050 -1500299189</internalNodes>
      <leafValues>
        -5.0860756635665894e-01 4.6443733572959900e-01</leafValues></_>
    <_>
      <internalNodes>
        0 -1 15245 -851455249 -675348233 -1082152129 -674734981
        -148716117 -1073769090 774364072 -609857859</internalNodes>
      <leafValues>
        -3.3120238780975342e-01 7.2216522693634033e-01</leafValues></_>
    <_>
      <internalNodes>
        0 -1 38756 1592751413 1378838772 -1342210081 463957759 527957211
        -1260519684 -1119898130 452513128</internalNodes>
      <leafValues>
        -4.3762260675430298e-01 5.2035909891128540e-01</leafValues></_>
    <_>
      <internalNodes>
        0 -1 17526 1493291393 -788463402 35929 -469581821 16941232
        -502497151 1208527036 1447596048</internalNodes>
      <leafValues>
        -5.1143449544906616e-01 5.0891196727752686e-01</leafValues></_></weakClassifiers></stage16>
</opencv_storage>
