<?xml version="1.0"?>
<opencv_storage>
<stage10>
  <maxWeakCount>10</maxWeakCount>
  <stageThreshold>-1.2474709749221802e+00</stageThreshold>
  <weakClassifiers>
    <_>
      <internalNodes>
        0 -1 27796 1336929391 777519103 -16793649 577416959 394475366
        1878392703 1560173943 -16777353</internalNodes>
      <leafValues>
        -4.2028984427452087e-01 4.9659863114356995e-01</leafValues></_>
    <_>
      <internalNodes>
        0 -1 147 122676194 -721123318 4296735 -473579520 550701075
        -402620285 -1601600754 -413674717</internalNodes>
      <leafValues>
        -4.2178314924240112e-01 4.5757597684860229e-01</leafValues></_>
    <_>
      <internalNodes>
        0 -1 17164 1075534048 1137693405 269032659 -666401530 1883799618
        -645791743 36176019 -1550599973</internalNodes>
      <leafValues>
        -5.6704711914062500e-01 3.7327754497528076e-01</leafValues></_>
    <_>
      <internalNodes>
        0 -1 36745 1419356842 1074450752 -1878892160 805542239
        -1828615679 537428096 343966705 1199831763</internalNodes>
      <leafValues>
        -6.4128750562667847e-01 3.4084567427635193e-01</leafValues></_>
    <_>
      <internalNodes>
        0 -1 26185 -10006309 -1691290989 553310067 2069748817 -461616950
        -830551111 -1436707125 -884025701</internalNodes>
      <leafValues>
        -3.1766128540039062e-01 7.3738771677017212e-01</leafValues></_>
    <_>
      <internalNodes>
        0 -1 13511 -1547085054 -1189903979 -2021638127 265376913
        -1065326429 1031997569 1225334366 860059279</internalNodes>
      <leafValues>
        -6.6288262605667114e-01 3.4115573763847351e-01</leafValues></_>
    <_>
      <internalNodes>
        0 -1 7365 1115837040 -247922624 16810997 -654206909 -2012069832
        -1979709928 -959835463 -620197239</internalNodes>
      <leafValues>
        -5.3792321681976318e-01 4.4919487833976746e-01</leafValues></_>
    <_>
      <internalNodes>
        0 -1 1959 -372574202 -800915426 -2113814506 605169678 1476595754
        -394035200 1242153101 -62395964</internalNodes>
      <leafValues>
        -5.3659152984619141e-01 4.2717629671096802e-01</leafValues></_>
    <_>
      <internalNodes>
        0 -1 40063 -800598522 1560371402 1078013954 6443268 -1879046070
        268961928 -1979546984 2028464523</internalNodes>
      <leafValues>
        -4.9331524968147278e-01 4.9314090609550476e-01</leafValues></_>
    <_>
      <internalNodes>
        0 -1 2360 -741345890 1833500929 1350634044 344413189 841732139
        58937856 139517995 -578559869</internalNodes>
      <leafValues>
        -4.8511770367622375e-01 5.0270015001296997e-01</leafValues></_></weakClassifiers></stage10>
</opencv_storage>
