<?xml version="1.0"?>
<opencv_storage>
<stage4>
  <maxWeakCount>9</maxWeakCount>
  <stageThreshold>-8.0307954549789429e-01</stageThreshold>
  <weakClassifiers>
    <_>
      <internalNodes>
        0 -1 26537 195055632 1006530428 -1090535873 1073610640 267851005
        -674243081 2128379646 -101756929</internalNodes>
      <leafValues>
        -4.6474358439445496e-01 5.2631580829620361e-01</leafValues></_>
    <_>
      <internalNodes>
        0 -1 3486 503924986 1393674325 536936539 1900883465 -248839013
        -2147417919 -703944470 2136699635</internalNodes>
      <leafValues>
        -6.0282427072525024e-01 4.1919243335723877e-01</leafValues></_>
    <_>
      <internalNodes>
        0 -1 38935 2145372162 437901754 285212672 5029891 1158304000
        -104234832 -259733110 -644888177</internalNodes>
      <leafValues>
        -4.8410090804100037e-01 4.9454733729362488e-01</leafValues></_>
    <_>
      <internalNodes>
        0 -1 19806 -754787107 -406847471 1879183628 -897560184
        -1874843588 -232161254 -2037755884 -105129751</internalNodes>
      <leafValues>
        -5.0738424062728882e-01 4.9368485808372498e-01</leafValues></_>
    <_>
      <internalNodes>
        0 -1 12938 1990413986 1997684867 1208500679 -1795092222
        -901211938 -2138011518 -108973893 -259532818</internalNodes>
      <leafValues>
        -5.5592232942581177e-01 4.6240639686584473e-01</leafValues></_>
    <_>
      <internalNodes>
        0 -1 21092 1345575570 -679357887 805376281 -239734775 164310
        471106706 648350207 526370555</internalNodes>
      <leafValues>
        -5.4212623834609985e-01 4.7008848190307617e-01</leafValues></_>
    <_>
      <internalNodes>
        0 -1 2421 -282075009 -1632731418 1861168703 1080520191
        1316830285 519519871 268428511 2138925051</internalNodes>
      <leafValues>
        -4.6545341610908508e-01 5.7131546735763550e-01</leafValues></_>
    <_>
      <internalNodes>
        0 -1 33118 -547245624 73613534 -733937007 521888711 -259487732
        -1962235902 -2104950524 -935599349</internalNodes>
      <leafValues>
        -6.0712945461273193e-01 4.2316457629203796e-01</leafValues></_>
    <_>
      <internalNodes>
        0 -1 19027 1372206280 420676438 -1073732966 526192833 1191265965
        1778385553 1800001755 -102705137</internalNodes>
      <leafValues>
        -5.9541344642639160e-01 4.5632398128509521e-01</leafValues></_></weakClassifiers></stage4>
</opencv_storage>
