<?xml version="1.0"?>
<opencv_storage>
<stage26>
  <maxWeakCount>10</maxWeakCount>
  <stageThreshold>-1.6509687900543213e+00</stageThreshold>
  <weakClassifiers>
    <_>
      <internalNodes>
        0 -1 26943 -2039766005 964652902 1026764664 289136509
        -1282068983 -536893441 511356602 2071055099</internalNodes>
      <leafValues>
        -3.3972603082656860e-01 5.4130434989929199e-01</leafValues></_>
    <_>
      <internalNodes>
        0 -1 661 -894461386 -267321329 1073742216 -1056898742 1351626795
        679542912 201326986 -611618554</internalNodes>
      <leafValues>
        -4.3877935409545898e-01 4.7541418671607971e-01</leafValues></_>
    <_>
      <internalNodes>
        0 -1 19910 -1043148924 486869208 -2130582375 -471705463 2170921
        -922550272 -2139061864 -785960760</internalNodes>
      <leafValues>
        -4.6294069290161133e-01 4.7956690192222595e-01</leafValues></_>
    <_>
      <internalNodes>
        0 -1 39323 -2063343057 1831186 268435524 16990272 -503283453
        -2008973174 268634112 1749387786</internalNodes>
      <leafValues>
        -4.5905238389968872e-01 4.8262366652488708e-01</leafValues></_>
    <_>
      <internalNodes>
        0 -1 36040 1649871250 134320134 16385 285823235 1304740033
        -1459585023 536871000 726530314</internalNodes>
      <leafValues>
        -5.9276890754699707e-01 4.1485583782196045e-01</leafValues></_>
    <_>
      <internalNodes>
        0 -1 19546 -89268206 -17078571 72250861 130251865 -717323522
        -1895858431 796046443 1067082273</internalNodes>
      <leafValues>
        -4.7022905945777893e-01 5.1301276683807373e-01</leafValues></_>
    <_>
      <internalNodes>
        0 -1 2912 -285225845 1850719927 1858957051 1845341937 1316965978
        -6285 116506233 -295363220</internalNodes>
      <leafValues>
        -4.1411706805229187e-01 5.5499392747879028e-01</leafValues></_>
    <_>
      <internalNodes>
        0 -1 12352 -1415531130 1476034176 1878998887 930971232 148715121
        -294649993 234674943 -1334232975</internalNodes>
      <leafValues>
        -4.5090517401695251e-01 5.2719968557357788e-01</leafValues></_>
    <_>
      <internalNodes>
        0 -1 12728 -542170695 -1216404942 1190868650 -538020054
        -1343346766 -805328914 107802550 783253415</internalNodes>
      <leafValues>
        -4.2568820714950562e-01 5.9535050392150879e-01</leafValues></_>
    <_>
      <internalNodes>
        0 -1 40367 1610738442 -1845378934 -1073692636 608223489
        -1961689086 -511471612 -1203721533 1135763659</internalNodes>
      <leafValues>
        -5.1600527763366699e-01 5.0622159242630005e-01</leafValues></_></weakClassifiers></stage26>
</opencv_storage>
