<?xml version="1.0"?>
<opencv_storage>
<stage23>
  <maxWeakCount>9</maxWeakCount>
  <stageThreshold>-5.0871312618255615e-01</stageThreshold>
  <weakClassifiers>
    <_>
      <internalNodes>
        0 -1 34697 993286224 -394494286 -1216480645 1744387965
        -294748423 -1073741898 -268600481 -1430438884</internalNodes>
      <leafValues>
        -3.2828283309936523e-01 5.9440559148788452e-01</leafValues></_>
    <_>
      <internalNodes>
        0 -1 3283 723853970 -537538396 -1107953537 -316309677 796776057
        -1074298881 -1233756369 -311176463</internalNodes>
      <leafValues>
        -4.4475197792053223e-01 5.1693868637084961e-01</leafValues></_>
    <_>
      <internalNodes>
        0 -1 12956 -1724579318 873534475 16928920 943980624 -1339981494
        -2147440636 269857050 421161358</internalNodes>
      <leafValues>
        -6.9314044713973999e-01 3.3487811684608459e-01</leafValues></_>
    <_>
      <internalNodes>
        0 -1 14525 538309264 -268333056 537510064 1279344643 780197914
        -1727987710 -1820224181 761496768</internalNodes>
      <leafValues>
        -5.3758043050765991e-01 4.9334990978240967e-01</leafValues></_>
    <_>
      <internalNodes>
        0 -1 37271 1091649799 155254849 -2147483557 -1122811576
        1250295836 -301907959 1485114078 1921632511</internalNodes>
      <leafValues>
        -5.2260303497314453e-01 5.1045811176300049e-01</leafValues></_>
    <_>
      <internalNodes>
        0 -1 33723 -2056527841 1912586107 989788927 1667497982
        2012529386 2055161829 -830554114 2143596454</internalNodes>
      <leafValues>
        -4.2014905810356140e-01 6.4198231697082520e-01</leafValues></_>
    <_>
      <internalNodes>
        0 -1 7845 -202388601 2092875307 -268468233 1475833378 1189072621
        209701631 1576474546 -36218061</internalNodes>
      <leafValues>
        -4.1880941390991211e-01 6.3728833198547363e-01</leafValues></_>
    <_>
      <internalNodes>
        0 -1 7254 1079085634 272835600 269631824 891093297 8820863
        470288532 -2092922665 -830367345</internalNodes>
      <leafValues>
        -5.7049781084060669e-01 5.2668309211730957e-01</leafValues></_>
    <_>
      <internalNodes>
        0 -1 36896 -242224883 1218900568 131083 1661965000 -2147378612
        16924688 -1073628524 -784439790</internalNodes>
      <leafValues>
        -5.1622611284255981e-01 5.3079521656036377e-01</leafValues></_></weakClassifiers></stage23>
</opencv_storage>
