<?xml version="1.0"?>
<opencv_storage>
<stage17>
  <maxWeakCount>8</maxWeakCount>
  <stageThreshold>-9.8705399036407471e-01</stageThreshold>
  <weakClassifiers>
    <_>
      <internalNodes>
        0 -1 12290 -2002071304 -303370766 -44810243 -35086350
        -1184172452 1065353212 -462107464 -313401380</internalNodes>
      <leafValues>
        -3.2169577479362488e-01 5.9905660152435303e-01</leafValues></_>
    <_>
      <internalNodes>
        0 -1 35670 -217214349 1146177792 268501008 84512794 745013770
        -1467481598 155190784 1426709935</internalNodes>
      <leafValues>
        -5.3264909982681274e-01 4.1534587740898132e-01</leafValues></_>
    <_>
      <internalNodes>
        0 -1 39171 12915201 84084962 -2013233152 152732161 -666090101
        -243269630 605870165 -1450972469</internalNodes>
      <leafValues>
        -5.1091349124908447e-01 4.3387708067893982e-01</leafValues></_>
    <_>
      <internalNodes>
        0 -1 28593 1277189392 -2126380860 1157728267 -922117880
        -1879039862 -519372757 -1862268710 -668893043</internalNodes>
      <leafValues>
        -4.8815146088600159e-01 4.6605789661407471e-01</leafValues></_>
    <_>
      <internalNodes>
        0 -1 23999 -214906629 2130310256 1593568819 -449853827
        1145962682 212952818 1273985275 -663538393</internalNodes>
      <leafValues>
        -4.1859355568885803e-01 5.6901484727859497e-01</leafValues></_>
    <_>
      <internalNodes>
        0 -1 12194 -1870461228 -771698351 396 -41905711 32776 1210695817
        -1069367272 -349558756</internalNodes>
      <leafValues>
        -5.0325286388397217e-01 4.8620411753654480e-01</leafValues></_>
    <_>
      <internalNodes>
        0 -1 22183 -290143582 1618017480 -1884881808 2023477231
        -679477936 -159973794 -289506273 -641737378</internalNodes>
      <leafValues>
        -4.9014586210250854e-01 5.0871628522872925e-01</leafValues></_>
    <_>
      <internalNodes>
        0 -1 17878 1360526288 -1547599872 1476493368 290541568
        -1199511546 -1476361840 -1879048056 1912995858</internalNodes>
      <leafValues>
        -5.4460859298706055e-01 5.0977295637130737e-01</leafValues></_></weakClassifiers></stage17>
</opencv_storage>
