<?xml version="1.0"?>
<opencv_storage>
<stage25>
  <maxWeakCount>8</maxWeakCount>
  <stageThreshold>-8.1256622076034546e-01</stageThreshold>
  <weakClassifiers>
    <_>
      <internalNodes>
        0 -1 38586 -553661046 799981550 -360776032 455867930 -1635767424
        -1430978722 1467741314 35125141</internalNodes>
      <leafValues>
        -4.2574256658554077e-01 4.8659002780914307e-01</leafValues></_>
    <_>
      <internalNodes>
        0 -1 6931 -1021754630 925395539 1651996602 167039783 1353752427
        -8913105 5371561 -1288505637</internalNodes>
      <leafValues>
        -4.0669971704483032e-01 5.4921853542327881e-01</leafValues></_>
    <_>
      <internalNodes>
        0 -1 12591 -72364365 -1890918422 1459563253 -681247024
        -1762148355 -606111883 117194446 -1460338959</internalNodes>
      <leafValues>
        -3.3970668911933899e-01 6.6388618946075439e-01</leafValues></_>
    <_>
      <internalNodes>
        0 -1 2858 1233120198 -268548103 -268536091 1777413298 1744796538
        1459117635 1702304882 -975576390</internalNodes>
      <leafValues>
        -3.9051517844200134e-01 6.0312330722808838e-01</leafValues></_>
    <_>
      <internalNodes>
        0 -1 10797 323039758 -2125874650 268474628 1361678604 419440883
        134742155 -1589630870 405668363</internalNodes>
      <leafValues>
        -5.2368897199630737e-01 4.9876561760902405e-01</leafValues></_>
    <_>
      <internalNodes>
        0 -1 38809 1959977285 335564935 -788508345 96665614 -469548968
        -972554110 114715 -804838781</internalNodes>
      <leafValues>
        -4.6833759546279907e-01 5.2790117263793945e-01</leafValues></_>
    <_>
      <internalNodes>
        0 -1 4008 -497957170 -1073741822 83918852 -1861943296 268470354
        1627619329 687915296 -383155833</internalNodes>
      <leafValues>
        -5.9127783775329590e-01 4.2877852916717529e-01</leafValues></_>
    <_>
      <internalNodes>
        0 -1 26488 -805055657 541065601 285282329 1158152452 1116012614
        16781320 25168136 -1979039140</internalNodes>
      <leafValues>
        -5.3108727931976318e-01 5.4074144363403320e-01</leafValues></_></weakClassifiers></stage25>
</opencv_storage>
