<?xml version="1.0"?>
<opencv_storage>
<stage12>
  <maxWeakCount>9</maxWeakCount>
  <stageThreshold>-9.1487711668014526e-01</stageThreshold>
  <weakClassifiers>
    <_>
      <internalNodes>
        0 -1 21682 -211859550 45468743 1906288465 -1208225857 2147306638
        -1621139590 -478706009 -537395201</internalNodes>
      <leafValues>
        -3.6577707529067993e-01 4.7680157423019409e-01</leafValues></_>
    <_>
      <internalNodes>
        0 -1 25707 -5252161 1048530815 1874833133 842219385 1878947135
        805306335 1459500406 -654641225</internalNodes>
      <leafValues>
        -3.6435455083847046e-01 4.9811115860939026e-01</leafValues></_>
    <_>
      <internalNodes>
        0 -1 387 -1943540022 1816382310 536771757 1560145530 1325235637
        -1745223709 117186071 -1006638489</internalNodes>
      <leafValues>
        -4.0476080775260925e-01 4.6532350778579712e-01</leafValues></_>
    <_>
      <internalNodes>
        0 -1 30225 -1064806320 1094852827 -1055833383 902299804
        -1434418040 -1737684846 -2012680053 -69347301</internalNodes>
      <leafValues>
        -4.3210974335670471e-01 4.4346165657043457e-01</leafValues></_>
    <_>
      <internalNodes>
        0 -1 34273 811549787 1460338962 328477 231088400 -1010818882
        964952073 -1979676451 -909440023</internalNodes>
      <leafValues>
        -4.6116507053375244e-01 4.2529609799385071e-01</leafValues></_>
    <_>
      <internalNodes>
        0 -1 22069 -543039982 -537587999 384327483 -1857372169
        1811645578 -872417394 681762111 -1055862474</internalNodes>
      <leafValues>
        -3.7280738353729248e-01 5.6092625856399536e-01</leafValues></_>
    <_>
      <internalNodes>
        0 -1 15508 1087105003 128560267 1274636215 -580408003
        -1778553426 -277971459 218043518 -973634393</internalNodes>
      <leafValues>
        -4.1469922661781311e-01 5.1203191280364990e-01</leafValues></_>
    <_>
      <internalNodes>
        0 -1 37607 1490808458 846823260 1731952630 2029125334 796773512
        1465384788 -536897582 -33620737</internalNodes>
      <leafValues>
        -3.4692060947418213e-01 5.8806979656219482e-01</leafValues></_>
    <_>
      <internalNodes>
        0 -1 29928 -772554020 -186157743 959935609 2098527585
        -1460678661 -89703650 910061035 -1103147859</internalNodes>
      <leafValues>
        -3.4378820657730103e-01 6.2593924999237061e-01</leafValues></_></weakClassifiers></stage12>
</opencv_storage>
