<?xml version="1.0"?>
<opencv_storage>
<stage7>
  <maxWeakCount>8</maxWeakCount>
  <stageThreshold>-7.3741877079010010e-01</stageThreshold>
  <weakClassifiers>
    <_>
      <internalNodes>
        0 -1 20844 -16859008 -1569392780 -188978524 -516456457
        -1661098524 -1393117451 -820120149 -204760337</internalNodes>
      <leafValues>
        -3.9599382877349854e-01 5.0649350881576538e-01</leafValues></_>
    <_>
      <internalNodes>
        0 -1 2486 -269497873 -277877130 -1896976769 1646456558
        -859411363 -941654154 130473679 -820654081</internalNodes>
      <leafValues>
        -4.2874920368194580e-01 5.4161179065704346e-01</leafValues></_>
    <_>
      <internalNodes>
        0 -1 4766 1847561258 1528922184 -1039902592 -616103622
        1619199243 1225327360 571059106 -239214814</internalNodes>
      <leafValues>
        -4.8115637898445129e-01 4.4384405016899109e-01</leafValues></_>
    <_>
      <internalNodes>
        0 -1 22520 -1553854443 -102290317 -461914187 -135791114
        -327195156 1878293887 -99617 -77073313</internalNodes>
      <leafValues>
        -4.0637105703353882e-01 5.4954802989959717e-01</leafValues></_>
    <_>
      <internalNodes>
        0 -1 16811 -1107875694 348184720 -1073690617 1905451019
        411634850 -612237184 134320059 -653347861</internalNodes>
      <leafValues>
        -5.1200008392333984e-01 4.4429618120193481e-01</leafValues></_>
    <_>
      <internalNodes>
        0 -1 8674 -89166165 -1146224736 -2034270685 989789863 1193244321
        -1611759625 1988059131 -71320017</internalNodes>
      <leafValues>
        -4.5089399814605713e-01 5.1119720935821533e-01</leafValues></_>
    <_>
      <internalNodes>
        0 -1 40515 2011682378 784297920 2147466922 -1535905874 -8393977
        1862074239 2012574647 -72354305</internalNodes>
      <leafValues>
        -4.2452478408813477e-01 5.4582470655441284e-01</leafValues></_>
    <_>
      <internalNodes>
        0 -1 37110 805305087 -478265363 1055965049 -76218390 -402808839
        -521797763 1635540344 -883884424</internalNodes>
      <leafValues>
        -4.2151349782943726e-01 5.6584608554840088e-01</leafValues></_></weakClassifiers></stage7>
</opencv_storage>
