<?xml version="1.0"?>
<opencv_storage>
<stage21>
  <maxWeakCount>7</maxWeakCount>
  <stageThreshold>-7.3755735158920288e-01</stageThreshold>
  <weakClassifiers>
    <_>
      <internalNodes>
        0 -1 21714 -686105966 454199923 871325328 1978400315 1526614742
        530894527 -27435048 -19006347</internalNodes>
      <leafValues>
        -3.1639134883880615e-01 5.7821553945541382e-01</leafValues></_>
    <_>
      <internalNodes>
        0 -1 12387 17432763 -1760186352 21317901 1545687253 -534207320
        -1726410584 35743 245449605</internalNodes>
      <leafValues>
        -4.8152139782905579e-01 4.6769940853118896e-01</leafValues></_>
    <_>
      <internalNodes>
        0 -1 26178 -533267308 438457329 -1146345477 958653681
        -1971582822 59985812 1132008671 -1157392952</internalNodes>
      <leafValues>
        -4.2079254984855652e-01 5.4337334632873535e-01</leafValues></_>
    <_>
      <internalNodes>
        0 -1 31841 -477605592 -1995866086 83886495 490537026 268862123
        -1205763966 780274203 1887969417</internalNodes>
      <leafValues>
        -5.0481486320495605e-01 4.6172872185707092e-01</leafValues></_>
    <_>
      <internalNodes>
        0 -1 37210 1437801031 152290580 -2147483575 1384218753 813998104
        1249902729 1208535210 816576527</internalNodes>
      <leafValues>
        -5.4671508073806763e-01 4.4381660223007202e-01</leafValues></_>
    <_>
      <internalNodes>
        0 -1 19770 -2141798224 -933953534 1073905987 -2012610232
        -1861976029 1350729885 134758532 -1924036179</internalNodes>
      <leafValues>
        -6.5011423826217651e-01 3.7066784501075745e-01</leafValues></_>
    <_>
      <internalNodes>
        0 -1 11460 -1609252734 -263503742 1157640460 1971322896
        1082278075 1250984066 58727098 1770053643</internalNodes>
      <leafValues>
        -6.2757915258407593e-01 4.2572164535522461e-01</leafValues></_></weakClassifiers></stage21>
</opencv_storage>
