<?xml version="1.0"?>
<opencv_storage>
<stage22>
  <maxWeakCount>10</maxWeakCount>
  <stageThreshold>-1.0091037750244141e+00</stageThreshold>
  <weakClassifiers>
    <_>
      <internalNodes>
        0 -1 39017 2113918502 654308207 -1107384830 -1439236122
        1870618184 -545360185 -687865857 -92275714</internalNodes>
      <leafValues>
        -4.1411042213439941e-01 5.2104210853576660e-01</leafValues></_>
    <_>
      <internalNodes>
        0 -1 31487 -189746404 4268064 -2080272191 -1995898869 1359033016
        -1064599424 -2013081592 411668649</internalNodes>
      <leafValues>
        -5.4671049118041992e-01 4.0343078970909119e-01</leafValues></_>
    <_>
      <internalNodes>
        0 -1 3314 -1962878734 1493172610 167773205 1224769797 1535255265
        -1970798560 1224736909 -1675259721</internalNodes>
      <leafValues>
        -4.8652774095535278e-01 4.6876704692840576e-01</leafValues></_>
    <_>
      <internalNodes>
        0 -1 19203 -684473670 289315830 -1481996920 2046784483
        1465730722 -523796993 533464822 -998049923</internalNodes>
      <leafValues>
        -4.1510218381881714e-01 5.7384371757507324e-01</leafValues></_>
    <_>
      <internalNodes>
        0 -1 27859 -651720304 809275392 9437484 -1941471095 591017
        -393740282 -930496340 -623214455</internalNodes>
      <leafValues>
        -5.2032625675201416e-01 4.8158210515975952e-01</leafValues></_>
    <_>
      <internalNodes>
        0 -1 39021 -2058783966 58921608 1073742088 578880132 1115783310
        -637009912 -1073563568 -1916155432</internalNodes>
      <leafValues>
        -5.9784251451492310e-01 4.2710009217262268e-01</leafValues></_>
    <_>
      <internalNodes>
        0 -1 33490 1413487128 -2012982825 1157696149 1830879234
        134286510 -1970765816 34990 -703655793</internalNodes>
      <leafValues>
        -4.8868575692176819e-01 5.6307566165924072e-01</leafValues></_>
    <_>
      <internalNodes>
        0 -1 20217 1605366738 -341348694 -1158259205 2000644705
        645905486 -318799881 -864133466 -1091289609</internalNodes>
      <leafValues>
        -5.0415921211242676e-01 5.4733091592788696e-01</leafValues></_>
    <_>
      <internalNodes>
        0 -1 22505 -1397056432 1348796251 -352878872 690847731
        1602211741 -539009025 2113863679 -1152614532</internalNodes>
      <leafValues>
        -4.3763312697410583e-01 6.3899207115173340e-01</leafValues></_>
    <_>
      <internalNodes>
        0 -1 1260 -1792329991 -244584694 -352945425 788295415 1031754963
        1868560343 -41473 -142639617</internalNodes>
      <leafValues>
        -4.6353727579116821e-01 5.8674997091293335e-01</leafValues></_></weakClassifiers></stage22>
</opencv_storage>
