<?xml version="1.0"?>
<opencv_storage>
<stage9>
  <maxWeakCount>9</maxWeakCount>
  <stageThreshold>-6.5841913223266602e-01</stageThreshold>
  <weakClassifiers>
    <_>
      <internalNodes>
        0 -1 27833 1442679043 58150412 -264246012 -589833 1585287119
        -805445681 1507850177 -1107822661</internalNodes>
      <leafValues>
        -3.2520323991775513e-01 5.3728067874908447e-01</leafValues></_>
    <_>
      <internalNodes>
        0 -1 9434 -1935484232 -1079330318 1031567347 1207022973
        905559628 -1115783180 895774684 -34212417</internalNodes>
      <leafValues>
        -4.2806723713874817e-01 4.6673136949539185e-01</leafValues></_>
    <_>
      <internalNodes>
        0 -1 27389 -871047784 -1977875954 1208111361 -698814262
        1535412672 302786696 1266725325 -1852850019</internalNodes>
      <leafValues>
        -5.3050243854522705e-01 3.6930185556411743e-01</leafValues></_>
    <_>
      <internalNodes>
        0 -1 10371 -1639543506 -570162470 1212223804 -740851517
        847499753 -2147188576 1367853579 1369645707</internalNodes>
      <leafValues>
        -4.9970847368240356e-01 4.1686269640922546e-01</leafValues></_>
    <_>
      <internalNodes>
        0 -1 35114 1400081354 806955919 -1996027246 1411088546 168104336
        1883276312 -444544852 -187714533</internalNodes>
      <leafValues>
        -5.2942901849746704e-01 4.1146081686019897e-01</leafValues></_>
    <_>
      <internalNodes>
        0 -1 28218 1823693946 1495418108 -362523179 1001588313
        -1695659780 -1624793991 145244639 -933669601</internalNodes>
      <leafValues>
        -4.1189432144165039e-01 5.3208589553833008e-01</leafValues></_>
    <_>
      <internalNodes>
        0 -1 26570 -1782312872 68426840 18624 1268271114 33556652
        -394164206 998278187 -575067462</internalNodes>
      <leafValues>
        -5.3360116481781006e-01 4.3685889244079590e-01</leafValues></_>
    <_>
      <internalNodes>
        0 -1 2438 -140005617 2112876462 -1358954753 -257560594 121490987
        2088763263 -2068363673 -194119825</internalNodes>
      <leafValues>
        -4.5769473910331726e-01 5.0173884630203247e-01</leafValues></_>
    <_>
      <internalNodes>
        0 -1 40257 -740846904 -536018939 17842432 -1036976047 -268147673
        151159296 16875682 -1013986161</internalNodes>
      <leafValues>
        -5.5883896350860596e-01 4.5148718357086182e-01</leafValues></_></weakClassifiers></stage9>
</opencv_storage>
