<?xml version="1.0"?>
<opencv_storage>
<stage20>
  <maxWeakCount>9</maxWeakCount>
  <stageThreshold>-4.8070469498634338e-01</stageThreshold>
  <weakClassifiers>
    <_>
      <internalNodes>
        0 -1 17632 17252386 -838898574 -201759141 -713296643 -717654699
        1275064059 1677549534 -1043216213</internalNodes>
      <leafValues>
        -4.4736841320991516e-01 5.0095969438552856e-01</leafValues></_>
    <_>
      <internalNodes>
        0 -1 274 229305007 -806622226 -1073860621 -144732346 196556639
        -16393 -1908934657 -403213290</internalNodes>
      <leafValues>
        -3.9750874042510986e-01 5.3310859203338623e-01</leafValues></_>
    <_>
      <internalNodes>
        0 -1 34793 1242586713 -778927973 -1794161269 -1156397039
        -1977403204 -477101815 -2013249318 143966865</internalNodes>
      <leafValues>
        -4.4513791799545288e-01 4.9032300710678101e-01</leafValues></_>
    <_>
      <internalNodes>
        0 -1 8589 -1150552386 -1745654098 -1481873666 -1955151957
        792211326 771439996 1190485237 -634064905</internalNodes>
      <leafValues>
        -4.5445621013641357e-01 4.9580407142639160e-01</leafValues></_>
    <_>
      <internalNodes>
        0 -1 1291 -2124050865 -167591295 -2139095032 -1801435000
        -1073387958 1505820672 1628258835 1507148554</internalNodes>
      <leafValues>
        -5.0972950458526611e-01 4.5972707867622375e-01</leafValues></_>
    <_>
      <internalNodes>
        0 -1 2829 -453860721 -1978978236 -385810323 -1576075191 10731609
        191168521 159490690 924963416</internalNodes>
      <leafValues>
        -6.1045891046524048e-01 4.3187528848648071e-01</leafValues></_>
    <_>
      <internalNodes>
        0 -1 24712 -854915456 1085407360 -2146418279 -578441147
        336070842 -1593835390 -2075015993 1360785103</internalNodes>
      <leafValues>
        -6.3081979751586914e-01 3.9446592330932617e-01</leafValues></_>
    <_>
      <internalNodes>
        0 -1 25869 -1725060612 352468836 -1350586573 2134863797
        170667724 -550043785 -1662740673 -1917479850</internalNodes>
      <leafValues>
        -4.8996129631996155e-01 5.3657716512680054e-01</leafValues></_>
    <_>
      <internalNodes>
        0 -1 19497 -79972199 -1836847437 -1170707672 1397205720
        -1703772114 -73634195 -1838359285 -606108665</internalNodes>
      <leafValues>
        -3.3495599031448364e-01 7.6959878206253052e-01</leafValues></_></weakClassifiers></stage20>
</opencv_storage>
