<?xml version="1.0"?>
<opencv_storage>
<stage2>
  <maxWeakCount>6</maxWeakCount>
  <stageThreshold>-1.3910237550735474e+00</stageThreshold>
  <weakClassifiers>
    <_>
      <internalNodes>
        0 -1 15714 -525940734 1630266146 -487150556 1404960663
        -722549108 -16809987 1426052319 -4595729</internalNodes>
      <leafValues>
        -4.8632219433784485e-01 5.7459676265716553e-01</leafValues></_>
    <_>
      <internalNodes>
        0 -1 21935 -243730128 1092632582 -251504316 -585911927
        -2063447826 -1744191479 1971885184 -570708253</internalNodes>
      <leafValues>
        -6.0050153732299805e-01 4.8390924930572510e-01</leafValues></_>
    <_>
      <internalNodes>
        0 -1 28577 235421712 321961985 423741701 995213392 -1182708551
        -636287357 1233717387 467360507</internalNodes>
      <leafValues>
        -6.3609373569488525e-01 4.1742694377899170e-01</leafValues></_>
    <_>
      <internalNodes>
        0 -1 1793 -899421654 -937752026 65560 1380172509 1682114663
        8585256 269099101 -618718366</internalNodes>
      <leafValues>
        -6.2933659553527832e-01 4.4609144330024719e-01</leafValues></_>
    <_>
      <internalNodes>
        0 -1 36745 -69733734 1078432154 33898642 10027270 -1033594740
        35586184 277512389 -537928757</internalNodes>
      <leafValues>
        -5.4745054244995117e-01 5.0838577747344971e-01</leafValues></_>
    <_>
      <internalNodes>
        0 -1 19642 -669257120 -662634494 134217863 -626719971 25696313
        -75497344 29378759 -19164445</internalNodes>
      <leafValues>
        -6.3823693990707397e-01 4.4776186347007751e-01</leafValues></_></weakClassifiers></stage2>
</opencv_storage>
