<?xml version="1.0"?>
<opencv_storage>
<stage15>
  <maxWeakCount>8</maxWeakCount>
  <stageThreshold>-1.0198730230331421e+00</stageThreshold>
  <weakClassifiers>
    <_>
      <internalNodes>
        0 -1 21106 1137148035 -1978994721 1195365169 -541065289
        1329515854 1320673279 -1610618909 -809500675</internalNodes>
      <leafValues>
        -2.9988053441047668e-01 6.1623615026473999e-01</leafValues></_>
    <_>
      <internalNodes>
        0 -1 1427 1313818814 -502804345 1079066753 1631752213 1342932995
        805962113 -1056866173 1579213711</internalNodes>
      <leafValues>
        -4.4364240765571594e-01 4.7967031598091125e-01</leafValues></_>
    <_>
      <internalNodes>
        0 -1 3589 1087488203 -2125381510 83891211 17661953 847278113
        -1928298368 278176010 522413225</internalNodes>
      <leafValues>
        -5.2126693725585938e-01 4.0982857346534729e-01</leafValues></_>
    <_>
      <internalNodes>
        0 -1 36217 -949665230 411851009 1359026242 259102859 13279438
        822313088 1074299275 -1080315198</internalNodes>
      <leafValues>
        -4.7029110789299011e-01 4.8384651541709900e-01</leafValues></_>
    <_>
      <internalNodes>
        0 -1 4863 -448282070 1833080981 103092 -1774169906 180488198
        1208189185 1762242563 -212881405</internalNodes>
      <leafValues>
        -5.6061458587646484e-01 4.1156041622161865e-01</leafValues></_>
    <_>
      <internalNodes>
        0 -1 33172 -553127164 1229063042 -1794883245 84099363 1895858184
        1216905219 268435587 197775547</internalNodes>
      <leafValues>
        -6.1021351814270020e-01 4.0998420119285583e-01</leafValues></_>
    <_>
      <internalNodes>
        0 -1 12698 595846627 -620624894 352387089 -1609494400
        -2146326067 -1979187200 25528715 346128541</internalNodes>
      <leafValues>
        -4.6674960851669312e-01 5.6453794240951538e-01</leafValues></_>
    <_>
      <internalNodes>
        0 -1 40591 -908599090 29737185 402657568 165579025 16917027
        1476395010 164531 -991001909</internalNodes>
      <leafValues>
        -4.9953445792198181e-01 4.9837744235992432e-01</leafValues></_></weakClassifiers></stage15>
</opencv_storage>
