<?xml version="1.0"?>
<opencv_storage>
<stage8>
  <maxWeakCount>12</maxWeakCount>
  <stageThreshold>-9.2242819070816040e-01</stageThreshold>
  <weakClassifiers>
    <_>
      <internalNodes>
        0 -1 2401 -903164969 -288714822 -218108190 2051059670 91234125
        -2059896980 -186253386 -1034697921</internalNodes>
      <leafValues>
        -2.6473987102508545e-01 4.2824858427047729e-01</leafValues></_>
    <_>
      <internalNodes>
        0 -1 23926 513607088 286872257 -2063412415 -115480173
        -1978962872 -617955131 -2078774574 -269561831</internalNodes>
      <leafValues>
        -3.8128167390823364e-01 3.4214004874229431e-01</leafValues></_>
    <_>
      <internalNodes>
        0 -1 18344 1217382082 186294417 1627408179 1338100873
        -1289720766 -1719005181 -1392266791 -347485842</internalNodes>
      <leafValues>
        -3.7993267178535461e-01 3.5374844074249268e-01</leafValues></_>
    <_>
      <internalNodes>
        0 -1 20275 -910306405 518368864 -419816593 -833654918 2075746219
        251494380 519425947 1304157100</internalNodes>
      <leafValues>
        -3.2800772786140442e-01 4.1805055737495422e-01</leafValues></_>
    <_>
      <internalNodes>
        0 -1 31215 -1504230397 609435649 -1073676090 1615073603
        168312833 487178249 2013479012 1760057617</internalNodes>
      <leafValues>
        -6.3254666328430176e-01 2.3781442642211914e-01</leafValues></_>
    <_>
      <internalNodes>
        0 -1 16708 -110705942 408684649 -1861214587 1577175502
        1512119681 1744912512 -486387518 -15961984</internalNodes>
      <leafValues>
        -4.6478515863418579e-01 3.3055657148361206e-01</leafValues></_>
    <_>
      <internalNodes>
        0 -1 32791 -702820197 -1170240593 2092900785 -873201747
        394131132 -2017493163 -2021685293 -2088903175</internalNodes>
      <leafValues>
        -3.3290475606918335e-01 4.8717004060745239e-01</leafValues></_>
    <_>
      <internalNodes>
        0 -1 1374 -1717346573 -96211402 -1141479175 174679679 -281614594
        -15000834 -1807508769 2086927181</internalNodes>
      <leafValues>
        -3.2597711682319641e-01 4.9863904714584351e-01</leafValues></_>
    <_>
      <internalNodes>
        0 -1 26077 -605765613 1062116921 1405024475 -1659125764
        846110696 1144848368 461264216 -1641621769</internalNodes>
      <leafValues>
        -3.4265434741973877e-01 4.9301797151565552e-01</leafValues></_>
    <_>
      <internalNodes>
        0 -1 30099 1027704252 194003333 1610612945 1494270298
        -2075538531 -267907070 1376231782 1532518557</internalNodes>
      <leafValues>
        -4.3056002259254456e-01 3.8292655348777771e-01</leafValues></_>
    <_>
      <internalNodes>
        0 -1 9804 333531946 -1022017468 1476495517 -998144807 621539351
        1222647841 1136705671 -1063825401</internalNodes>
      <leafValues>
        -4.7195261716842651e-01 3.5364356637001038e-01</leafValues></_>
    <_>
      <internalNodes>
        0 -1 1394 2128862969 1256652599 -402653442 -1694880148
        1206276949 -545260033 326326213 -9705626</internalNodes>
      <leafValues>
        -3.4864178299903870e-01 4.9423301219940186e-01</leafValues></_></weakClassifiers></stage8>
</opencv_storage>
