<?xml version="1.0"?>
<opencv_storage>
<stage20>
  <maxWeakCount>11</maxWeakCount>
  <stageThreshold>-9.8607981204986572e-01</stageThreshold>
  <weakClassifiers>
    <_>
      <internalNodes>
        0 -1 20044 -27604585 -820504 -1107824659 1551699579 -1660969495
        -17139780 1059569095 192692356</internalNodes>
      <leafValues>
        -2.6722338795661926e-01 5.1262629032135010e-01</leafValues></_>
    <_>
      <internalNodes>
        0 -1 25006 -127694398 3611761 351727347 1677545374 20072094
        -1156281521 980899660 -270965845</internalNodes>
      <leafValues>
        -3.2636702060699463e-01 4.3893808126449585e-01</leafValues></_>
    <_>
      <internalNodes>
        0 -1 6630 -1257746146 -772177791 58788899 -1445559128 1931028924
        2123366528 -804609992 702652482</internalNodes>
      <leafValues>
        -3.7733951210975647e-01 3.9984592795372009e-01</leafValues></_>
    <_>
      <internalNodes>
        0 -1 14194 1588286235 -1623900245 -1486983668 -1895831198
        -1159584251 1062960893 -1074413925 -1183916091</internalNodes>
      <leafValues>
        -3.6961740255355835e-01 4.9548617005348206e-01</leafValues></_>
    <_>
      <internalNodes>
        0 -1 23815 -149484082 256365144 406868038 688478215 1502675819
        145752073 1623212324 -477376509</internalNodes>
      <leafValues>
        -4.3432536721229553e-01 3.9311331510543823e-01</leafValues></_>
    <_>
      <internalNodes>
        0 -1 30370 -1073577448 1930735808 -1878781691 1327055312
        553746458 2247323 1610682988 1242080297</internalNodes>
      <leafValues>
        -4.9303334951400757e-01 3.8102859258651733e-01</leafValues></_>
    <_>
      <internalNodes>
        0 -1 17736 -1496221347 -790624863 -2130667186 1298188417
        822157413 -939286309 -1540588832 1005347368</internalNodes>
      <leafValues>
        -5.1187640428543091e-01 3.6666664481163025e-01</leafValues></_>
    <_>
      <internalNodes>
        0 -1 33087 -762448233 1290784578 -545495238 -855902859
        -1883456360 -134283449 -1921763851 -977276529</internalNodes>
      <leafValues>
        -2.8107380867004395e-01 7.0249569416046143e-01</leafValues></_>
    <_>
      <internalNodes>
        0 -1 36378 -377543314 -2006381495 -335781893 359864951
        1786756227 634355706 1522187502 -1204776977</internalNodes>
      <leafValues>
        -4.0425267815589905e-01 5.0428360700607300e-01</leafValues></_>
    <_>
      <internalNodes>
        0 -1 12401 -269569199 -39669778 -16875789 -442138691 -1913135141
        1182054263 2122102701 -1380487048</internalNodes>
      <leafValues>
        -2.7584564685821533e-01 7.0545488595962524e-01</leafValues></_>
    <_>
      <internalNodes>
        0 -1 1363 1530284705 1812708884 -285327639 -11419649 -8860042
        1327839222 -1611020306 -367239315</internalNodes>
      <leafValues>
        -3.9490413665771484e-01 4.9691712856292725e-01</leafValues></_></weakClassifiers></stage20>
</opencv_storage>
