<?xml version="1.0"?>
<opencv_storage>
<stage4>
  <maxWeakCount>12</maxWeakCount>
  <stageThreshold>-9.1940391063690186e-01</stageThreshold>
  <weakClassifiers>
    <_>
      <internalNodes>
        0 -1 27796 -621098381 1065336687 -1342259341 721256375
        2130427647 1879011319 1019116663 -1170309259</internalNodes>
      <leafValues>
        -2.8841608762741089e-01 4.3584069609642029e-01</leafValues></_>
    <_>
      <internalNodes>
        0 -1 2491 -142373670 -871923621 8552700 1108018202 53497871
        -838794750 151081869 1618191211</internalNodes>
      <leafValues>
        -4.8514315485954285e-01 2.9276394844055176e-01</leafValues></_>
    <_>
      <internalNodes>
        0 -1 39458 -1073817119 561114927 1878929200 1408367278
        -444619329 246333421 -198879822 -731125253</internalNodes>
      <leafValues>
        -3.2371649146080017e-01 4.4894993305206299e-01</leafValues></_>
    <_>
      <internalNodes>
        0 -1 31267 1635239504 294653955 8544600 556029011 25617318
        1367654400 -1741995377 -1373777705</internalNodes>
      <leafValues>
        -4.0783542394638062e-01 3.5443589091300964e-01</leafValues></_>
    <_>
      <internalNodes>
        0 -1 25636 -780085221 -4240294 666762145 -307373579 1601387994
        1062729183 -574662189 2067789303</internalNodes>
      <leafValues>
        -3.2106274366378784e-01 5.0863903760910034e-01</leafValues></_>
    <_>
      <internalNodes>
        0 -1 30877 359317504 1892681729 33640455 1360036561 -1894661888
        386926754 470599834 1343792539</internalNodes>
      <leafValues>
        -5.4284268617630005e-01 3.0746600031852722e-01</leafValues></_>
    <_>
      <internalNodes>
        0 -1 4973 -409812458 1243287625 1078493185 87115788 2049345930
        -1946124278 318974890 -32974193</internalNodes>
      <leafValues>
        -3.6048468947410583e-01 4.6769380569458008e-01</leafValues></_>
    <_>
      <internalNodes>
        0 -1 1946 641926023 1636878341 1074335819 1359500097 51232774
        -2142240639 269369345 1437847640</internalNodes>
      <leafValues>
        -5.7851070165634155e-01 3.0945318937301636e-01</leafValues></_>
    <_>
      <internalNodes>
        0 -1 37144 -660628069 1979367220 -86082 -2114797767 1474199534
        -2046821833 -17630035 -1609982799</internalNodes>
      <leafValues>
        -3.1595942378044128e-01 5.5198061466217041e-01</leafValues></_>
    <_>
      <internalNodes>
        0 -1 23636 -820022078 -248954727 46142561 152163285 2031659219
        1957761832 -2147464609 46228723</internalNodes>
      <leafValues>
        -5.2947103977203369e-01 3.4429678320884705e-01</leafValues></_>
    <_>
      <internalNodes>
        0 -1 19599 2045264720 -4915521 -1082146945 -537190539 2147483134
        -8617995 -537602562 -911575067</internalNodes>
      <leafValues>
        -3.9919361472129822e-01 4.6300005912780762e-01</leafValues></_>
    <_>
      <internalNodes>
        0 -1 25197 -1056619702 -1840250844 1073813585 1901855171
        -1861482043 1090593281 -385177441 1530497355</internalNodes>
      <leafValues>
        -4.5301416516304016e-01 4.1295927762985229e-01</leafValues></_></weakClassifiers></stage4>
</opencv_storage>
