<?xml version="1.0"?>
<opencv_storage>
<stage28>
  <maxWeakCount>10</maxWeakCount>
  <stageThreshold>-7.4936336278915405e-01</stageThreshold>
  <weakClassifiers>
    <_>
      <internalNodes>
        0 -1 2650 -1346382965 -605310982 -1359032529 1350364788
        -881492127 804992888 937230273 1594054627</internalNodes>
      <leafValues>
        -2.5000000000000000e-01 6.1651915311813354e-01</leafValues></_>
    <_>
      <internalNodes>
        0 -1 15555 -922050224 2046051030 1592242011 1386108459
        -1474137414 1371421684 -667218946 -1438113717</internalNodes>
      <leafValues>
        -3.8020056486129761e-01 4.6844437718391418e-01</leafValues></_>
    <_>
      <internalNodes>
        0 -1 17674 597935344 657284846 1610498037 2002730992 1681686164
        -1074954241 -935813701 -1684535951</internalNodes>
      <leafValues>
        -3.9590048789978027e-01 4.9662163853645325e-01</leafValues></_>
    <_>
      <internalNodes>
        0 -1 36128 1606497992 470155296 -2147467168 1607049 -1602068328
        -1316913016 28911 577401293</internalNodes>
      <leafValues>
        -5.6494730710983276e-01 3.6766019463539124e-01</leafValues></_>
    <_>
      <internalNodes>
        0 -1 3368 -608818971 867427820 -1897201799 2012341181 731883323
        -831539354 -1291960817 -712888287</internalNodes>
      <leafValues>
        -3.5295939445495605e-01 5.7244151830673218e-01</leafValues></_>
    <_>
      <internalNodes>
        0 -1 31505 -531722680 1697014789 131344 -670194752 -1558183758
        -1314324478 1084248585 1093691804</internalNodes>
      <leafValues>
        -5.3606927394866943e-01 4.1457998752593994e-01</leafValues></_>
    <_>
      <internalNodes>
        0 -1 26405 -541200519 -1998917889 1809513958 780238835
        1072622957 432373757 -1770168895 -1832545214</internalNodes>
      <leafValues>
        -4.3354189395904541e-01 5.1603633165359497e-01</leafValues></_>
    <_>
      <internalNodes>
        0 -1 36339 661910022 208363105 2130692274 -1742618973 2088725658
        -36229121 1702798554 2047229818</internalNodes>
      <leafValues>
        -4.6651041507720947e-01 5.0004446506500244e-01</leafValues></_>
    <_>
      <internalNodes>
        0 -1 19459 -725340072 269713630 1409751119 1400963088 539781687
        2047344640 -762871757 1269570819</internalNodes>
      <leafValues>
        -5.2633386850357056e-01 4.7612679004669189e-01</leafValues></_>
    <_>
      <internalNodes>
        0 -1 3297 -2130622185 -2063593384 16780501 1569882120
        -2122284864 807436424 -1744686901 1100564481</internalNodes>
      <leafValues>
        -4.5002004504203796e-01 5.0912559032440186e-01</leafValues></_></weakClassifiers></stage28>
</opencv_storage>
