<?xml version="1.0"?>
<opencv_storage>
<stage19>
  <maxWeakCount>11</maxWeakCount>
  <stageThreshold>-1.2079277038574219e+00</stageThreshold>
  <weakClassifiers>
    <_>
      <internalNodes>
        0 -1 27930 231162167 550717456 16896257 -2142584810 1074552839
        1476464770 -1602075898 -331168956</internalNodes>
      <leafValues>
        -4.9348232150077820e-01 3.4212696552276611e-01</leafValues></_>
    <_>
      <internalNodes>
        0 -1 24532 -614416311 -62701155 1342784581 -2117793111
        -803073990 -1610382407 730481421 797704792</internalNodes>
      <leafValues>
        -3.9590251445770264e-01 3.9096027612686157e-01</leafValues></_>
    <_>
      <internalNodes>
        0 -1 36847 -214710645 -1429378899 -142723996 85720374 804761566
        1814294386 -680021536 1323556311</internalNodes>
      <leafValues>
        -3.7676638364791870e-01 4.3877428770065308e-01</leafValues></_>
    <_>
      <internalNodes>
        0 -1 39171 -2005990949 170735782 930031138 1902763898
        -1359878711 1824358269 385852817 -579667470</internalNodes>
      <leafValues>
        -2.9139229655265808e-01 5.5839014053344727e-01</leafValues></_>
    <_>
      <internalNodes>
        0 -1 31945 -718015173 -1674307548 -564707625 686796431 771729023
        1457519863 224267612 -1190999037</internalNodes>
      <leafValues>
        -3.7371996045112610e-01 4.9981096386909485e-01</leafValues></_>
    <_>
      <internalNodes>
        0 -1 21917 -684206733 2033251961 -1413558296 -549456092
        -1745316123 -335872009 -1414548257 -1144501003</internalNodes>
      <leafValues>
        -3.0122974514961243e-01 5.8942216634750366e-01</leafValues></_>
    <_>
      <internalNodes>
        0 -1 32818 -1140864954 -1276121225 -25180254 1933279214
        1065319624 659521374 1986943582 1668560373</internalNodes>
      <leafValues>
        -4.1075658798217773e-01 4.6759578585624695e-01</leafValues></_>
    <_>
      <internalNodes>
        0 -1 21447 1695404680 8921600 -471085744 -761578875 566329358
        1292079117 469794865 -1375024462</internalNodes>
      <leafValues>
        -5.1897603273391724e-01 3.7052583694458008e-01</leafValues></_>
    <_>
      <internalNodes>
        0 -1 24529 84235660 -15675071 352387396 1463947614 -587097216
        -1332117080 -2012721004 1544841216</internalNodes>
      <leafValues>
        -5.3288990259170532e-01 3.5013329982757568e-01</leafValues></_>
    <_>
      <internalNodes>
        0 -1 31392 1772107063 -1605840563 -1794047533 -934276342
        683673601 -400504693 1117929539 -157884415</internalNodes>
      <leafValues>
        -5.2554750442504883e-01 3.8119909167289734e-01</leafValues></_>
    <_>
      <internalNodes>
        0 -1 23958 -398215940 -762629564 -1056607999 -1073643352
        35852523 268763215 57481 2015930887</internalNodes>
      <leafValues>
        -4.7988784313201904e-01 4.1409346461296082e-01</leafValues></_></weakClassifiers></stage19>
</opencv_storage>
