<?xml version="1.0"?>
<opencv_storage>
<stage22>
  <maxWeakCount>10</maxWeakCount>
  <stageThreshold>-6.8476736545562744e-01</stageThreshold>
  <weakClassifiers>
    <_>
      <internalNodes>
        0 -1 26828 -817666798 2069325645 1711223885 1293696271
        -797095837 258822118 1585231351 -744714589</internalNodes>
      <leafValues>
        -2.7619048953056335e-01 5.1055902242660522e-01</leafValues></_>
    <_>
      <internalNodes>
        0 -1 20061 -233831205 -1660141294 -1878974321 361826005
        -893153105 -662126384 -1975004496 206309728</internalNodes>
      <leafValues>
        -4.2503607273101807e-01 3.9171916246414185e-01</leafValues></_>
    <_>
      <internalNodes>
        0 -1 39984 -2070805125 306753599 1098942475 -44195440 1342222521
        -1987993294 1371614747 447223817</internalNodes>
      <leafValues>
        -4.1428917646408081e-01 4.0807586908340454e-01</leafValues></_>
    <_>
      <internalNodes>
        0 -1 1681 -1387926957 185770157 20802 286621728 1107690052
        1363181576 1477066816 1173848608</internalNodes>
      <leafValues>
        -5.1550906896591187e-01 3.4493649005889893e-01</leafValues></_>
    <_>
      <internalNodes>
        0 -1 325 -2035620929 1073509435 -33850627 436201979 122107822
        -275949571 -1353957458 -628210259</internalNodes>
      <leafValues>
        -3.4816461801528931e-01 6.0255467891693115e-01</leafValues></_>
    <_>
      <internalNodes>
        0 -1 19449 -943945505 1054564013 586975940 732151167 771218628
        -327254460 -1630022056 1021263831</internalNodes>
      <leafValues>
        -3.3276712894439697e-01 5.6610131263732910e-01</leafValues></_>
    <_>
      <internalNodes>
        0 -1 615 -906893611 2128683763 1409280751 -93621583 -747700269
        -1888207617 1294763843 -11803841</internalNodes>
      <leafValues>
        -2.6036927103996277e-01 7.3400300741195679e-01</leafValues></_>
    <_>
      <internalNodes>
        0 -1 27429 -922532860 1075028068 105156760 604569871 984635776
        1620049946 -1568620432 1160489187</internalNodes>
      <leafValues>
        -6.0690122842788696e-01 3.6062136292457581e-01</leafValues></_>
    <_>
      <internalNodes>
        0 -1 31503 -181426028 925597269 -72566990 295304095 -1493200954
        8189815 1920771931 -354722999</internalNodes>
      <leafValues>
        -3.9099827408790588e-01 5.4017859697341919e-01</leafValues></_>
    <_>
      <internalNodes>
        0 -1 24551 -1927983021 1418739904 -2013232878 455278737
        -933064681 -1476394486 809537087 445565488</internalNodes>
      <leafValues>
        -4.3928021192550659e-01 4.8472651839256287e-01</leafValues></_></weakClassifiers></stage22>
</opencv_storage>
