<?xml version="1.0"?>
<opencv_storage>
<stage13>
  <maxWeakCount>11</maxWeakCount>
  <stageThreshold>-6.8566310405731201e-01</stageThreshold>
  <weakClassifiers>
    <_>
      <internalNodes>
        0 -1 13598 941883584 524400915 1904230616 251992580 -1047163874
        1377861776 1075923715 226581149</internalNodes>
      <leafValues>
        -5.0961536169052124e-01 2.7136433124542236e-01</leafValues></_>
    <_>
      <internalNodes>
        0 -1 21659 1431562688 673550384 -1810345839 85004633 814897857
        1342970314 1707090994 -195368657</internalNodes>
      <leafValues>
        -4.7640582919120789e-01 2.4650491774082184e-01</leafValues></_>
    <_>
      <internalNodes>
        0 -1 1423 -978206677 1606061062 -1368461648 -633603080 128421103
        -855900207 385314192 -584527897</internalNodes>
      <leafValues>
        -2.5203722715377808e-01 4.9183195829391479e-01</leafValues></_>
    <_>
      <internalNodes>
        0 -1 14321 1076632324 901808898 704747805 853332081 548972969
        -322301777 -79036319 42496180</internalNodes>
      <leafValues>
        -5.5361682176589966e-01 2.3422132432460785e-01</leafValues></_>
    <_>
      <internalNodes>
        0 -1 2002 929033791 -672140671 -1339294078 -74482005 -2030654197
        -15503364 -492373015 -1722056715</internalNodes>
      <leafValues>
        -2.5411415100097656e-01 5.5826604366302490e-01</leafValues></_>
    <_>
      <internalNodes>
        0 -1 20694 1914406994 734088161 197249 1904562449 -1794455548
        -1714355559 -754130485 1508711226</internalNodes>
      <leafValues>
        -3.6484706401824951e-01 3.8275459408760071e-01</leafValues></_>
    <_>
      <internalNodes>
        0 -1 16436 240499882 692159252 -1056947814 272077008 166809
        1368526914 -519876526 128143666</internalNodes>
      <leafValues>
        -5.6653505563735962e-01 2.4601520597934723e-01</leafValues></_>
    <_>
      <internalNodes>
        0 -1 28127 -93074729 1511208496 -138412249 263553005 -545368954
        -1384190209 318367065 -1344340625</internalNodes>
      <leafValues>
        -3.1076103448867798e-01 5.2788847684860229e-01</leafValues></_>
    <_>
      <internalNodes>
        0 -1 8910 -1367444554 -676349253 -826351721 1550806636 629143312
        -1929682961 1438076911 891700459</internalNodes>
      <leafValues>
        -3.7031316757202148e-01 4.2361283302307129e-01</leafValues></_>
    <_>
      <internalNodes>
        0 -1 15259 -1386407 2146179586 -1409302561 -8423775 1860677306
        1072625521 592797133 -542119298</internalNodes>
      <leafValues>
        -2.6509296894073486e-01 6.4528775215148926e-01</leafValues></_>
    <_>
      <internalNodes>
        0 -1 570 134706858 -1441443582 541073 1141065729 1111507362
        1364344960 -2088514540 842274000</internalNodes>
      <leafValues>
        -5.9184819459915161e-01 2.7879953384399414e-01</leafValues></_></weakClassifiers></stage13>
</opencv_storage>
