<?xml version="1.0"?>
<opencv_storage>
<stage32>
  <maxWeakCount>10</maxWeakCount>
  <stageThreshold>-1.0389181375503540e+00</stageThreshold>
  <weakClassifiers>
    <_>
      <internalNodes>
        0 -1 15539 -1268690537 388549652 230580752 -1934831933
        -1870473189 1555985779 825829210 1498074310</internalNodes>
      <leafValues>
        -2.8028294444084167e-01 7.5444263219833374e-01</leafValues></_>
    <_>
      <internalNodes>
        0 -1 1732 -519329411 -1003321373 712784483 1470566143
        -2028295029 -1493545866 1852925340 1932578670</internalNodes>
      <leafValues>
        -2.6866263151168823e-01 8.6045563220977783e-01</leafValues></_>
    <_>
      <internalNodes>
        0 -1 32847 -5612507 800546575 -16810322 586743799 796901142
        2135949183 -1392612634 -20824714</internalNodes>
      <leafValues>
        -4.4097664952278137e-01 5.8619219064712524e-01</leafValues></_>
    <_>
      <internalNodes>
        0 -1 16974 1384185874 -2146695806 -805171197 -800063103
        -1073479539 41975818 1073877505 -1892663015</internalNodes>
      <leafValues>
        -5.4683554172515869e-01 5.3404051065444946e-01</leafValues></_>
    <_>
      <internalNodes>
        0 -1 32007 -1121856670 1546853907 -49316 -1158720177 381453493
        -830669345 -1786995587 1226869482</internalNodes>
      <leafValues>
        -4.6034303307533264e-01 6.5643215179443359e-01</leafValues></_>
    <_>
      <internalNodes>
        0 -1 19458 -744179176 -127326606 528397267 862976948 -998461302
        -1501694209 -1973033790 1213263296</internalNodes>
      <leafValues>
        -4.4110351800918579e-01 6.6208803653717041e-01</leafValues></_>
    <_>
      <internalNodes>
        0 -1 10629 -2052893006 329878425 -1258819712 -1564715337
        263479229 -1770651876 628397951 1994413277</internalNodes>
      <leafValues>
        -4.3920126557350159e-01 6.9037294387817383e-01</leafValues></_>
    <_>
      <internalNodes>
        0 -1 27509 439217677 -568198483 -545325674 532348605 1945591427
        804544383 395828727 998235518</internalNodes>
      <leafValues>
        -4.1751113533973694e-01 7.5930982828140259e-01</leafValues></_>
    <_>
      <internalNodes>
        0 -1 17632 1495927642 -699230214 -1191192858 -1033099202
        1560127212 -839096803 46178066 1321996619</internalNodes>
      <leafValues>
        -4.6633788943290710e-01 6.8226855993270874e-01</leafValues></_>
    <_>
      <internalNodes>
        0 -1 39336 1628799122 -721420223 16705 1210351881 -2008842173
        1107296640 -1862107008 1124190848</internalNodes>
      <leafValues>
        -5.8938640356063843e-01 5.7839250564575195e-01</leafValues></_></weakClassifiers></stage32>
</opencv_storage>
