<?xml version="1.0"?>
<opencv_storage>
<stage23>
  <maxWeakCount>34</maxWeakCount>
  <stageThreshold>-1.0812084674835205e+00</stageThreshold>
  <weakClassifiers>
    <_>
      <internalNodes>
        0 -1 298473 -1.8802923150360584e-03</internalNodes>
      <leafValues>
        4.2590430378913879e-01 -1.4501892030239105e-01</leafValues></_>
    <_>
      <internalNodes>
        0 -1 161906 1.0584426345303655e-03</internalNodes>
      <leafValues>
        -2.2566977143287659e-01 3.2493963837623596e-01</leafValues></_>
    <_>
      <internalNodes>
        0 -1 1117257 -5.3529087454080582e-03</internalNodes>
      <leafValues>
        7.2613161802291870e-01 -9.5746852457523346e-02</leafValues></_>
    <_>
      <internalNodes>
        0 -1 413720 -3.3723225351423025e-04</internalNodes>
      <leafValues>
        -4.5033928751945496e-01 1.3003125786781311e-01</leafValues></_>
    <_>
      <internalNodes>
        0 -1 401212 6.4933542162179947e-03</internalNodes>
      <leafValues>
        -1.3507042825222015e-01 4.6275338530540466e-01</leafValues></_>
    <_>
      <internalNodes>
        0 -1 301782 -5.1263468340039253e-03</internalNodes>
      <leafValues>
        -8.9024800062179565e-01 9.0838432312011719e-02</leafValues></_>
    <_>
      <internalNodes>
        0 -1 1044987 6.4795494079589844e-02</internalNodes>
      <leafValues>
        -9.8019614815711975e-02 7.9642587900161743e-01</leafValues></_>
    <_>
      <internalNodes>
        0 -1 1174272 -8.5916351526975632e-03</internalNodes>
      <leafValues>
        -6.3575619459152222e-01 1.0476703941822052e-01</leafValues></_>
    <_>
      <internalNodes>
        0 -1 1160287 -1.6542610246688128e-03</internalNodes>
      <leafValues>
        5.1536619663238525e-01 -1.1138383299112320e-01</leafValues></_>
    <_>
      <internalNodes>
        0 -1 184378 -6.6663883626461029e-04</internalNodes>
      <leafValues>
        4.9566486477851868e-01 -1.2410938739776611e-01</leafValues></_>
    <_>
      <internalNodes>
        0 -1 898171 2.4255011230707169e-03</internalNodes>
      <leafValues>
        -9.7027406096458435e-02 6.0551559925079346e-01</leafValues></_>
    <_>
      <internalNodes>
        0 -1 268831 1.0999315418303013e-03</internalNodes>
      <leafValues>
        -1.8442779779434204e-01 3.2316827774047852e-01</leafValues></_>
    <_>
      <internalNodes>
        0 -1 1174236 1.5215821331366897e-03</internalNodes>
      <leafValues>
        8.7313622236251831e-02 -6.5778440237045288e-01</leafValues></_>
    <_>
      <internalNodes>
        0 -1 887787 2.3311052063945681e-04</internalNodes>
      <leafValues>
        7.8024506568908691e-02 -6.5209490060806274e-01</leafValues></_>
    <_>
      <internalNodes>
        0 -1 389924 -5.5561747401952744e-02</internalNodes>
      <leafValues>
        -6.7365366220474243e-01 7.1116656064987183e-02</leafValues></_>
    <_>
      <internalNodes>
        0 -1 541325 -6.4811995252966881e-04</internalNodes>
      <leafValues>
        3.9191955327987671e-01 -1.5650995075702667e-01</leafValues></_>
    <_>
      <internalNodes>
        0 -1 737646 -1.3885213993489742e-03</internalNodes>
      <leafValues>
        4.1669550538063049e-01 -1.4952237904071808e-01</leafValues></_>
    <_>
      <internalNodes>
        0 -1 42643 2.6110149919986725e-03</internalNodes>
      <leafValues>
        1.2678495049476624e-01 -5.7654845714569092e-01</leafValues></_>
    <_>
      <internalNodes>
        0 -1 990114 -8.2864947617053986e-03</internalNodes>
      <leafValues>
        8.8119804859161377e-01 -8.7799921631813049e-02</leafValues></_>
    <_>
      <internalNodes>
        0 -1 69342 -6.9309363607317209e-04</internalNodes>
      <leafValues>
        -4.6897858381271362e-01 1.5434633195400238e-01</leafValues></_>
    <_>
      <internalNodes>
        0 -1 799140 1.8519139848649502e-03</internalNodes>
      <leafValues>
        -1.8219459056854248e-01 3.8082852959632874e-01</leafValues></_>
    <_>
      <internalNodes>
        0 -1 298847 -2.8248128946870565e-03</internalNodes>
      <leafValues>
        3.5208055377006531e-01 -1.5914770960807800e-01</leafValues></_>
    <_>
      <internalNodes>
        0 -1 858156 1.3774359598755836e-02</internalNodes>
      <leafValues>
        -1.1596219986677170e-01 5.1293957233428955e-01</leafValues></_>
    <_>
      <internalNodes>
        0 -1 75567 1.4386458322405815e-02</internalNodes>
      <leafValues>
        -1.4139233529567719e-01 4.0897667407989502e-01</leafValues></_>
    <_>
      <internalNodes>
        0 -1 288243 -1.2393110431730747e-02</internalNodes>
      <leafValues>
        -5.5950337648391724e-01 1.2337907403707504e-01</leafValues></_>
    <_>
      <internalNodes>
        0 -1 780267 5.5084098130464554e-04</internalNodes>
      <leafValues>
        1.9399906694889069e-01 -3.1793245673179626e-01</leafValues></_>
    <_>
      <internalNodes>
        0 -1 1135729 -1.9130603177472949e-03</internalNodes>
      <leafValues>
        -5.6686639785766602e-01 9.8863333463668823e-02</leafValues></_>
    <_>
      <internalNodes>
        0 -1 898021 2.1592093980871141e-04</internalNodes>
      <leafValues>
        -1.4628782868385315e-01 4.2504212260246277e-01</leafValues></_>
    <_>
      <internalNodes>
        0 -1 942835 8.7348904344253242e-05</internalNodes>
      <leafValues>
        -1.9512946903705597e-01 3.1585162878036499e-01</leafValues></_>
    <_>
      <internalNodes>
        0 -1 1084964 -1.0998470243066549e-03</internalNodes>
      <leafValues>
        4.8954889178276062e-01 -1.3551726937294006e-01</leafValues></_>
    <_>
      <internalNodes>
        0 -1 971677 -3.8929145783185959e-02</internalNodes>
      <leafValues>
        -5.6948161125183105e-01 1.1506167799234390e-01</leafValues></_>
    <_>
      <internalNodes>
        0 -1 598295 6.1229139566421509e-02</internalNodes>
      <leafValues>
        -1.1092368513345718e-01 5.8140861988067627e-01</leafValues></_>
    <_>
      <internalNodes>
        0 -1 879134 -1.5649764100089669e-03</internalNodes>
      <leafValues>
        3.2194310426712036e-01 -1.9953505694866180e-01</leafValues></_>
    <_>
      <internalNodes>
        0 -1 53373 -2.6710027828812599e-02</internalNodes>
      <leafValues>
        6.0904800891876221e-01 -9.3950800597667694e-02</leafValues></_></weakClassifiers></stage23>
</opencv_storage>
