<?xml version="1.0"?>
<opencv_storage>
<stage7>
  <maxWeakCount>24</maxWeakCount>
  <stageThreshold>-1.1190550327301025e+00</stageThreshold>
  <weakClassifiers>
    <_>
      <internalNodes>
        0 -1 304168 4.2056813836097717e-03</internalNodes>
      <leafValues>
        -1.3061223924160004e-01 5.6417912244796753e-01</leafValues></_>
    <_>
      <internalNodes>
        0 -1 663394 -5.8881784789264202e-03</internalNodes>
      <leafValues>
        3.0020368099212646e-01 -2.7505606412887573e-01</leafValues></_>
    <_>
      <internalNodes>
        0 -1 1141987 3.7887445650994778e-03</internalNodes>
      <leafValues>
        -1.1454427987337112e-01 6.3737583160400391e-01</leafValues></_>
    <_>
      <internalNodes>
        0 -1 249039 1.3859850168228149e-01</internalNodes>
      <leafValues>
        -1.8763776123523712e-01 5.7898938655853271e-01</leafValues></_>
    <_>
      <internalNodes>
        0 -1 224427 -5.2258316427469254e-02</internalNodes>
      <leafValues>
        6.8488544225692749e-01 -1.1255770921707153e-01</leafValues></_>
    <_>
      <internalNodes>
        0 -1 1157895 -2.1320397499948740e-03</internalNodes>
      <leafValues>
        3.7718135118484497e-01 -1.8469247221946716e-01</leafValues></_>
    <_>
      <internalNodes>
        0 -1 226284 -1.4414754696190357e-03</internalNodes>
      <leafValues>
        2.9783836007118225e-01 -2.1975883841514587e-01</leafValues></_>
    <_>
      <internalNodes>
        0 -1 1176033 3.8636682438664138e-04</internalNodes>
      <leafValues>
        1.1106500774621964e-01 -5.6861686706542969e-01</leafValues></_>
    <_>
      <internalNodes>
        0 -1 71202 1.7792163416743279e-03</internalNodes>
      <leafValues>
        1.0466927289962769e-01 -6.2617182731628418e-01</leafValues></_>
    <_>
      <internalNodes>
        0 -1 319310 9.0666478499770164e-03</internalNodes>
      <leafValues>
        -3.1137922406196594e-01 2.3277036845684052e-01</leafValues></_>
    <_>
      <internalNodes>
        0 -1 46140 -2.0851194858551025e-02</internalNodes>
      <leafValues>
        4.7433972358703613e-01 -1.4549724757671356e-01</leafValues></_>
    <_>
      <internalNodes>
        0 -1 94722 5.5101467296481133e-03</internalNodes>
      <leafValues>
        -1.5511894226074219e-01 4.7351658344268799e-01</leafValues></_>
    <_>
      <internalNodes>
        0 -1 52970 3.4863664768636227e-03</internalNodes>
      <leafValues>
        1.0041354596614838e-01 -7.8551292419433594e-01</leafValues></_>
    <_>
      <internalNodes>
        0 -1 893647 -2.5149947032332420e-03</internalNodes>
      <leafValues>
        4.0378451347351074e-01 -1.9661954045295715e-01</leafValues></_>
    <_>
      <internalNodes>
        0 -1 1175291 -6.7085251212120056e-03</internalNodes>
      <leafValues>
        -5.8509176969528198e-01 1.2510775029659271e-01</leafValues></_>
    <_>
      <internalNodes>
        0 -1 76901 9.7218872979283333e-03</internalNodes>
      <leafValues>
        -1.3225317001342773e-01 5.7345479726791382e-01</leafValues></_>
    <_>
      <internalNodes>
        0 -1 138 -5.7374113239347935e-03</internalNodes>
      <leafValues>
        6.5883535146713257e-01 -1.1439518630504608e-01</leafValues></_>
    <_>
      <internalNodes>
        0 -1 417958 -4.8346199095249176e-02</internalNodes>
      <leafValues>
        -7.1086394786834717e-01 1.1869790405035019e-01</leafValues></_>
    <_>
      <internalNodes>
        0 -1 941058 -1.5364549471996725e-04</internalNodes>
      <leafValues>
        3.6256656050682068e-01 -2.0420129597187042e-01</leafValues></_>
    <_>
      <internalNodes>
        0 -1 1176313 -1.5403648139908910e-03</internalNodes>
      <leafValues>
        -6.3546550273895264e-01 1.2387349456548691e-01</leafValues></_>
    <_>
      <internalNodes>
        0 -1 81930 6.1316797509789467e-03</internalNodes>
      <leafValues>
        -2.1468262374401093e-01 3.7342867255210876e-01</leafValues></_>
    <_>
      <internalNodes>
        0 -1 1051930 -1.1098128743469715e-03</internalNodes>
      <leafValues>
        4.7428250312805176e-01 -1.5269161760807037e-01</leafValues></_>
    <_>
      <internalNodes>
        0 -1 1053376 -6.5229117171838880e-04</internalNodes>
      <leafValues>
        5.6877219676971436e-01 -1.2229440361261368e-01</leafValues></_>
    <_>
      <internalNodes>
        0 -1 995811 -2.0286146551370621e-02</internalNodes>
      <leafValues>
        -6.9963759183883667e-01 1.1154621094465256e-01</leafValues></_></weakClassifiers></stage7>
</opencv_storage>
