<?xml version="1.0"?>
<opencv_storage>
<stage0>
  <maxWeakCount>10</maxWeakCount>
  <stageThreshold>-1.5936418771743774e+00</stageThreshold>
  <weakClassifiers>
    <_>
      <internalNodes>
        0 -1 83021 1.8204248044639826e-03</internalNodes>
      <leafValues>
        -4.3502825498580933e-01 8.3006536960601807e-01</leafValues></_>
    <_>
      <internalNodes>
        0 -1 369760 -6.4275339245796204e-03</internalNodes>
      <leafValues>
        7.1251791715621948e-01 -3.4194108843803406e-01</leafValues></_>
    <_>
      <internalNodes>
        0 -1 441575 -4.7612842172384262e-02</internalNodes>
      <leafValues>
        -8.2956260442733765e-01 3.4051266312599182e-01</leafValues></_>
    <_>
      <internalNodes>
        0 -1 822383 -3.2066609710454941e-03</internalNodes>
      <leafValues>
        4.3975311517715454e-01 -3.5643666982650757e-01</leafValues></_>
    <_>
      <internalNodes>
        0 -1 178045 -4.6206000261008739e-03</internalNodes>
      <leafValues>
        4.1965082287788391e-01 -3.4439823031425476e-01</leafValues></_>
    <_>
      <internalNodes>
        0 -1 314277 1.8351611215621233e-03</internalNodes>
      <leafValues>
        -4.2887276411056519e-01 3.5441124439239502e-01</leafValues></_>
    <_>
      <internalNodes>
        0 -1 800683 3.3601410686969757e-03</internalNodes>
      <leafValues>
        -3.0293288826942444e-01 4.7325813770294189e-01</leafValues></_>
    <_>
      <internalNodes>
        0 -1 651 1.6458701342344284e-02</internalNodes>
      <leafValues>
        -2.7529677748680115e-01 4.8002925515174866e-01</leafValues></_>
    <_>
      <internalNodes>
        0 -1 441697 2.8417324647307396e-03</internalNodes>
      <leafValues>
        -1.8685179948806763e-01 7.7953231334686279e-01</leafValues></_>
    <_>
      <internalNodes>
        0 -1 298702 -2.6806019013747573e-04</internalNodes>
      <leafValues>
        3.6743906140327454e-01 -3.8770335912704468e-01</leafValues></_></weakClassifiers></stage0>
</opencv_storage>
