<?xml version="1.0"?>
<opencv_storage>
<stage27>
  <maxWeakCount>7</maxWeakCount>
  <stageThreshold>-8.0645453929901123e-01</stageThreshold>
  <weakClassifiers>
    <_>
      <internalNodes>
        0 -1 488586 8.8600796880200505e-04</internalNodes>
      <leafValues>
        1. -3.4615385532379150e-01</leafValues></_>
    <_>
      <internalNodes>
        0 -1 1138532 1.0440705809742212e-03</internalNodes>
      <leafValues>
        8.9671111106872559e-01 -4.0415495634078979e-01</leafValues></_>
    <_>
      <internalNodes>
        0 -1 1096224 2.9300074675120413e-04</internalNodes>
      <leafValues>
        9.0107208490371704e-01 -4.1335809230804443e-01</leafValues></_>
    <_>
      <internalNodes>
        0 -1 1176378 3.8027780828997493e-04</internalNodes>
      <leafValues>
        5.1881283521652222e-01 -9.2782062292098999e-01</leafValues></_>
    <_>
      <internalNodes>
        0 -1 900342 1.3251524069346488e-04</internalNodes>
      <leafValues>
        9.3569135665893555e-01 -5.1841926574707031e-01</leafValues></_>
    <_>
      <internalNodes>
        0 -1 437755 7.5216470577288419e-05</internalNodes>
      <leafValues>
        7.9086858034133911e-01 -5.2259373664855957e-01</leafValues></_>
    <_>
      <internalNodes>
        0 -1 467978 -2.9886740958318114e-04</internalNodes>
      <leafValues>
        1. -4.3404978513717651e-01</leafValues></_></weakClassifiers></stage27>
</opencv_storage>
