<?xml version="1.0"?>
<opencv_storage>
<stage3>
  <maxWeakCount>33</maxWeakCount>
  <stageThreshold>-9.1236180067062378e-01</stageThreshold>
  <weakClassifiers>
    <_>
      <internalNodes>
        0 -1 35001 3.7316801026463509e-03</internalNodes>
      <leafValues>
        3.5525321960449219e-02 6.2079513072967529e-01</leafValues></_>
    <_>
      <internalNodes>
        0 -1 671348 -2.6197489933110774e-04</internalNodes>
      <leafValues>
        2.5965887308120728e-01 -2.1803745627403259e-01</leafValues></_>
    <_>
      <internalNodes>
        0 -1 56356 -2.3427803535014391e-04</internalNodes>
      <leafValues>
        2.6718512177467346e-01 -2.0998321473598480e-01</leafValues></_>
    <_>
      <internalNodes>
        0 -1 1159633 -2.2037746384739876e-03</internalNodes>
      <leafValues>
        4.1133090853691101e-01 -1.3880991935729980e-01</leafValues></_>
    <_>
      <internalNodes>
        0 -1 891314 -3.4059246536344290e-03</internalNodes>
      <leafValues>
        -7.8976112604141235e-01 7.7522017061710358e-02</leafValues></_>
    <_>
      <internalNodes>
        0 -1 713297 2.0042425021529198e-03</internalNodes>
      <leafValues>
        -1.6409032046794891e-01 3.0480235815048218e-01</leafValues></_>
    <_>
      <internalNodes>
        0 -1 535743 -4.1858125478029251e-02</internalNodes>
      <leafValues>
        -7.2751319408416748e-01 5.8862179517745972e-02</leafValues></_>
    <_>
      <internalNodes>
        0 -1 204953 2.6480476371943951e-03</internalNodes>
      <leafValues>
        7.0814266800880432e-02 -5.8822023868560791e-01</leafValues></_>
    <_>
      <internalNodes>
        0 -1 636413 -1.9917735829949379e-02</internalNodes>
      <leafValues>
        3.0939471721649170e-01 -1.5332049131393433e-01</leafValues></_>
    <_>
      <internalNodes>
        0 -1 635812 1.4804294332861900e-03</internalNodes>
      <leafValues>
        -1.7069175839424133e-01 2.9056414961814880e-01</leafValues></_>
    <_>
      <internalNodes>
        0 -1 46385 6.5992753952741623e-03</internalNodes>
      <leafValues>
        4.7255571931600571e-02 -9.1443413496017456e-01</leafValues></_>
    <_>
      <internalNodes>
        0 -1 989972 -1.9700427073985338e-03</internalNodes>
      <leafValues>
        4.4958513975143433e-01 -1.0889658331871033e-01</leafValues></_>
    <_>
      <internalNodes>
        0 -1 680982 -1.9256400992162526e-04</internalNodes>
      <leafValues>
        3.8676673173904419e-01 -1.1726279556751251e-01</leafValues></_>
    <_>
      <internalNodes>
        0 -1 612788 2.7968580834567547e-03</internalNodes>
      <leafValues>
        -1.1858858913183212e-01 3.6960041522979736e-01</leafValues></_>
    <_>
      <internalNodes>
        0 -1 352082 2.8955936431884766e-02</internalNodes>
      <leafValues>
        5.5760376155376434e-02 -7.6230466365814209e-01</leafValues></_>
    <_>
      <internalNodes>
        0 -1 43605 -1.7874798504635692e-04</internalNodes>
      <leafValues>
        2.2857324779033661e-01 -1.9496645033359528e-01</leafValues></_>
    <_>
      <internalNodes>
        0 -1 49416 4.3083852506242692e-04</internalNodes>
      <leafValues>
        -1.1564727872610092e-01 4.3858346343040466e-01</leafValues></_>
    <_>
      <internalNodes>
        0 -1 102755 1.9876472651958466e-03</internalNodes>
      <leafValues>
        9.9248774349689484e-02 -4.9664884805679321e-01</leafValues></_>
    <_>
      <internalNodes>
        0 -1 789924 6.8143524229526520e-02</internalNodes>
      <leafValues>
        -7.4312463402748108e-02 6.4681196212768555e-01</leafValues></_>
    <_>
      <internalNodes>
        0 -1 391117 4.1001215577125549e-03</internalNodes>
      <leafValues>
        -1.0237762331962585e-01 4.6317532658576965e-01</leafValues></_>
    <_>
      <internalNodes>
        0 -1 33111 -3.1631149351596832e-02</internalNodes>
      <leafValues>
        5.1554262638092041e-01 -8.8119566440582275e-02</leafValues></_>
    <_>
      <internalNodes>
        0 -1 871687 3.6145257763564587e-03</internalNodes>
      <leafValues>
        8.0197826027870178e-02 -7.4025958776473999e-01</leafValues></_>
    <_>
      <internalNodes>
        0 -1 64907 3.8231718353927135e-03</internalNodes>
      <leafValues>
        -7.1850992739200592e-02 8.6779671907424927e-01</leafValues></_>
    <_>
      <internalNodes>
        0 -1 789038 2.6766345836222172e-03</internalNodes>
      <leafValues>
        7.7635005116462708e-02 -7.4125367403030396e-01</leafValues></_>
    <_>
      <internalNodes>
        0 -1 430376 1.3964321464300156e-02</internalNodes>
      <leafValues>
        -1.4383411407470703e-01 3.3471184968948364e-01</leafValues></_>
    <_>
      <internalNodes>
        0 -1 850311 2.1520005539059639e-03</internalNodes>
      <leafValues>
        -1.1521252989768982e-01 3.4997949004173279e-01</leafValues></_>
    <_>
      <internalNodes>
        0 -1 575554 -5.6048068217933178e-03</internalNodes>
      <leafValues>
        -5.3920793533325195e-01 7.9726837575435638e-02</leafValues></_>
    <_>
      <internalNodes>
        0 -1 128619 8.0314483493566513e-03</internalNodes>
      <leafValues>
        -1.1379275470972061e-01 3.6850845813751221e-01</leafValues></_>
    <_>
      <internalNodes>
        0 -1 1020693 -7.0343108382076025e-04</internalNodes>
      <leafValues>
        3.2612732052803040e-01 -1.1616653203964233e-01</leafValues></_>
    <_>
      <internalNodes>
        0 -1 625025 2.3700739257037640e-03</internalNodes>
      <leafValues>
        5.4413530975580215e-02 -7.9320174455642700e-01</leafValues></_>
    <_>
      <internalNodes>
        0 -1 1104552 -2.1302176639437675e-02</internalNodes>
      <leafValues>
        4.3461894989013672e-01 -1.0939563065767288e-01</leafValues></_>
    <_>
      <internalNodes>
        0 -1 535528 6.7495822906494141e-02</internalNodes>
      <leafValues>
        8.6136631667613983e-02 -5.8394789695739746e-01</leafValues></_>
    <_>
      <internalNodes>
        0 -1 1106711 -5.5499635636806488e-02</internalNodes>
      <leafValues>
        -5.8773285150527954e-01 6.7773409187793732e-02</leafValues></_></weakClassifiers></stage3>
</opencv_storage>
