<?xml version="1.0"?>
<opencv_storage>
<stage15>
  <maxWeakCount>10</maxWeakCount>
  <stageThreshold>-9.4943451881408691e-01</stageThreshold>
  <weakClassifiers>
    <_>
      <internalNodes>
        0 -1 29652 626741311 202536451 -2147413859 -1969221502
        1087048537 2038710913 1266680627 -827541420</internalNodes>
      <leafValues>
        -4.8196721076965332e-01 3.8947367668151855e-01</leafValues></_>
    <_>
      <internalNodes>
        0 -1 1393 -721041112 1779466500 268533768 -1870647030 1376914275
        545431559 1954611267 976613958</internalNodes>
      <leafValues>
        -4.4253760576248169e-01 3.5687682032585144e-01</leafValues></_>
    <_>
      <internalNodes>
        0 -1 40739 -1880164673 -2034324034 -1157734736 -1641521294
        1820073797 1305935732 1174240512 -96469221</internalNodes>
      <leafValues>
        -3.6421993374824524e-01 4.4590851664543152e-01</leafValues></_>
    <_>
      <internalNodes>
        0 -1 12673 1904754883 -1469389857 -822101103 -925209473
        863814963 112116593 1668483720 -908215728</internalNodes>
      <leafValues>
        -2.9900962114334106e-01 5.8468562364578247e-01</leafValues></_>
    <_>
      <internalNodes>
        0 -1 7670 570723205 -1101687720 -2147418031 -363841504 134759074
        436211760 1386285560 -611602299</internalNodes>
      <leafValues>
        -4.3659305572509766e-01 4.3902879953384399e-01</leafValues></_>
    <_>
      <internalNodes>
        0 -1 29920 -327721450 -701252416 -1074629190 -1837378885
        221697387 -293774025 192771198 -1697751432</internalNodes>
      <leafValues>
        -4.1880342364311218e-01 4.5208162069320679e-01</leafValues></_>
    <_>
      <internalNodes>
        0 -1 12205 1075008313 -1458224875 -1878978151 -867654311
        -1609891518 2030110720 -1870555129 -689661788</internalNodes>
      <leafValues>
        -4.6061587333679199e-01 4.0849140286445618e-01</leafValues></_>
    <_>
      <internalNodes>
        0 -1 34324 -2005423511 1648459522 759090457 1324056059 -67113897
        -1092882512 -388274308 -1210059595</internalNodes>
      <leafValues>
        -3.7112608551979065e-01 5.4411149024963379e-01</leafValues></_>
    <_>
      <internalNodes>
        0 -1 37771 -569281388 1125139416 -1878719595 1900500098
        -1311715197 -2012020720 1912726055 1464689093</internalNodes>
      <leafValues>
        -5.0738716125488281e-01 4.1926634311676025e-01</leafValues></_>
    <_>
      <internalNodes>
        0 -1 2817 1682475042 336266269 -1073573816 1212203169 268502032
        -939491197 1091684969 1178722973</internalNodes>
      <leafValues>
        -5.9083241224288940e-01 3.6791217327117920e-01</leafValues></_></weakClassifiers></stage15>
</opencv_storage>
