<?xml version="1.0"?>
<opencv_storage>
<stage14>
  <maxWeakCount>14</maxWeakCount>
  <stageThreshold>-1.0266172885894775e+00</stageThreshold>
  <weakClassifiers>
    <_>
      <internalNodes>
        0 -1 1681 1878386267 267501114 -16851226 1929115460 1988298567
        -1000472708 1983214944 1165219335</internalNodes>
      <leafValues>
        -3.3903133869171143e-01 3.7022900581359863e-01</leafValues></_>
    <_>
      <internalNodes>
        0 -1 1374 420206315 -935124987 -1741370639 1533641489
        -1307841900 -805269125 -968308006 1900179523</internalNodes>
      <leafValues>
        -3.1257504224777222e-01 3.7665781378746033e-01</leafValues></_>
    <_>
      <internalNodes>
        0 -1 25945 1280386370 251811986 1090547020 134696982 1610828882
        1489518593 403075841 -1273184192</internalNodes>
      <leafValues>
        -5.9143126010894775e-01 2.1314716339111328e-01</leafValues></_>
    <_>
      <internalNodes>
        0 -1 9123 273204956 -825761108 -805257096 377002265 1200069057
        1746075652 -1475957586 1515078280</internalNodes>
      <leafValues>
        -4.3121033906936646e-01 2.9501524567604065e-01</leafValues></_>
    <_>
      <internalNodes>
        0 -1 2359 -349962425 -404574471 -1900909002 -575963411
        -1895702673 -1673562281 1853312218 1919006327</internalNodes>
      <leafValues>
        -3.0263784527778625e-01 4.4894403219223022e-01</leafValues></_>
    <_>
      <internalNodes>
        0 -1 31820 268444831 -48889727 -1862184806 1103188237
        -2138759043 276988036 1217537732 673601672</internalNodes>
      <leafValues>
        -4.7887390851974487e-01 3.0702617764472961e-01</leafValues></_>
    <_>
      <internalNodes>
        0 -1 34077 1113948639 -192971237 578289504 -1582219397
        1383536359 -629277227 897563633 2015886827</internalNodes>
      <leafValues>
        -3.4201112389564514e-01 4.4648846983909607e-01</leafValues></_>
    <_>
      <internalNodes>
        0 -1 17879 -1828548069 -666213092 -1610610403 -1392311760
        -392017256 -1895168895 -1861991736 967254956</internalNodes>
      <leafValues>
        -3.6403164267539978e-01 4.1846555471420288e-01</leafValues></_>
    <_>
      <internalNodes>
        0 -1 4888 -1705285955 -1828733394 -1879364048 129716137
        1174324795 1090481655 -184740353 1245836919</internalNodes>
      <leafValues>
        -3.4912252426147461e-01 4.2413467168807983e-01</leafValues></_>
    <_>
      <internalNodes>
        0 -1 5929 -1932337595 1670119433 67151940 2018359443 1631207497
        -1291739134 269191863 1113686703</internalNodes>
      <leafValues>
        -4.7964489459991455e-01 2.9682993888854980e-01</leafValues></_>
    <_>
      <internalNodes>
        0 -1 26038 -59055625 -59323680 125774527 -762331612 708664491
        1473084981 1331580272 -61407246</internalNodes>
      <leafValues>
        -2.9883375763893127e-01 5.1241302490234375e-01</leafValues></_>
    <_>
      <internalNodes>
        0 -1 34423 -954795791 1166233795 -1727951871 268665025
        1912805930 293634048 54545349 409505157</internalNodes>
      <leafValues>
        -4.2945811152458191e-01 3.9151754975318909e-01</leafValues></_>
    <_>
      <internalNodes>
        0 -1 18176 -620497705 1642998596 -403774629 -1757825153
        -441442369 -1032234134 -1975543959 -1144697201</internalNodes>
      <leafValues>
        -3.1396153569221497e-01 5.6195533275604248e-01</leafValues></_>
    <_>
      <internalNodes>
        0 -1 29593 -129317882 689274880 -859693052 672235537 831552454
        843614217 1879130195 1885339761</internalNodes>
      <leafValues>
        -6.9410347938537598e-01 2.7144491672515869e-01</leafValues></_></weakClassifiers></stage14>
</opencv_storage>
