<?xml version="1.0"?>
<opencv_storage>
<stage0>
  <maxWeakCount>8</maxWeakCount>
  <stageThreshold>-1.2429213523864746e+00</stageThreshold>
  <weakClassifiers>
    <_>
      <internalNodes>
        0 -1 11219 -989609984 386466081 1140854810 327243139 134743694
        151603211 93027231 1602194123</internalNodes>
      <leafValues>
        -6.1768901348114014e-01 5.5576741695404053e-01</leafValues></_>
    <_>
      <internalNodes>
        0 -1 23424 -2136780672 -988063608 68113 1461411859 402752142
        680001544 235629099 258672427</internalNodes>
      <leafValues>
        -6.2108004093170166e-01 3.8485452532768250e-01</leafValues></_>
    <_>
      <internalNodes>
        0 -1 20779 -795884928 1595376837 1123526417 -705204997
        1157430498 -892494639 -329795861 -954217041</internalNodes>
      <leafValues>
        -4.1336277127265930e-01 6.0380840301513672e-01</leafValues></_>
    <_>
      <internalNodes>
        0 -1 8058 184697030 973177244 68166214 155910147 -2013181878
        170524683 454642315 459227643</internalNodes>
      <leafValues>
        -7.1916073560714722e-01 3.6902639269828796e-01</leafValues></_>
    <_>
      <internalNodes>
        0 -1 32861 1931724952 456656952 -1495398352 -17832465 1035124450
        528186999 863714457 -515</internalNodes>
      <leafValues>
        -4.5277997851371765e-01 5.4113823175430298e-01</leafValues></_>
    <_>
      <internalNodes>
        0 -1 14598 1967397040 -71139247 838866953 303382535 -1744781174
        -343801704 41943264 -1177859638</internalNodes>
      <leafValues>
        -4.7755295038223267e-01 5.2080535888671875e-01</leafValues></_>
    <_>
      <internalNodes>
        0 -1 19213 -760799078 923040881 -539146647 465305343 146801818
        2138660853 2104909659 -1182885081</internalNodes>
      <leafValues>
        -4.7893425822257996e-01 5.2296429872512817e-01</leafValues></_>
    <_>
      <internalNodes>
        0 -1 28191 -532489008 285294593 19 1593884808 -1560108909
        -1925185472 570523786 -2096111599</internalNodes>
      <leafValues>
        -4.5910441875457764e-01 5.3778564929962158e-01</leafValues></_></weakClassifiers></stage0>
</opencv_storage>
