<?xml version="1.0"?>
<opencv_storage>
<stage12>
  <maxWeakCount>11</maxWeakCount>
  <stageThreshold>-7.1957039833068848e-01</stageThreshold>
  <weakClassifiers>
    <_>
      <internalNodes>
        0 -1 26126 420218368 1497452900 1208009553 -1718861759 672825814
        -670365360 21323891 -1692782212</internalNodes>
      <leafValues>
        -4.1843971610069275e-01 3.2546374201774597e-01</leafValues></_>
    <_>
      <internalNodes>
        0 -1 1883 -244726654 1878738645 -1074432524 1378058239
        1189909698 -1359057058 -805908483 -161360041</internalNodes>
      <leafValues>
        -2.9804769158363342e-01 4.1622123122215271e-01</leafValues></_>
    <_>
      <internalNodes>
        0 -1 35833 -1854603960 -1509723897 377153 1763590272 -2016833095
        -1455389565 -939427383 1502805981</internalNodes>
      <leafValues>
        -3.6094439029693604e-01 3.4974116086959839e-01</leafValues></_>
    <_>
      <internalNodes>
        0 -1 21534 311602864 89879306 -1475764137 1040257026 432280234
        1342767107 1744896907 -1679752217</internalNodes>
      <leafValues>
        -4.9248060584068298e-01 2.6523715257644653e-01</leafValues></_>
    <_>
      <internalNodes>
        0 -1 35576 -550974941 1141309756 453189971 1311604737 -683094230
        1107337288 411708001 148702669</internalNodes>
      <leafValues>
        -4.8046886920928955e-01 3.0016320943832397e-01</leafValues></_>
    <_>
      <internalNodes>
        0 -1 21521 -2113414549 -1711273528 25209223 814068096 276906091
        176193549 9118515 -1436617904</internalNodes>
      <leafValues>
        -4.0549826622009277e-01 3.7951749563217163e-01</leafValues></_>
    <_>
      <internalNodes>
        0 -1 36258 1419234706 1293664783 -1593736288 1160544641
        157291318 268443690 -1869831986 1071539615</internalNodes>
      <leafValues>
        -4.0649124979972839e-01 3.8926422595977783e-01</leafValues></_>
    <_>
      <internalNodes>
        0 -1 2737 -548080748 -1000914674 -1853881199 -1629794296
        563644456 1510671003 546021467 878328637</internalNodes>
      <leafValues>
        -4.8307007551193237e-01 3.1339919567108154e-01</leafValues></_>
    <_>
      <internalNodes>
        0 -1 10918 -1122499451 -197136071 -273404125 2134634494
        -554299485 1030799348 763137995 2075785213</internalNodes>
      <leafValues>
        -3.4757849574089050e-01 4.7009527683258057e-01</leafValues></_>
    <_>
      <internalNodes>
        0 -1 26116 1604123256 -16969343 25156188 -1011261444 1752544936
        -1082235217 -1642639661 -1166541751</internalNodes>
      <leafValues>
        -3.6539730429649353e-01 4.5442220568656921e-01</leafValues></_>
    <_>
      <internalNodes>
        0 -1 33156 -60146214 2005858220 528381913 -1149958340
        -1619214376 190775262 609955355 7051131</internalNodes>
      <leafValues>
        -3.6836150288581848e-01 4.4051727652549744e-01</leafValues></_></weakClassifiers></stage12>
</opencv_storage>
