<?xml version="1.0"?>
<opencv_storage>
<stage7>
  <maxWeakCount>12</maxWeakCount>
  <stageThreshold>-9.6093034744262695e-01</stageThreshold>
  <weakClassifiers>
    <_>
      <internalNodes>
        0 -1 29583 -30749133 1073688431 -822083849 721026995 536857830
        1031733079 2063351383 -358689292</internalNodes>
      <leafValues>
        -2.7020785212516785e-01 4.3438914418220520e-01</leafValues></_>
    <_>
      <internalNodes>
        0 -1 36416 1967120579 2003790939 1811516522 1764256291
        1199481807 1684140015 -327242006 -339759969</internalNodes>
      <leafValues>
        -2.2499905526638031e-01 5.5804330110549927e-01</leafValues></_>
    <_>
      <internalNodes>
        0 -1 16914 -213808918 775312518 1342242932 159387904 10897659
        1208164768 234971359 1577750798</internalNodes>
      <leafValues>
        -4.3576020002365112e-01 2.9663634300231934e-01</leafValues></_>
    <_>
      <internalNodes>
        0 -1 23816 -623700334 869597650 -796915962 889598082 142762481
        -106030948 -981116379 -218699771</internalNodes>
      <leafValues>
        -4.1496238112449646e-01 3.2063648104667664e-01</leafValues></_>
    <_>
      <internalNodes>
        0 -1 23926 457041554 -2059504015 -1146440159 -1619001547
        -2091437876 -1623261209 -29439289 -1344412327</internalNodes>
      <leafValues>
        -3.3878776431083679e-01 4.5946291089057922e-01</leafValues></_>
    <_>
      <internalNodes>
        0 -1 9804 334220163 -881392986 464777150 1992790009 -1154821417
        -97481 670795355 -545308988</internalNodes>
      <leafValues>
        -3.4624961018562317e-01 4.5751097798347473e-01</leafValues></_>
    <_>
      <internalNodes>
        0 -1 2401 -630537509 -406188230 -218108189 1892200190
        -1887930813 -809994391 -1074331721 -971258057</internalNodes>
      <leafValues>
        -3.4777101874351501e-01 4.5519834756851196e-01</leafValues></_>
    <_>
      <internalNodes>
        0 -1 28149 1836825043 523482829 -1091674915 398810253 737826270
        -1631592467 259042702 -566549105</internalNodes>
      <leafValues>
        -2.3748071491718292e-01 6.1942154169082642e-01</leafValues></_>
    <_>
      <internalNodes>
        0 -1 12009 -783281980 1435762704 -2130665127 379098248 4210704
        -1582661335 -1610577535 2073829616</internalNodes>
      <leafValues>
        -6.2424463033676147e-01 2.5233778357505798e-01</leafValues></_>
    <_>
      <internalNodes>
        0 -1 18423 264593474 1176182862 -1988034293 -1853351798
        -1769590634 -855474167 -1723138581 204570890</internalNodes>
      <leafValues>
        -5.0170385837554932e-01 3.4715965390205383e-01</leafValues></_>
    <_>
      <internalNodes>
        0 -1 4373 1082933516 -2008772508 1141915691 2118583042
        -1055896925 671254562 436210436 199168533</internalNodes>
      <leafValues>
        -6.6497594118118286e-01 2.2147113084793091e-01</leafValues></_>
    <_>
      <internalNodes>
        0 -1 39280 -1396945950 1345018816 700673 429195282 -934778866
        -436182739 553881728 -1072964471</internalNodes>
      <leafValues>
        -4.6330556273460388e-01 3.6210489273071289e-01</leafValues></_></weakClassifiers></stage7>
</opencv_storage>
