<?xml version="1.0"?>
<opencv_storage>
<stage11>
  <maxWeakCount>12</maxWeakCount>
  <stageThreshold>-6.6051661968231201e-01</stageThreshold>
  <weakClassifiers>
    <_>
      <internalNodes>
        0 -1 10914 -1892978870 1845559553 92537800 461594639 -1039630270
        422150726 25313374 76423378</internalNodes>
      <leafValues>
        -5.4034227132797241e-01 2.7665922045707703e-01</leafValues></_>
    <_>
      <internalNodes>
        0 -1 8903 -1439683885 1610055548 1862008428 -1803817227
        -1753790643 -1351729381 58154220 -614500741</internalNodes>
      <leafValues>
        -3.2066395878791809e-01 4.0107133984565735e-01</leafValues></_>
    <_>
      <internalNodes>
        0 -1 38553 -1248855358 4396035 -1043983710 -1744436271
        -624807359 1229635584 130275712 1443879098</internalNodes>
      <leafValues>
        -5.0561684370040894e-01 2.6129522919654846e-01</leafValues></_>
    <_>
      <internalNodes>
        0 -1 16964 252351170 -83558244 134218754 -1918951422 188917930
        -1971126272 623872680 -1987933723</internalNodes>
      <leafValues>
        -4.0940630435943604e-01 3.3814468979835510e-01</leafValues></_>
    <_>
      <internalNodes>
        0 -1 27846 1665172183 458821869 1352778911 714682755 865826171
        700536844 1808403206 -1736261593</internalNodes>
      <leafValues>
        -4.3435403704643250e-01 3.3450275659561157e-01</leafValues></_>
    <_>
      <internalNodes>
        0 -1 33191 -367013800 -1150205919 1074463359 -619053051
        -1708639734 939765896 236127728 1242287655</internalNodes>
      <leafValues>
        -4.4332340359687805e-01 3.3314484357833862e-01</leafValues></_>
    <_>
      <internalNodes>
        0 -1 10592 -84708400 -1031833750 838846007 1469757247
        -1996535994 1249302387 -1226319939 -1145594005</internalNodes>
      <leafValues>
        -3.5352629423141479e-01 4.4815135002136230e-01</leafValues></_>
    <_>
      <internalNodes>
        0 -1 19969 -603360908 405344468 419497357 1275858972 -2011954943
        -502656886 705560772 136645144</internalNodes>
      <leafValues>
        -5.8754533529281616e-01 2.6208403706550598e-01</leafValues></_>
    <_>
      <internalNodes>
        0 -1 1857 1663158983 -1982791413 -1065238400 1912701201
        826294544 1124073611 570460864 1531044629</internalNodes>
      <leafValues>
        -4.6913108229637146e-01 3.4465697407722473e-01</leafValues></_>
    <_>
      <internalNodes>
        0 -1 19179 -1482525465 -1436843645 -184643287 -268484771
        -203503894 -228606217 1595444811 -1275245315</internalNodes>
      <leafValues>
        -2.9316729307174683e-01 5.8031880855560303e-01</leafValues></_>
    <_>
      <internalNodes>
        0 -1 968 -2133990013 1104839169 276844589 -419102587 436207750
        -258997815 -758435054 2035290294</internalNodes>
      <leafValues>
        -4.5057946443557739e-01 3.7076789140701294e-01</leafValues></_>
    <_>
      <internalNodes>
        0 -1 16054 42053186 -970391365 395369753 1418826265 178332440
        -2130706431 1224778518 1396656383</internalNodes>
      <leafValues>
        -5.9078341722488403e-01 2.8289762139320374e-01</leafValues></_></weakClassifiers></stage11>
</opencv_storage>
