<?xml version="1.0"?>
<opencv_storage>
<stage9>
  <maxWeakCount>12</maxWeakCount>
  <stageThreshold>-1.3522263765335083e+00</stageThreshold>
  <weakClassifiers>
    <_>
      <internalNodes>
        0 -1 39145 -741348946 338392957 1878949550 1379924734 209114880
        1431699303 2050961098 -976488710</internalNodes>
      <leafValues>
        -2.4808743596076965e-01 4.5149701833724976e-01</leafValues></_>
    <_>
      <internalNodes>
        0 -1 40227 -1534639092 537232384 -1878994922 1142034546
        1510503235 3 -1216249725 -2141199377</internalNodes>
      <leafValues>
        -5.1009136438369751e-01 2.4125958979129791e-01</leafValues></_>
    <_>
      <internalNodes>
        0 -1 21595 1362139368 -1857744243 84214546 -2115026910 168954015
        169902081 403704139 -338492863</internalNodes>
      <leafValues>
        -4.2605128884315491e-01 2.9472014307975769e-01</leafValues></_>
    <_>
      <internalNodes>
        0 -1 1124 1650310539 -2085232902 -1549287769 2070376243 4949240
        120815603 -345803685 -210778277</internalNodes>
      <leafValues>
        -2.6641458272933960e-01 4.9907234311103821e-01</leafValues></_>
    <_>
      <internalNodes>
        0 -1 16831 596189331 -1410625613 -1098911745 -78693647
        -583357095 -540311812 1995719823 931028245</internalNodes>
      <leafValues>
        -3.7501889467239380e-01 3.9443966746330261e-01</leafValues></_>
    <_>
      <internalNodes>
        0 -1 13889 487254794 394595090 1073791768 363024771 1493439450
        1208097168 1967184409 260526922</internalNodes>
      <leafValues>
        -5.0602829456329346e-01 3.0406856536865234e-01</leafValues></_>
    <_>
      <internalNodes>
        0 -1 23362 -746374014 -762572393 -2145582855 -1258072793
        536915304 -316013526 50335773 1368249427</internalNodes>
      <leafValues>
        -4.2285680770874023e-01 3.8605371117591858e-01</leafValues></_>
    <_>
      <internalNodes>
        0 -1 1640 -1145580963 1155761907 -17080591 2013100919
        -1776467958 -1628811522 -67961201 -567095297</internalNodes>
      <leafValues>
        -3.0938732624053955e-01 5.3878784179687500e-01</leafValues></_>
    <_>
      <internalNodes>
        0 -1 12980 -1817773710 596519902 -739005571 1806565309
        1178251674 -308324502 259912255 -820397205</internalNodes>
      <leafValues>
        -3.6651259660720825e-01 4.4905805587768555e-01</leafValues></_>
    <_>
      <internalNodes>
        0 -1 21532 951852911 2138013243 -1816776922 805191095
        -1344385129 1870618575 2146664303 -1230768297</internalNodes>
      <leafValues>
        -3.9548692107200623e-01 4.4048953056335449e-01</leafValues></_>
    <_>
      <internalNodes>
        0 -1 39469 -1358052991 -2129342336 1363149140 454131729
        -1900017477 -1969225600 -1872272767 -743447845</internalNodes>
      <leafValues>
        -3.7187305092811584e-01 4.5109808444976807e-01</leafValues></_>
    <_>
      <internalNodes>
        0 -1 29947 -1081701160 1362099828 2140812349 -1988264643
        712838315 -1636376583 724878574 1270867027</internalNodes>
      <leafValues>
        -3.7481325864791870e-01 4.6335729956626892e-01</leafValues></_></weakClassifiers></stage9>
</opencv_storage>
