<?xml version="1.0"?>
<opencv_storage>
<stage4>
  <maxWeakCount>12</maxWeakCount>
  <stageThreshold>-1.0404731035232544e+00</stageThreshold>
  <weakClassifiers>
    <_>
      <internalNodes>
        0 -1 27846 -612377869 587165567 -1090519375 717193151 805271487
        -150995073 1593138999 -1365621450</internalNodes>
      <leafValues>
        -2.9506313800811768e-01 4.6302616596221924e-01</leafValues></_>
    <_>
      <internalNodes>
        0 -1 11142 -1005971456 849068297 1677871258 1930633537
        1611022691 671404036 138473163 -350658305</internalNodes>
      <leafValues>
        -5.3570830821990967e-01 2.8446492552757263e-01</leafValues></_>
    <_>
      <internalNodes>
        0 -1 38502 1469051914 -1945926912 -1073639424 -783625648 5613825
        2046918673 1380626897 -607132471</internalNodes>
      <leafValues>
        -3.9176884293556213e-01 3.9180457592010498e-01</leafValues></_>
    <_>
      <internalNodes>
        0 -1 30962 -355761600 -783215663 604250524 1883316501
        -1986449384 -520059887 -368983384 1075552639</internalNodes>
      <leafValues>
        -4.3492633104324341e-01 3.8095951080322266e-01</leafValues></_>
    <_>
      <internalNodes>
        0 -1 8461 -633604397 -545885005 -277295609 -966083161 501194749
        1869807487 -562794913 -12853377</internalNodes>
      <leafValues>
        -2.8931683301925659e-01 5.9486120939254761e-01</leafValues></_>
    <_>
      <internalNodes>
        0 -1 2035 -530862710 1745618388 475025542 1888006281 1086325326
        134250508 1686270853 -440410045</internalNodes>
      <leafValues>
        -5.8829879760742188e-01 2.7417013049125671e-01</leafValues></_>
    <_>
      <internalNodes>
        0 -1 11675 -1862205232 -1748950886 1140920392 302452745 4986902
        411599001 125841452 1510050523</internalNodes>
      <leafValues>
        -5.4745328426361084e-01 3.3347210288047791e-01</leafValues></_>
    <_>
      <internalNodes>
        0 -1 15189 -878982693 1711312969 -2013003433 -1993748239
        595968354 1090602370 -1960703805 1463489775</internalNodes>
      <leafValues>
        -4.0758076310157776e-01 4.4746115803718567e-01</leafValues></_>
    <_>
      <internalNodes>
        0 -1 15896 -79943590 1133384685 523643505 -9273995 897517140
        -1666963497 -1356111265 -350632225</internalNodes>
      <leafValues>
        -4.2580088973045349e-01 4.8509657382965088e-01</leafValues></_>
    <_>
      <internalNodes>
        0 -1 34239 1940511626 1386987002 2132510904 1060822383
        -528491056 -1545601163 -8936109 -575275523</internalNodes>
      <leafValues>
        -3.9695167541503906e-01 4.8949065804481506e-01</leafValues></_>
    <_>
      <internalNodes>
        0 -1 22003 -2143022576 924290161 -1035419217 -1995947675
        -2113754225 -1365663741 -503144229 -1722267248</internalNodes>
      <leafValues>
        -4.9149474501609802e-01 4.1820368170738220e-01</leafValues></_>
    <_>
      <internalNodes>
        0 -1 11191 -1051926994 222019313 1823768434 -1683808406
        234004027 2147377020 -1144108417 -311232521</internalNodes>
      <leafValues>
        -4.1280817985534668e-01 4.7280743718147278e-01</leafValues></_></weakClassifiers></stage4>
</opencv_storage>
