<?xml version="1.0"?>
<opencv_storage>
<stage8>
  <maxWeakCount>15</maxWeakCount>
  <stageThreshold>-8.1789165735244751e-01</stageThreshold>
  <weakClassifiers>
    <_>
      <internalNodes>
        0 -1 20085 -921747176 68386944 1099890769 17465633 1074594712
        329863194 402735827 529503146</internalNodes>
      <leafValues>
        -4.4615384936332703e-01 3.1056910753250122e-01</leafValues></_>
    <_>
      <internalNodes>
        0 -1 25899 1516198367 1208160652 138499409 672174087 1208046411
        1385169048 843170071 -342196158</internalNodes>
      <leafValues>
        -4.2524799704551697e-01 2.9761520028114319e-01</leafValues></_>
    <_>
      <internalNodes>
        0 -1 16250 402914880 440976656 -2147477296 -1752169194
        -2146796615 571314393 -1601492545 329075507</internalNodes>
      <leafValues>
        -4.2859601974487305e-01 2.9277518391609192e-01</leafValues></_>
    <_>
      <internalNodes>
        0 -1 24145 -793323306 -1625560011 1930019957 -7647655 -500242241
        -1880098989 1182721615 980073673</internalNodes>
      <leafValues>
        -2.7227458357810974e-01 4.9016681313514709e-01</leafValues></_>
    <_>
      <internalNodes>
        0 -1 5276 1362871227 1320070576 -343962107 -1812470071
        -1192268147 2139095026 2122086367 -17926659</internalNodes>
      <leafValues>
        -3.0576771497726440e-01 5.0355803966522217e-01</leafValues></_>
    <_>
      <internalNodes>
        0 -1 2529 -335199669 -1065222134 -1068974068 374571532
        -1602095101 -2128598464 1800089748 -1239949245</internalNodes>
      <leafValues>
        -3.6539760231971741e-01 3.9572894573211670e-01</leafValues></_>
    <_>
      <internalNodes>
        0 -1 32871 -798239719 -551293959 792426291 -608452613
        -1250452263 536854388 1434451447 -138422283</internalNodes>
      <leafValues>
        -3.0400225520133972e-01 5.2383255958557129e-01</leafValues></_>
    <_>
      <internalNodes>
        0 -1 16447 -815929694 68747778 -2130651126 496287764 -2002594717
        1518408332 -1802958835 946501651</internalNodes>
      <leafValues>
        -5.1990336179733276e-01 3.3008044958114624e-01</leafValues></_>
    <_>
      <internalNodes>
        0 -1 642 562275286 268599681 540701 357646405 1141571759
        -1468006008 1627521155 772170704</internalNodes>
      <leafValues>
        -5.3039586544036865e-01 2.9338949918746948e-01</leafValues></_>
    <_>
      <internalNodes>
        0 -1 35574 1187936490 566363290 319307784 349539138 -833994544
        1614938264 -2121177929 -751990627</internalNodes>
      <leafValues>
        -5.0408262014389038e-01 3.1841439008712769e-01</leafValues></_>
    <_>
      <internalNodes>
        0 -1 18699 276907042 767676752 -872405378 159859094 -794652260
        973211801 -264230817 1116684405</internalNodes>
      <leafValues>
        -5.6716537475585938e-01 3.0445948243141174e-01</leafValues></_>
    <_>
      <internalNodes>
        0 -1 1652 -152352069 2102375753 175401689 1115451387 1278641964
        -815843343 -570927393 -17834257</internalNodes>
      <leafValues>
        -3.5456991195678711e-01 5.3368127346038818e-01</leafValues></_>
    <_>
      <internalNodes>
        0 -1 8461 -844999494 -703704733 -536870390 1518907538 268599594
        1510574601 -654042981 -569681269</internalNodes>
      <leafValues>
        -4.5428690314292908e-01 3.7196445465087891e-01</leafValues></_>
    <_>
      <internalNodes>
        0 -1 16472 19583198 2015755057 201490473 673026605 1082671235
        957513896 -651603733 739305483</internalNodes>
      <leafValues>
        -5.0580722093582153e-01 3.6359727382659912e-01</leafValues></_>
    <_>
      <internalNodes>
        0 -1 23142 51951381 -2121781224 1610612794 -1857021951
        -258887284 -888500183 436232650 -1636626423</internalNodes>
      <leafValues>
        -4.2973548173904419e-01 4.2631474137306213e-01</leafValues></_></weakClassifiers></stage8>
</opencv_storage>
